#ifndef __SV256WB_H__
#define __SV256WB_H__

static const float conv_4_BiasAdd_ReadVariableOp[64] = {
    0.146171f, -0.048418f, 0.150478f, 0.111130f, -0.236313f, -0.170376f, 0.120977f, 0.087870f,
    0.055736f, -0.323564f, -0.038990f, -0.168577f, -0.063484f, 0.037545f, 0.075274f, -0.244548f,
    0.174299f, -0.438638f, -0.040581f, 0.647984f, 0.285331f, -0.105438f, 0.148800f, -0.129689f,
    -0.217873f, -0.028877f, -0.105278f, -0.338480f, 0.006972f, -0.097928f, -0.370411f, 0.045934f,
    -0.361373f, -0.225328f, 0.024830f, 0.069827f, -0.027455f, 0.072517f, -0.106061f, -0.010448f,
    -0.117857f, -0.061886f, -0.050815f, 0.128126f, 0.231986f, -0.173816f, -0.371981f, -0.195811f,
    0.211209f, -0.018101f, 0.282673f, 0.123870f, 0.089912f, 0.234919f, 0.125118f, 0.289630f,
    0.035901f, 0.152735f, -0.197599f, 0.303412f, 0.325515f, -0.036064f, 0.313513f, -0.066609f,
};

// Shape: (64,)

static const float conv_3_BiasAdd_ReadVariableOp[32] = {
    0.137338f, 0.037687f, 0.147567f, -0.108112f, 0.156109f, -0.303807f, 0.017545f, 0.024628f,
    -0.121348f, -0.415118f, -0.006538f, -0.057644f, 0.176438f, -0.042398f, 0.353134f, -0.137545f,
    0.001762f, 0.040279f, -0.154667f, 0.328475f, -0.165960f, -0.418706f, -0.043927f, 0.135993f,
    0.710335f, -0.090047f, 0.118396f, -0.059720f, -0.141491f, -0.169036f, 0.028115f, 0.320884f,
};

// Shape: (32,)

static const float conv_2_BiasAdd_ReadVariableOp[16] = {
    -0.102072f, -0.042861f, -0.154760f, 0.217309f, 0.091448f, -0.066101f, -0.007161f, 0.071946f,
    -0.306926f, 0.180422f, 0.062708f, -0.041224f, -0.677230f, -0.126850f, 0.007248f, -0.311651f,
};

// Shape: (16,)

static const float conv_1_BiasAdd_ReadVariableOp[8] = {
    0.050777f, -0.126932f, 0.453639f, -0.243148f, 0.016101f, -0.722181f, 0.392792f, -0.010220f,
};

// Shape: (8,)

static const float conv_4_Weights[18432] = {
    0.083580f, -0.296002f, 0.074398f, -0.000949f, 0.086622f, -0.027967f, -0.111160f, 0.040863f,
    -0.081574f, -0.058209f, 0.000635f, -0.000098f, -0.081319f, 0.032686f, -0.020189f, -0.082761f,
    0.201531f, 0.076566f, 0.162308f, -0.013126f, 0.102265f, 0.138861f, 0.064116f, -0.067805f,
    -0.113575f, -0.030129f, 0.047506f, -0.033322f, -0.080343f, 0.119908f, 0.044889f, 0.084826f,
    0.184334f, 0.028956f, -0.078777f, 0.292372f, -0.148331f, -0.159641f, 0.106955f, -0.244085f,
    -0.089158f, 0.163312f, 0.011253f, 0.014744f, -0.082213f, -0.130577f, 0.147893f, -0.128074f,
    -0.486459f, -0.205109f, 0.035273f, 0.074287f, -0.139509f, 0.029663f, -0.010943f, 0.039543f,
    -0.062642f, -0.038173f, -0.079195f, -0.056515f, 0.217609f, -0.096112f, 0.196857f, 0.030969f,
    -0.024328f, -0.104808f, -0.039522f, -0.032418f, -0.185139f, 0.213754f, 0.182622f, -0.074443f,
    0.062007f, 0.138118f, 0.080962f, -0.130805f, -0.016437f, 0.114030f, 0.084262f, 0.201816f,
    0.127467f, 0.035018f, 0.072490f, -0.093787f, -0.104397f, 0.167639f, 0.154095f, 0.148765f,
    -0.048267f, -0.302185f, 0.170745f, 0.089505f, -0.145230f, -0.004132f, 0.107270f, -0.200023f,
    -0.168127f, -0.076890f, -0.298585f, -0.203216f, -0.071643f, -0.134612f, 0.051510f, 0.018717f,
    0.027670f, -0.138289f, 0.039991f, -0.138080f, -0.067502f, -0.195372f, 0.044899f, -0.119662f,
    -0.098768f, 0.238435f, -0.069401f, 0.058374f, -0.065251f, -0.110512f, 0.199693f, 0.013568f,
    -0.047428f, 0.080682f, 0.045937f, 0.085969f, 0.165889f, -0.065258f, 0.039509f, -0.021005f,
    -0.011444f, 0.236998f, 0.169799f, 0.623659f, 0.003077f, -0.158231f, 0.096088f, -0.055316f,
    -0.143284f, 0.290085f, 0.094831f, 0.004841f, -0.122510f, -0.113924f, -0.068306f, -0.205063f,
    -0.140330f, 0.035462f, 0.333046f, 0.031643f, -0.234016f, 0.221473f, -0.202851f, -0.031053f,
    0.230308f, -0.011416f, -0.043275f, -0.206466f, 0.252006f, 0.125226f, 0.072905f, -0.142899f,
    -0.055385f, -0.136418f, 0.067096f, -0.045296f, -0.066409f, -0.162223f, 0.086115f, -0.052471f,
    -0.159375f, 0.182907f, 0.043573f, 0.087356f, -0.168920f, 0.001283f, 0.068948f, 0.145298f,
    -0.008272f, 0.025356f, -0.260788f, 0.013811f, -0.129037f, 0.013570f, -0.118755f, 0.025016f,
    -0.057750f, -0.243624f, -0.033735f, 0.108313f, 0.088733f, 0.215875f, -0.120866f, -0.020508f,
    -0.046907f, -0.186024f, -0.228238f, -0.147051f, 0.018390f, 0.121182f, -0.018952f, 0.096397f,
    0.016262f, -0.131449f, 0.061088f, 0.005437f, 0.046710f, 0.048278f, -0.282926f, 0.073815f,
    -0.014895f, 0.247354f, -0.217845f, -0.045940f, 0.245519f, 0.070865f, 0.088073f, -0.136677f,
    0.011050f, -0.017434f, 0.035922f, -0.169387f, 0.066053f, 0.144067f, 0.132460f, -0.226002f,
    -0.273808f, -0.042384f, 0.204044f, 0.161355f, 0.208802f, -0.044763f, 0.003650f, 0.080908f,
    -0.248606f, -0.060186f, -0.105826f, 0.091025f, -0.109704f, -0.023296f, 0.132712f, -0.013084f,
    0.134135f, -0.028256f, 0.165007f, -0.087093f, -0.106437f, 0.155108f, -0.214896f, -0.193753f,
    -0.002669f, 0.141295f, 0.282413f, -0.128046f, 0.034446f, 0.119059f, -0.011046f, -0.312111f,
    0.026786f, -0.091884f, 0.147953f, 0.045869f, 0.119260f, -0.092998f, 0.049275f, 0.052643f,
    0.048703f, 0.128745f, -0.183978f, -0.059544f, -0.164398f, -0.155346f, -0.168063f, -0.320025f,
    -0.093992f, 0.150297f, -0.078071f, -0.105754f, 0.008993f, -0.311255f, -0.153637f, 0.015192f,
    0.040132f, -0.165234f, 0.060128f, 0.023723f, 0.183835f, 0.259679f, -0.330233f, 0.114999f,
    0.024226f, 0.024266f, 0.005344f, 0.217828f, -0.058270f, 0.121939f, 0.257643f, 0.018894f,
    -0.079428f, -0.213775f, 0.035029f, 0.304395f, -0.222027f, -0.109965f, -0.104730f, 0.286179f,
    0.052901f, -0.041698f, 0.176980f, 0.037528f, -0.047038f, -0.019018f, -0.103038f, 0.023305f,
    0.069396f, -0.030140f, 0.076070f, 0.098249f, -0.169195f, -0.094411f, 0.015518f, 0.109596f,
    0.002768f, -0.169279f, -0.102330f, 0.113617f, 0.194025f, 0.038010f, -0.132380f, -0.051061f,
    -0.049410f, -0.083631f, 0.040813f, -0.071541f, 0.116807f, -0.062357f, 0.152199f, 0.122211f,
    0.055481f, 0.068757f, 0.109480f, -0.024461f, 0.037907f, -0.265561f, 0.006605f, -0.198743f,
    0.053536f, -0.208477f, -0.097056f, 0.103366f, -0.020505f, 0.068954f, -0.171382f, -0.131411f,
    0.188818f, 0.073243f, -0.087430f, 0.107316f, -0.049926f, 0.272795f, -0.165460f, 0.102069f,
    0.227476f, -0.151316f, -0.074341f, -0.027502f, 0.008655f, 0.174318f, -0.140561f, 0.003379f,
    -0.250899f, -0.114288f, 0.071064f, 0.064232f, 0.135385f, -0.118704f, 0.393790f, 0.036541f,
    -0.155739f, -0.078694f, 0.089030f, 0.133670f, 0.054499f, 0.042233f, 0.084506f, 0.067245f,
    0.323218f, 0.010951f, -0.051245f, 0.045357f, -0.104553f, 0.156534f, 0.250232f, 0.013745f,
    -0.053290f, 0.101742f, 0.081515f, -0.032345f, 0.032499f, -0.037332f, -0.288403f, -0.048434f,
    -0.028710f, -0.030435f, -0.253944f, -0.173051f, 0.121022f, 0.094898f, 0.173571f, 0.116649f,
    -0.237876f, 0.171302f, 0.053378f, 0.054072f, -0.038880f, -0.023669f, -0.037340f, -0.165324f,
    -0.097290f, -0.115778f, 0.209674f, 0.251472f, 0.141862f, -0.178503f, -0.392571f, -0.064966f,
    -0.113278f, -0.200375f, 0.363141f, -0.116266f, 0.552049f, 0.272168f, 0.021855f, -0.186040f,
    0.218064f, 0.216954f, -0.008050f, 0.108461f, 0.288810f, -0.284483f, 0.060322f, -0.089339f,
    0.086596f, -0.177399f, -0.182923f, -0.133560f, 0.046318f, 0.022522f, 0.060020f, 0.181438f,
    -0.180379f, 0.010527f, -0.216261f, 0.179607f, 0.209759f, -0.001267f, 0.177299f, 0.062557f,
    -0.287064f, 0.058353f, 0.012737f, -0.005352f, 0.287957f, -0.234466f, 0.275198f, -0.037780f,
    -0.154812f, 0.101191f, 0.069923f, -0.119347f, -0.026097f, 0.029537f, -0.001162f, 0.126166f,
    0.044221f, -0.130839f, -0.093256f, -0.031454f, 0.168682f, -0.103012f, -0.206573f, -0.045702f,
    0.179524f, 0.051927f, -0.225206f, 0.009383f, -0.129206f, 0.043039f, 0.183588f, -0.320457f,
    -0.032844f, 0.003451f, -0.147770f, 0.034021f, -0.058235f, -0.082833f, -0.285406f, 0.046616f,
    0.099648f, -0.172746f, -0.214208f, -0.237373f, 0.300906f, 0.085604f, 0.329186f, 0.037487f,
    0.015947f, -0.130787f, 0.151324f, -0.010159f, 0.053559f, 0.066325f, 0.245823f, -0.215691f,
    -0.017890f, 0.100490f, 0.105112f, 0.171912f, -0.110263f, -0.091718f, -0.177056f, -0.183065f,
    -0.047278f, -0.221626f, 0.096606f, -0.056249f, 0.116549f, 0.043574f, -0.042727f, -0.015755f,
    0.212342f, -0.008020f, -0.056571f, 0.022627f, 0.046560f, 0.034807f, 0.097389f, 0.071139f,
    -0.189978f, -0.075593f, 0.011197f, -0.015615f, 0.155948f, -0.227532f, 0.035227f, 0.273896f,
    -0.197977f, 0.014460f, -0.136754f, -0.059122f, -0.019533f, -0.072313f, 0.331694f, 0.197523f,
    0.033526f, 0.030342f, 0.042850f, -0.200120f, 0.263174f, -0.131957f, -0.209123f, -0.209257f,
    -0.136741f, -0.017139f, 0.016126f, 0.024890f, 0.039767f, 0.234186f, -0.021822f, 0.005435f,
    -0.194464f, 0.033185f, -0.031626f, 0.065804f, 0.080974f, -0.212765f, 0.079151f, -0.254240f,
    0.183113f, -0.078859f, -0.236097f, -0.083250f, 0.049540f, 0.025936f, 0.017232f, 0.305105f,
    -0.075482f, 0.393390f, -0.104933f, -0.091949f, 0.069503f, -0.066729f, 0.000817f, 0.079896f,
    0.088388f, 0.281259f, -0.306776f, -0.306131f, 0.334097f, 0.194849f, 0.295817f, 0.170083f,
    -0.109201f, -0.107809f, -0.006876f, -0.036505f, 0.042400f, -0.376564f, -0.165159f, 0.022783f,
    -0.258286f, -0.027409f, -0.049408f, -0.123918f, -0.023801f, 0.062795f, 0.006242f, 0.137499f,
    -0.085672f, -0.142698f, -0.025542f, 0.107010f, -0.145375f, 0.197847f, -0.196402f, -0.000122f,
    0.097520f, -0.045449f, -0.070708f, 0.045984f, 0.032969f, 0.118834f, 0.049794f, -0.097022f,
    -0.089530f, 0.084752f, 0.013472f, 0.085049f, 0.080666f, -0.131527f, 0.060219f, -0.132554f,
    0.038219f, -0.086719f, -0.122213f, -0.021745f, 0.133445f, -0.043434f, -0.229728f, -0.112921f,
    0.005051f, 0.025088f, 0.279881f, -0.180907f, 0.034839f, -0.083131f, -0.083822f, 0.000312f,
    -0.139712f, -0.277013f, -0.039557f, 0.248177f, 0.218326f, 0.017525f, -0.187223f, 0.073998f,
    -0.126191f, 0.108342f, 0.049290f, 0.108244f, 0.078061f, -0.156813f, -0.056915f, -0.028184f,
    -0.130443f, -0.358056f, -0.186528f, 0.045249f, 0.219803f, 0.268387f, -0.584398f, 0.042787f,
    -0.004206f, 0.054104f, -0.103727f, -0.218006f, -0.238849f, -0.156877f, -0.007948f, 0.110026f,
    0.310040f, -0.034528f, -0.230301f, -0.155048f, 0.237200f, 0.226168f, 0.040163f, 0.086537f,
    0.047038f, 0.129400f, 0.107735f, -0.288165f, 0.309633f, -0.409949f, -0.090904f, 0.058436f,
    -0.168200f, 0.385629f, -0.146573f, -0.266044f, -0.159171f, -0.241146f, -0.125814f, 0.246216f,
    -0.100036f, -0.301953f, -0.091138f, 0.435228f, -0.030576f, 0.198213f, 0.101481f, -0.023455f,
    0.054238f, -0.334512f, -0.099293f, 0.081517f, -0.284251f, 0.172078f, -0.118704f, 0.207367f,
    -0.016263f, 0.029733f, 0.142310f, 0.037833f, 0.050180f, -0.318961f, 0.061979f, 0.061105f,
    -0.017524f, -0.012151f, -0.075187f, -0.144128f, 0.073104f, -0.028670f, -0.050664f, 0.035871f,
    0.178099f, 0.109023f, 0.177064f, -0.077730f, 0.118791f, 0.079185f, 0.307747f, 0.104244f,
    0.197517f, -0.239835f, 0.257468f, 0.126524f, -0.011407f, -0.180166f, 0.132702f, 0.024586f,
    0.017459f, 0.024216f, 0.154965f, -0.038875f, -0.040569f, -0.249294f, -0.243482f, -0.119577f,
    0.039968f, -0.022669f, 0.118776f, 0.263058f, 0.121630f, -0.148910f, -0.127209f, -0.028549f,
    0.270650f, -0.118026f, 0.052013f, -0.304713f, 0.071767f, 0.199485f, -0.086418f, 0.163084f,
    0.073125f, -0.059563f, -0.028150f, -0.110611f, 0.200228f, 0.094090f, -0.168349f, 0.063290f,
    -0.288766f, -0.032965f, -0.179380f, 0.171622f, -0.075094f, 0.080566f, -0.182242f, 0.139645f,
    -0.160528f, 0.277156f, -0.134643f, 0.136866f, 0.095443f, -0.156139f, -0.101685f, -0.140376f,
    0.132768f, -0.389681f, 0.152569f, 0.134929f, -0.139040f, -0.058592f, 0.334923f, 0.247465f,
    -0.056466f, -0.090521f, -0.012937f, -0.156798f, 0.126285f, -0.082195f, 0.131729f, 0.197625f,
    -0.015895f, 0.009803f, -0.003877f, 0.007233f, -0.028091f, -0.158897f, 0.095241f, -0.016011f,
    0.012808f, 0.019793f, 0.102166f, 0.073707f, 0.148552f, 0.036595f, 0.057131f, -0.039257f,
    0.154418f, 0.027609f, -0.068917f, 0.047943f, -0.109525f, 0.001020f, 0.000537f, 0.164490f,
    0.083214f, 0.116230f, 0.208319f, 0.015018f, -0.106719f, 0.146514f, -0.307668f, -0.222469f,
    -0.026937f, 0.001832f, 0.089555f, -0.054226f, -0.103755f, -0.154096f, -0.065874f, 0.033384f,
    -0.006826f, 0.153251f, -0.063250f, 0.052202f, -0.074852f, -0.017115f, 0.079115f, -0.179328f,
    -0.003814f, 0.155822f, 0.150005f, 0.035102f, 0.052454f, -0.209145f, 0.178698f, 0.059067f,
    -0.043353f, 0.111533f, 0.205041f, 0.374170f, 0.012567f, -0.164779f, -0.524304f, -0.518703f,
    -0.015070f, 0.126889f, -0.214718f, 0.018000f, 0.142311f, -0.169613f, -0.097188f, 0.146914f,
    -0.027107f, 0.008509f, -0.053319f, 0.006986f, 0.062313f, 0.010105f, -0.195711f, 0.044441f,
    0.093478f, -0.005912f, -0.116918f, -0.035167f, -0.102668f, -0.071267f, 0.139951f, -0.418438f,
    -0.200980f, 0.080369f, -0.141130f, 0.023222f, 0.225511f, 0.147769f, 0.009138f, 0.195975f,
    0.182490f, 0.058051f, 0.353540f, 0.251385f, -0.123623f, -0.406237f, -0.243576f, -0.154591f,
    0.226043f, 0.162822f, 0.062544f, -0.083328f, -0.149960f, 0.196712f, 0.156366f, -0.049330f,
    -0.245874f, -0.010548f, -0.116592f, -0.048328f, 0.167392f, 0.045201f, 0.118011f, 0.168952f,
    -0.019303f, -0.050296f, 0.091216f, 0.016416f, -0.049977f, 0.061708f, 0.006297f, 0.226760f,
    -0.098615f, -0.022351f, 0.036372f, 0.062679f, -0.029542f, 0.207237f, -0.021449f, -0.037016f,
    -0.145807f, -0.103741f, 0.116005f, -0.225807f, 0.207723f, 0.223575f, -0.013595f, 0.090629f,
    0.020767f, 0.188322f, 0.128728f, 0.272654f, -0.014418f, 0.062712f, -0.197169f, 0.099988f,
    0.006730f, 0.150875f, -0.135005f, 0.142474f, -0.026774f, 0.018995f, -0.029772f, -0.197049f,
    -0.140800f, -0.225397f, 0.071897f, 0.159472f, 0.345560f, 0.028525f, -0.131692f, 0.143286f,
    -0.227474f, -0.005081f, 0.049027f, 0.354980f, 0.019996f, 0.067993f, -0.395134f, -0.056458f,
    0.287850f, 0.023884f, -0.193364f, 0.046282f, 0.259586f, -0.066440f, 0.125127f, -0.241015f,
    -0.133004f, -0.166059f, 0.031153f, 0.016560f, 0.114761f, 0.082469f, -0.151009f, -0.078152f,
    0.202404f, -0.217284f, 0.168191f, 0.177101f, -0.090639f, -0.135765f, -0.176237f, -0.249379f,
    0.267635f, 0.117787f, 0.053628f, 0.138704f, -0.049841f, 0.076326f, -0.039595f, -0.202273f,
    -0.070947f, 0.113955f, 0.313876f, 0.009377f, -0.003708f, 0.075932f, 0.058117f, -0.061953f,
    0.121509f, 0.121833f, -0.297274f, 0.129687f, 0.078113f, 0.174228f, -0.234762f, 0.147583f,
    -0.141672f, 0.060510f, -0.053275f, 0.018724f, 0.068080f, -0.000763f, 0.204469f, 0.087163f,
    -0.221693f, -0.151494f, 0.111317f, 0.163168f, 0.265480f, -0.001300f, -0.242954f, 0.016228f,
    0.120805f, 0.020101f, 0.148362f, -0.011621f, 0.044431f, 0.200093f, -0.201637f, 0.094120f,
    0.200944f, 0.221851f, 0.062631f, -0.196611f, 0.274571f, -0.177707f, -0.070205f, 0.084714f,
    -0.007624f, 0.119723f, 0.111177f, -0.016660f, 0.066096f, 0.482201f, -0.081232f, -0.025482f,
    0.064323f, -0.243931f, -0.012021f, 0.065041f, -0.098213f, 0.228308f, -0.061601f, 0.127069f,
    0.212963f, -0.133377f, 0.058568f, -0.054683f, 0.055199f, -0.050512f, 0.073906f, -0.034842f,
    0.103992f, -0.407645f, 0.039385f, 0.145447f, -0.092360f, -0.098165f, -0.112810f, -0.148301f,
    0.332049f, -0.183961f, 0.105205f, -0.177358f, -0.182601f, -0.049707f, -0.020476f, 0.004042f,
    0.060018f, -0.060300f, -0.055358f, 0.331099f, -0.099145f, -0.145962f, -0.187136f, -0.034000f,
    0.078429f, -0.016234f, 0.120419f, -0.094900f, -0.005499f, 0.029952f, 0.080313f, -0.056940f,
    0.128967f, 0.199347f, -0.295139f, 0.118875f, 0.125189f, 0.139390f, -0.224261f, -0.058812f,
    0.092965f, 0.203726f, 0.105358f, 0.253168f, -0.085738f, -0.047706f, 0.081121f, 0.157054f,
    0.150733f, -0.179993f, -0.028543f, -0.025095f, -0.162121f, 0.027736f, -0.012892f, 0.144532f,
    0.245489f, -0.032487f, -0.005819f, -0.062294f, 0.047336f, -0.358958f, -0.385502f, 0.050476f,
    -0.002438f, 0.150126f, -0.000400f, 0.273108f, 0.000463f, 0.208787f, -0.334091f, -0.054426f,
    0.102851f, 0.018764f, -0.342837f, 0.449356f, -0.061609f, 0.232495f, -0.037690f, 0.049287f,
    0.285660f, -0.080320f, 0.027141f, 0.120681f, 0.042010f, 0.019785f, -0.049118f, -0.107902f,
    -0.344183f, 0.144953f, -0.177445f, 0.158300f, -0.212769f, -0.094869f, -0.181167f, 0.250887f,
    0.052573f, 0.200564f, -0.090591f, 0.003640f, 0.101575f, -0.029596f, -0.217446f, -0.128372f,
    0.415074f, -0.129347f, 0.105755f, -0.102732f, -0.450110f, -0.014847f, -0.114366f, 0.014413f,
    0.146540f, 0.003014f, -0.186089f, -0.153358f, -0.302700f, -0.178201f, -0.049233f, 0.000869f,
    0.148569f, -0.073121f, -0.017180f, 0.114888f, -0.005077f, -0.022449f, -0.246733f, -0.169021f,
    -0.084600f, 0.014873f, 0.181970f, 0.113372f, -0.080788f, 0.005239f, -0.185828f, 0.024807f,
    -0.189399f, -0.018840f, 0.001596f, 0.098744f, -0.067390f, 0.010762f, -0.031459f, -0.003453f,
    -0.092598f, -0.073658f, -0.039134f, -0.110203f, 0.022813f, 0.240584f, 0.104287f, 0.208486f,
    0.209585f, 0.208543f, -0.082963f, -0.031433f, -0.058928f, 0.324206f, -0.103167f, 0.113210f,
    0.098244f, -0.029427f, -0.112089f, -0.065460f, 0.028748f, 0.117230f, 0.142078f, -0.105497f,
    0.176088f, 0.304103f, -0.008230f, 0.050929f, 0.018143f, 0.015530f, -0.049278f, 0.181554f,
    0.247026f, -0.231450f, -0.031168f, 0.051422f, 0.049579f, 0.170327f, -0.012251f, -0.148829f,
    0.011252f, 0.261864f, 0.130047f, 0.184134f, -0.026956f, -0.314686f, 0.107117f, -0.297091f,
    0.166165f, 0.251059f, -0.118700f, 0.370741f, 0.143489f, -0.151843f, -0.027853f, -0.008216f,
    0.274033f, -0.139072f, 0.205529f, 0.233269f, -0.319667f, -0.268878f, -0.094419f, 0.021794f,
    0.307996f, 0.129879f, -0.057849f, -0.111129f, 0.136514f, -0.102762f, 0.024863f, 0.153615f,
    0.305285f, -0.024146f, 0.169974f, -0.104182f, -0.061229f, 0.322797f, -0.346266f, -0.429066f,
    -0.107747f, 0.093350f, 0.128738f, 0.152155f, 0.100657f, 0.134069f, -0.059703f, 0.036537f,
    -0.151625f, 0.252458f, -0.015164f, 0.064035f, 0.137103f, -0.188394f, -0.018363f, 0.065894f,
    -0.207515f, 0.125852f, 0.200514f, 0.118076f, -0.157120f, 0.039330f, -0.229373f, -0.142044f,
    -0.263913f, 0.060448f, -0.030483f, 0.017642f, 0.055437f, 0.288341f, 0.091022f, 0.462623f,
    -0.063213f, 0.194453f, -0.158532f, -0.200742f, -0.273710f, 0.116077f, 0.220484f, -0.104375f,
    0.187691f, -0.163500f, 0.141672f, -0.120297f, -0.123371f, 0.212168f, -0.257418f, 0.067889f,
    -0.173162f, 0.131774f, -0.089308f, -0.072865f, 0.000888f, -0.073641f, -0.025774f, -0.039100f,
    0.122101f, -0.005526f, -0.130449f, -0.150989f, -0.041725f, -0.224671f, -0.016355f, -0.092229f,
    0.083643f, -0.003760f, -0.161339f, -0.008791f, -0.026532f, -0.071471f, 0.111315f, 0.104870f,
    -0.084148f, -0.076671f, 0.056191f, 0.196785f, -0.230318f, -0.073538f, -0.246528f, 0.254981f,
    0.035450f, -0.228007f, 0.083277f, -0.045566f, -0.075743f, 0.229103f, -0.037224f, -0.108775f,
    -0.071445f, 0.162482f, -0.085277f, -0.187302f, 0.004301f, -0.296589f, -0.085209f, -0.010073f,
    0.209615f, 0.077636f, 0.026464f, -0.009026f, -0.088266f, -0.073340f, -0.009143f, 0.171457f,
    0.021766f, 0.066813f, -0.135418f, -0.084820f, -0.030712f, 0.048778f, 0.165041f, 0.018233f,
    -0.192078f, 0.039437f, -0.069365f, 0.090134f, 0.064248f, -0.025466f, -0.059098f, 0.089545f,
    0.033887f, 0.004332f, 0.007125f, -0.065628f, 0.069794f, 0.097865f, 0.170240f, 0.114001f,
    0.107317f, -0.131055f, -0.262302f, 0.078841f, 0.028832f, -0.002291f, 0.224619f, 0.023881f,
    0.255278f, -0.168657f, 0.070738f, -0.146208f, -0.003736f, -0.042224f, 0.043127f, -0.215300f,
    -0.053085f, -0.131709f, 0.173854f, -0.121164f, -0.099415f, 0.051182f, 0.084737f, 0.011499f,
    -0.030038f, -0.048243f, -0.090143f, 0.040416f, 0.116935f, -0.005396f, -0.107872f, 0.182218f,
    0.214176f, -0.134372f, 0.010620f, 0.074610f, -0.314058f, -0.081045f, -0.020522f, 0.169653f,
    0.035003f, 0.131988f, 0.102423f, 0.192795f, -0.006980f, 0.040138f, 0.171646f, 0.026744f,
    -0.237608f, -0.270784f, 0.082672f, 0.008164f, -0.078567f, 0.299263f, -0.182235f, 0.074088f,
    -0.099923f, -0.093055f, 0.047325f, -0.008591f, -0.018316f, -0.120339f, -0.050355f, -0.172248f,
    0.001559f, -0.108320f, 0.146530f, -0.195397f, -0.001859f, 0.046563f, -0.061728f, 0.199075f,
    0.072071f, -0.261395f, -0.010252f, 0.019763f, -0.332686f, -0.007221f, 0.079192f, -0.085928f,
    0.136663f, 0.122051f, -0.182513f, 0.028231f, 0.021903f, -0.299690f, -0.244344f, -0.198050f,
    0.109061f, 0.038197f, 0.022493f, -0.021165f, -0.042326f, 0.241163f, 0.071494f, -0.041119f,
    0.215878f, 0.085820f, 0.008244f, 0.158033f, -0.020799f, 0.111328f, -0.098162f, 0.078506f,
    -0.013018f, -0.484442f, -0.202687f, -0.224455f, -0.026203f, -0.348783f, -0.109981f, -0.171075f,
    -0.019662f, -0.090458f, 0.030877f, -0.174332f, -0.104101f, -0.131107f, -0.047131f, 0.072557f,
    -0.184971f, 0.202259f, -0.307197f, -0.327896f, 0.172453f, -0.161820f, -0.185135f, -0.075988f,
    0.060859f, 0.189247f, -0.121864f, 0.040075f, -0.222708f, -0.002764f, 0.097086f, 0.054262f,
    0.081040f, 0.327439f, 0.181602f, 0.368596f, 0.182664f, 0.149413f, 0.241476f, 0.267549f,
    0.045852f, 0.229006f, 0.306929f, 0.212399f, 0.302831f, -0.102173f, 0.161978f, -0.089331f,
    -0.007815f, 0.167808f, 0.175427f, 0.154365f, 0.014946f, -0.218773f, -0.077256f, -0.385018f,
    0.001287f, 0.019840f, -0.189678f, -0.073383f, -0.026672f, -0.120466f, -0.035472f, -0.058764f,
    0.077069f, 0.027004f, -0.040004f, 0.147237f, 0.019406f, -0.189278f, -0.073495f, -0.124599f,
    -0.135383f, 0.016695f, -0.169010f, 0.070061f, 0.026225f, -0.072167f, -0.051880f, -0.226040f,
    0.140926f, 0.027278f, -0.021363f, 0.066745f, 0.312995f, -0.107806f, -0.218631f, -0.281227f,
    -0.012524f, 0.015522f, 0.153057f, 0.065564f, 0.144464f, 0.039721f, 0.007351f, 0.069759f,
    0.009832f, -0.307723f, -0.118264f, 0.011250f, -0.236855f, 0.089768f, -0.180890f, 0.031402f,
    -0.110928f, -0.125415f, 0.077168f, 0.083203f, 0.109735f, 0.064034f, -0.106842f, -0.123351f,
    -0.015393f, 0.075165f, -0.145799f, -0.235940f, 0.213215f, -0.217149f, -0.065136f, -0.065903f,
    -0.034563f, 0.256482f, -0.016408f, -0.095258f, 0.122651f, -0.036282f, 0.133750f, -0.031443f,
    0.123974f, 0.118310f, 0.079066f, 0.084254f, 0.005406f, 0.125263f, 0.172674f, 0.053760f,
    -0.011801f, 0.162873f, 0.137804f, 0.296118f, 0.056887f, -0.158250f, 0.109207f, -0.222718f,
    -0.004931f, 0.119059f, -0.002153f, 0.020570f, 0.040359f, -0.066176f, -0.042659f, -0.300880f,
    0.221018f, -0.186258f, -0.246656f, -0.033012f, 0.177617f, 0.045415f, -0.187609f, -0.024851f,
    -0.008199f, -0.028760f, 0.002055f, 0.046654f, 0.077616f, -0.032134f, -0.246299f, 0.095764f,
    0.153890f, -0.058124f, -0.182460f, 0.082454f, 0.206708f, 0.033044f, 0.070385f, -0.145223f,
    0.115497f, -0.019097f, -0.460560f, -0.003548f, -0.156885f, -0.006349f, 0.347070f, 0.019004f,
    -0.251744f, 0.056172f, -0.000997f, -0.024333f, -0.108878f, -0.007315f, 0.080559f, -0.171994f,
    -0.062448f, -0.196574f, -0.303672f, 0.135299f, -0.019047f, -0.162978f, -0.053068f, 0.280597f,
    0.079129f, -0.141777f, -0.027387f, 0.015120f, 0.061934f, 0.115229f, 0.044929f, -0.039280f,
    -0.108341f, 0.126883f, -0.249775f, -0.207166f, 0.017248f, -0.010932f, -0.202257f, -0.132860f,
    -0.002741f, 0.056868f, -0.032129f, -0.065083f, -0.060629f, 0.096042f, 0.018306f, 0.140770f,
    -0.101262f, 0.094750f, 0.093123f, -0.060824f, -0.012264f, -0.011678f, 0.021592f, -0.010441f,
    -0.157013f, 0.128708f, 0.060014f, -0.135579f, -0.028279f, -0.126568f, 0.040508f, -0.069926f,
    0.142383f, 0.091708f, 0.092120f, -0.002945f, 0.111838f, 0.130096f, -0.039692f, 0.029829f,
    0.053111f, 0.063551f, 0.085537f, 0.020389f, 0.023374f, 0.008013f, -0.138778f, 0.409675f,
    0.144468f, 0.262190f, 0.030668f, -0.249099f, 0.028468f, -0.105025f, -0.074741f, -0.180387f,
    -0.101820f, -0.073663f, -0.027921f, 0.258124f, 0.102073f, -0.169773f, 0.161642f, -0.068527f,
    0.032901f, -0.074558f, -0.125873f, 0.187706f, -0.029126f, -0.300958f, 0.178323f, -0.060594f,
    -0.098079f, 0.188198f, 0.118107f, -0.178644f, 0.136564f, -0.086185f, -0.111133f, -0.249154f,
    -0.225449f, -0.062307f, -0.265884f, -0.024320f, -0.110753f, 0.162615f, -0.050176f, 0.341429f,
    0.085369f, -0.241428f, -0.055286f, 0.257854f, 0.295938f, -0.104464f, 0.000221f, 0.309085f,
    0.251012f, 0.054358f, -0.100403f, -0.272719f, 0.083139f, -0.226462f, -0.297062f, -0.271739f,
    0.003651f, -0.232498f, -0.038170f, -0.044603f, -0.232319f, 0.200538f, 0.146368f, 0.375928f,
    -0.122931f, 0.018411f, 0.252822f, 0.503356f, -0.130872f, -0.015619f, -0.119057f, -0.252056f,
    -0.071942f, 0.111146f, 0.271478f, -0.173177f, -0.053214f, 0.251658f, -0.000774f, 0.069923f,
    -0.025391f, 0.133601f, -0.040689f, -0.145836f, -0.002419f, 0.209244f, -0.019480f, -0.044198f,
    -0.064820f, 0.041942f, 0.095872f, -0.123386f, -0.182739f, -0.061007f, -0.254907f, 0.303695f,
    -0.144487f, -0.011151f, -0.016790f, -0.240228f, 0.011910f, -0.234846f, 0.221346f, 0.044007f,
    -0.214399f, -0.172547f, 0.046589f, 0.230166f, 0.008867f, -0.420954f, 0.048899f, 0.016461f,
    -0.252179f, 0.084382f, 0.064296f, 0.264873f, 0.000974f, 0.224063f, 0.074265f, -0.139547f,
    0.031440f, 0.026445f, -0.051083f, -0.073559f, 0.126063f, 0.164967f, -0.292951f, -0.044513f,
    0.282583f, 0.130156f, -0.001228f, 0.243404f, -0.021273f, 0.263214f, -0.100442f, 0.045295f,
    -0.017610f, -0.137580f, -0.048703f, 0.211840f, 0.027174f, -0.201450f, 0.103636f, 0.195447f,
    0.155364f, 0.005108f, 0.060450f, 0.009918f, 0.060424f, -0.035638f, -0.138671f, 0.015746f,
    -0.108413f, -0.357115f, 0.049779f, -0.051009f, -0.110794f, -0.024468f, -0.044339f, 0.142687f,
    -0.210304f, -0.252142f, 0.163976f, 0.357065f, 0.045302f, -0.125188f, -0.044041f, -0.011950f,
    0.205828f, 0.210977f, -0.213041f, -0.238438f, 0.082698f, 0.147982f, -0.214569f, 0.149016f,
    0.168049f, 0.138533f, -0.035673f, -0.076633f, 0.031362f, -0.094408f, -0.325785f, -0.307823f,
    -0.022387f, 0.142388f, -0.124320f, 0.158161f, 0.112570f, 0.118855f, 0.004435f, -0.044355f,
    -0.220705f, 0.146257f, -0.147831f, -0.203563f, 0.051499f, 0.047327f, 0.126814f, 0.111919f,
    0.023794f, 0.150919f, -0.011569f, 0.100049f, -0.011920f, 0.083799f, -0.154081f, -0.040906f,
    -0.192346f, 0.178970f, -0.002937f, -0.154313f, -0.142596f, -0.034857f, -0.209921f, 0.145474f,
    0.157163f, 0.092344f, 0.040045f, -0.240131f, 0.167033f, 0.170537f, 0.055357f, 0.093274f,
    0.276174f, 0.050769f, 0.129774f, 0.089889f, 0.162854f, 0.024515f, -0.033158f, -0.077119f,
    0.044452f, -0.205815f, -0.072935f, 0.107778f, 0.041137f, -0.158703f, -0.025437f, -0.094195f,
    -0.217973f, -0.142088f, -0.250240f, 0.117872f, 0.042261f, 0.143991f, 0.287713f, -0.180336f,
    -0.201935f, -0.042592f, -0.074725f, 0.024257f, -0.035372f, -0.085285f, 0.118918f, -0.040562f,
    0.168249f, -0.083889f, -0.017159f, -0.065010f, -0.467608f, -0.007724f, 0.183239f, 0.022637f,
    -0.273061f, 0.222994f, -0.099095f, 0.195711f, 0.051730f, 0.111715f, -0.000141f, -0.220885f,
    0.197548f, 0.103667f, -0.131876f, 0.068521f, 0.077868f, -0.132668f, 0.199207f, 0.393178f,
    -0.422626f, 0.081343f, 0.019425f, 0.212510f, 0.088068f, -0.033010f, 0.005694f, -0.208507f,
    0.164305f, -0.083164f, 0.119510f, 0.206353f, 0.074839f, 0.053340f, -0.140855f, -0.021768f,
    -0.039864f, 0.115287f, 0.195629f, 0.105279f, 0.016368f, 0.025930f, 0.123962f, -0.156280f,
    0.216327f, -0.013624f, 0.064056f, -0.338050f, 0.123376f, 0.086233f, 0.002265f, 0.001621f,
    0.113402f, -0.067757f, -0.156500f, -0.174833f, 0.105093f, 0.213939f, -0.082733f, -0.069919f,
    -0.304865f, 0.001070f, 0.117388f, 0.113169f, 0.027223f, -0.008001f, 0.033053f, -0.065718f,
    0.024399f, 0.325062f, 0.256970f, 0.110035f, 0.124494f, -0.110907f, 0.196082f, -0.213938f,
    0.082097f, -0.082920f, -0.005138f, 0.172220f, 0.140584f, -0.225401f, 0.379351f, 0.112853f,
    0.138366f, 0.150972f, -0.298066f, -0.019519f, 0.072692f, -0.000042f, -0.067971f, 0.173181f,
    -0.354381f, -0.071948f, -0.180042f, -0.129441f, -0.056042f, 0.203206f, -0.001520f, -0.224219f,
    -0.087078f, -0.091669f, -0.028052f, -0.033017f, 0.288945f, 0.050013f, -0.134789f, 0.009576f,
    -0.197258f, -0.167533f, -0.080418f, -0.080662f, -0.059356f, -0.138282f, 0.280347f, 0.205175f,
    -0.228397f, -0.170106f, 0.011735f, -0.010770f, -0.030464f, -0.080174f, -0.225362f, -0.335540f,
    -0.209352f, 0.036818f, 0.148913f, 0.104626f, -0.035474f, 0.048234f, 0.169105f, 0.154386f,
    -0.049395f, -0.165474f, 0.006599f, -0.003999f, -0.087898f, -0.061639f, 0.445573f, -0.008798f,
    0.166266f, -0.272542f, -0.381545f, -0.161552f, 0.148911f, -0.040938f, -0.018163f, 0.056418f,
    -0.053014f, -0.085344f, -0.026053f, -0.117435f, -0.000501f, -0.064984f, 0.005658f, -0.094246f,
    0.005432f, -0.023975f, 0.157721f, 0.044008f, -0.093135f, 0.169081f, -0.034183f, -0.245476f,
    0.047336f, 0.197871f, 0.189519f, 0.153188f, -0.071842f, 0.024674f, -0.009057f, 0.040828f,
    0.279979f, -0.094905f, 0.060000f, 0.033788f, -0.046589f, -0.344571f, 0.124386f, -0.035119f,
    0.119820f, 0.282281f, 0.005844f, 0.029335f, -0.095978f, 0.108872f, 0.166407f, 0.141957f,
    0.278097f, -0.164656f, 0.078671f, -0.031915f, -0.174296f, 0.274504f, -0.067119f, 0.004801f,
    0.062385f, -0.066635f, 0.037781f, -0.085127f, 0.081754f, -0.237914f, -0.105532f, 0.099862f,
    -0.127752f, -0.022103f, -0.046610f, -0.131550f, 0.143801f, -0.174923f, 0.014318f, 0.220054f,
    -0.135346f, -0.250456f, 0.202236f, -0.011985f, -0.161813f, -0.168059f, -0.256772f, -0.246664f,
    -0.348911f, 0.263439f, 0.146559f, -0.059367f, -0.265625f, -0.080331f, 0.014057f, 0.114955f,
    0.127876f, 0.024028f, -0.030843f, 0.175274f, 0.070909f, -0.108867f, 0.129147f, 0.221911f,
    -0.171661f, 0.289649f, 0.129345f, -0.054566f, -0.048067f, -0.146274f, -0.065294f, -0.209495f,
    -0.053642f, -0.129907f, -0.027568f, -0.040414f, 0.002844f, 0.014851f, 0.083241f, 0.080317f,
    -0.249548f, -0.233124f, -0.062186f, -0.067648f, 0.020645f, 0.019718f, 0.182134f, 0.116162f,
    0.097515f, 0.016372f, 0.020860f, 0.005621f, -0.062101f, -0.044256f, 0.144344f, 0.001735f,
    -0.187836f, -0.148831f, -0.143495f, 0.055757f, 0.044988f, 0.119211f, -0.124490f, -0.031544f,
    0.292807f, 0.260122f, -0.019294f, 0.019468f, -0.006623f, 0.051988f, -0.045532f, 0.087784f,
    -0.158266f, 0.019146f, 0.024016f, -0.239766f, 0.042486f, -0.316105f, 0.065980f, -0.165451f,
    -0.011203f, 0.023974f, -0.183312f, -0.189446f, 0.100864f, 0.322784f, -0.252730f, 0.062347f,
    -0.179247f, -0.040047f, 0.137786f, -0.020650f, 0.103948f, -0.048428f, 0.057533f, 0.113962f,
    0.063056f, 0.021204f, 0.040342f, 0.074007f, -0.108514f, -0.162768f, 0.009422f, 0.091290f,
    0.011301f, -0.111948f, 0.230548f, 0.031469f, 0.160090f, -0.015359f, -0.289298f, -0.123184f,
    0.134281f, 0.049515f, 0.246002f, 0.145515f, 0.105408f, -0.346857f, -0.076910f, -0.202210f,
    0.138267f, 0.073888f, 0.195013f, -0.093212f, 0.062519f, 0.242582f, -0.166999f, 0.153353f,
    0.019488f, 0.079736f, -0.198430f, -0.308753f, 0.092551f, -0.369567f, -0.059120f, 0.419072f,
    -0.166732f, -0.212001f, 0.048618f, -0.213054f, 0.218011f, -0.608034f, 0.251249f, 0.109953f,
    -0.006039f, 0.152096f, -0.119835f, 0.083501f, 0.264600f, -0.276649f, 0.101624f, -0.197453f,
    0.090097f, 0.014081f, -0.071373f, 0.134684f, -0.137054f, 0.035642f, -0.117570f, -0.117578f,
    0.114346f, -0.046424f, 0.121999f, 0.095279f, -0.003145f, 0.025192f, 0.162228f, 0.153042f,
    -0.007389f, 0.079453f, 0.143349f, -0.188930f, -0.322347f, -0.320666f, 0.169934f, -0.082319f,
    -0.150602f, 0.035011f, 0.294676f, -0.117108f, 0.103536f, 0.229960f, -0.106513f, -0.023039f,
    0.080688f, -0.087597f, -0.082783f, -0.078040f, -0.096905f, -0.077397f, -0.124369f, 0.247848f,
    -0.158059f, -0.167693f, -0.146292f, -0.137857f, 0.092925f, -0.112352f, -0.071803f, 0.015192f,
    -0.099187f, -0.089300f, 0.286411f, 0.011685f, 0.161311f, -0.101996f, -0.188884f, -0.225497f,
    0.000950f, 0.069742f, 0.115606f, 0.240939f, 0.076919f, -0.233181f, -0.332049f, -0.149057f,
    0.209713f, -0.292842f, 0.079931f, -0.155184f, 0.015092f, 0.188048f, -0.023550f, 0.074427f,
    0.229763f, 0.262917f, -0.051168f, -0.066126f, 0.098872f, -0.092086f, -0.168762f, 0.073884f,
    0.021395f, -0.245385f, 0.143839f, -0.040309f, 0.167701f, -0.362879f, 0.111765f, -0.062615f,
    0.105937f, 0.030785f, -0.097429f, -0.128579f, 0.050573f, -0.303462f, 0.003577f, -0.040241f,
    0.135288f, -0.075647f, 0.025330f, -0.095215f, -0.123133f, 0.083157f, 0.183271f, 0.225211f,
    -0.151138f, 0.005051f, 0.053133f, 0.066407f, -0.138272f, -0.070590f, 0.148910f, 0.030739f,
    -0.129102f, -0.018274f, 0.060334f, 0.114971f, -0.164763f, 0.101637f, -0.025961f, -0.024747f,
    0.150328f, 0.089816f, 0.116529f, -0.198906f, 0.127253f, 0.125877f, -0.050807f, -0.098998f,
    0.037181f, 0.052878f, -0.030244f, -0.013824f, -0.109227f, 0.004365f, -0.148097f, -0.123799f,
    -0.088052f, 0.045524f, 0.266873f, 0.083595f, 0.006122f, -0.127705f, 0.110589f, -0.237017f,
    -0.293784f, -0.148849f, -0.041625f, 0.026729f, 0.006302f, -0.220959f, 0.018216f, 0.076849f,
    0.120626f, 0.138785f, 0.126866f, -0.157492f, 0.025433f, 0.075882f, -0.221647f, -0.024727f,
    -0.031652f, 0.018500f, 0.063335f, 0.325873f, -0.022636f, -0.131364f, -0.417656f, 0.122266f,
    -0.172950f, 0.025099f, -0.139502f, 0.014919f, 0.214296f, 0.049590f, 0.036806f, 0.268571f,
    0.210930f, 0.046767f, 0.150546f, -0.154203f, 0.050373f, 0.111366f, -0.245750f, -0.004675f,
    0.032459f, -0.150043f, 0.040631f, -0.049406f, -0.078531f, -0.150264f, -0.283591f, -0.214707f,
    0.067649f, 0.035677f, 0.290608f, 0.112236f, 0.030336f, 0.017779f, 0.031061f, -0.080649f,
    -0.125586f, 0.017518f, 0.059176f, -0.024964f, 0.055469f, -0.039797f, -0.131756f, -0.022204f,
    0.239959f, -0.118611f, -0.125690f, 0.031240f, 0.110277f, 0.102956f, -0.224956f, -0.305174f,
    -0.022479f, 0.023078f, 0.201437f, 0.043473f, -0.023594f, 0.005701f, 0.253901f, 0.021493f,
    0.113752f, -0.038667f, -0.193767f, -0.053481f, -0.241162f, -0.096444f, 0.048977f, 0.125492f,
    -0.032648f, 0.024917f, 0.006584f, 0.034342f, 0.163271f, 0.115999f, 0.038102f, 0.076654f,
    0.202888f, -0.001565f, 0.124111f, -0.135448f, -0.050683f, -0.117074f, 0.006740f, 0.112358f,
    0.274233f, 0.409688f, -0.003453f, 0.063284f, -0.081890f, 0.066307f, -0.047592f, 0.263700f,
    -0.395997f, 0.195085f, -0.037666f, 0.485666f, -0.052061f, -0.060566f, 0.132443f, 0.256717f,
    -0.088231f, -0.341369f, -0.183413f, 0.084467f, 0.284584f, 0.425859f, -0.154141f, 0.047327f,
    0.202721f, 0.304127f, 0.106022f, -0.187505f, -0.091661f, -0.054771f, -0.118030f, 0.414277f,
    0.011742f, -0.357680f, 0.028807f, -0.282689f, -0.314335f, -0.057663f, -0.229615f, -0.148959f,
    0.217944f, 0.173059f, 0.282336f, 0.187592f, -0.016942f, 0.234267f, 0.033704f, -0.281634f,
    -0.175782f, 0.081308f, 0.080391f, -0.029364f, -0.095158f, -0.367093f, -0.150185f, -0.505982f,
    0.335176f, 0.006000f, -0.237264f, 0.015896f, -0.025356f, -0.071326f, -0.204798f, -0.563899f,
    0.184307f, 0.260555f, 0.042695f, 0.191528f, 0.085529f, -0.223219f, -0.056988f, 0.251164f,
    -0.014022f, 0.034679f, -0.036852f, 0.014336f, 0.169720f, 0.212578f, 0.185497f, 0.018371f,
    0.108483f, 0.037072f, 0.044437f, -0.002637f, 0.215933f, 0.198658f, 0.088822f, -0.038489f,
    0.141580f, -0.012104f, 0.090865f, 0.013322f, 0.108917f, -0.175672f, 0.219769f, 0.401560f,
    0.289637f, -0.377773f, 0.157867f, -0.144945f, -0.449471f, -0.097529f, 0.212971f, -0.025932f,
    0.139994f, 0.071234f, -0.023386f, 0.474520f, 0.144955f, 0.099316f, 0.337312f, 0.333420f,
    -0.238452f, -0.078923f, 0.312958f, -0.280993f, -0.162394f, -0.406496f, -0.463600f, -0.093173f,
    0.328711f, 0.293084f, -0.452438f, 0.482142f, 0.092113f, -0.291019f, 0.144389f, 0.326670f,
    0.125756f, -0.049561f, -0.032806f, -0.193154f, -0.071187f, 0.287190f, -0.174619f, -0.170132f,
    -0.064121f, 0.070169f, 0.207388f, 0.239967f, 0.201509f, 0.017332f, -0.146251f, -0.214200f,
    -0.074328f, 0.012115f, 0.111654f, 0.094019f, -0.529074f, -0.220202f, -0.045947f, -0.187407f,
    0.020922f, -0.114866f, -0.177147f, 0.041586f, -0.133624f, -0.197934f, -0.146186f, -0.474188f,
    0.126324f, 0.238180f, 0.114202f, 0.200549f, -0.000530f, -0.212087f, -0.253231f, 0.060486f,
    -0.261057f, -0.050958f, 0.024407f, 0.031527f, 0.203833f, 0.062704f, 0.104608f, 0.137111f,
    -0.141332f, 0.060263f, -0.301807f, 0.053750f, -0.033422f, 0.126058f, -0.001131f, -0.185586f,
    -0.009704f, 0.147692f, 0.080705f, 0.273604f, -0.173780f, -0.171158f, 0.192130f, 0.284600f,
    0.139694f, -0.033690f, -0.119934f, 0.007858f, 0.064102f, -0.022277f, 0.250655f, -0.096567f,
    0.004785f, 0.009468f, -0.182885f, 0.206465f, -0.162032f, -0.048396f, 0.020606f, 0.227645f,
    -0.204213f, -0.002814f, 0.237358f, -0.164414f, 0.080498f, 0.133807f, -0.175497f, 0.030712f,
    0.030442f, -0.146255f, 0.044095f, -0.064153f, 0.024341f, -0.079644f, -0.081480f, -0.010160f,
    0.293526f, -0.100313f, -0.143768f, 0.050057f, 0.126296f, -0.118967f, 0.015605f, 0.241774f,
    0.241837f, 0.128520f, -0.050868f, 0.077545f, 0.096966f, 0.008861f, 0.114631f, -0.432398f,
    -0.022209f, -0.182254f, -0.229709f, -0.118176f, -0.125869f, 0.169051f, -0.038652f, -0.293646f,
    0.068204f, 0.022771f, 0.159081f, 0.108103f, -0.025253f, 0.116396f, -0.075029f, -0.102657f,
    -0.037213f, 0.033196f, -0.074866f, 0.048130f, -0.164941f, 0.118254f, -0.135270f, 0.213094f,
    0.202301f, 0.016700f, 0.235631f, 0.009718f, 0.101097f, -0.124484f, -0.038292f, -0.225660f,
    -0.020053f, 0.030024f, -0.168514f, -0.157159f, -0.123360f, 0.012001f, 0.028365f, 0.072430f,
    0.311450f, -0.083058f, 0.094121f, 0.142526f, 0.035335f, 0.081561f, -0.051653f, -0.153848f,
    0.044549f, -0.134966f, -0.006289f, 0.100617f, 0.039306f, 0.052755f, 0.096940f, -0.167839f,
    -0.104594f, 0.121985f, 0.072387f, 0.002106f, -0.114810f, 0.139789f, 0.005304f, 0.086750f,
    0.158602f, -0.037700f, 0.368130f, 0.112224f, -0.076366f, -0.127601f, -0.026659f, 0.137586f,
    -0.179746f, -0.012506f, -0.247113f, -0.029600f, 0.150084f, -0.137379f, 0.064538f, 0.059307f,
    0.381854f, -0.303636f, -0.321527f, 0.145800f, 0.036002f, 0.167611f, -0.251811f, 0.275670f,
    0.073624f, -0.170915f, -0.264660f, -0.352399f, -0.039193f, 0.069711f, -0.148523f, -0.569628f,
    0.112702f, -0.224961f, 0.166540f, 0.125803f, -0.129536f, 0.074183f, 0.177788f, -0.155914f,
    -0.101503f, -0.063605f, 0.147492f, 0.120400f, -0.320804f, 0.297365f, -0.030772f, 0.337632f,
    0.189107f, 0.060524f, -0.077083f, 0.064937f, -0.368187f, -0.037370f, -0.097736f, 0.070823f,
    -0.034552f, 0.019456f, 0.013738f, -0.196133f, 0.184383f, 0.207938f, 0.130579f, -0.031724f,
    0.133149f, 0.114309f, -0.067755f, 0.062137f, 0.138587f, 0.090815f, 0.019073f, -0.017260f,
    0.202703f, 0.189629f, -0.005341f, -0.025359f, 0.184867f, -0.016473f, -0.117064f, 0.148794f,
    -0.018355f, -0.105084f, 0.103804f, 0.177993f, -0.258871f, -0.038841f, 0.141721f, -0.088186f,
    0.017025f, -0.084617f, 0.084135f, -0.053662f, 0.038859f, 0.171541f, -0.249918f, 0.246301f,
    -0.068376f, 0.137849f, -0.192248f, 0.134400f, 0.017812f, 0.038793f, -0.133559f, -0.004516f,
    -0.189183f, 0.101352f, 0.027717f, -0.104745f, -0.013001f, 0.184530f, 0.201112f, 0.146585f,
    -0.097819f, -0.148218f, -0.111275f, 0.102562f, -0.115954f, 0.055316f, -0.104888f, 0.165750f,
    -0.000625f, -0.278633f, 0.000550f, -0.026647f, 0.025753f, 0.025426f, -0.231681f, 0.138545f,
    0.171105f, -0.060268f, 0.262221f, 0.081365f, -0.036373f, 0.090577f, 0.007734f, -0.040143f,
    0.104922f, 0.042624f, 0.176317f, 0.120271f, -0.408136f, 0.136452f, 0.076942f, 0.201181f,
    -0.108070f, -0.169517f, -0.284312f, -0.052932f, -0.024389f, -0.101891f, -0.100546f, 0.065117f,
    -0.114303f, 0.059477f, 0.088373f, -0.033746f, 0.095269f, 0.210415f, 0.359732f, 0.025001f,
    -0.136015f, -0.131097f, 0.083010f, 0.110352f, 0.203023f, 0.199275f, -0.069181f, -0.009177f,
    -0.195189f, 0.133417f, -0.011614f, -0.123910f, -0.071699f, 0.032484f, 0.124215f, 0.243992f,
    -0.133184f, 0.174630f, 0.029992f, 0.096229f, -0.136878f, -0.187758f, 0.177372f, -0.036196f,
    -0.194506f, -0.106018f, -0.063358f, -0.005518f, 0.022255f, -0.369945f, 0.134541f, 0.094629f,
    0.179871f, 0.054684f, -0.212507f, -0.038844f, -0.133536f, -0.000092f, 0.005695f, -0.127446f,
    0.213794f, -0.208428f, -0.000003f, -0.286194f, 0.207483f, 0.079127f, 0.058752f, 0.018028f,
    0.136684f, -0.041814f, -0.098550f, -0.118794f, 0.116260f, -0.009880f, -0.050053f, 0.065193f,
    0.176335f, -0.023353f, 0.003259f, 0.017714f, 0.015242f, 0.011495f, 0.353355f, -0.217003f,
    -0.022200f, 0.071259f, -0.211589f, 0.179743f, 0.115320f, -0.076468f, -0.122495f, 0.020418f,
    0.218094f, -0.104410f, 0.016730f, -0.193156f, 0.059809f, 0.226838f, 0.057562f, 0.020746f,
    0.065145f, 0.071188f, -0.004668f, 0.059360f, -0.092735f, -0.179880f, -0.302136f, 0.167551f,
    0.149328f, 0.057380f, 0.020628f, -0.010614f, 0.192877f, -0.043253f, 0.059227f, -0.042641f,
    0.154383f, -0.062074f, 0.188938f, -0.062639f, -0.159746f, -0.036702f, 0.062686f, -0.040377f,
    -0.211152f, 0.068382f, 0.010853f, -0.088360f, 0.149506f, -0.095533f, -0.331889f, -0.174377f,
    -0.189294f, 0.261550f, -0.011318f, -0.074744f, -0.087589f, -0.113902f, -0.251550f, -0.034237f,
    -0.154413f, -0.064989f, -0.082137f, 0.040324f, -0.037036f, -0.145112f, 0.223145f, 0.284923f,
    0.160805f, 0.178686f, -0.281526f, -0.013978f, -0.410979f, 0.268014f, 0.142132f, 0.089803f,
    0.117190f, -0.210628f, -0.041470f, -0.071676f, -0.130663f, -0.013111f, -0.122329f, -0.239710f,
    0.091218f, -0.038686f, -0.021720f, -0.292548f, 0.049440f, -0.047888f, 0.080947f, 0.039714f,
    0.200382f, 0.196689f, -0.047990f, -0.011372f, -0.141915f, 0.182651f, 0.220907f, 0.120811f,
    0.035528f, 0.389226f, -0.054095f, 0.195870f, 0.153634f, -0.233011f, -0.018680f, -0.011639f,
    -0.213035f, 0.173164f, -0.030438f, -0.202606f, -0.037450f, 0.278807f, 0.139541f, 0.172359f,
    0.013445f, -0.282852f, -0.035896f, 0.046085f, 0.007462f, 0.040033f, -0.093827f, -0.158289f,
    0.072664f, 0.188372f, 0.015541f, 0.025175f, 0.039556f, -0.149307f, 0.052800f, -0.154185f,
    -0.213754f, -0.074277f, 0.253670f, -0.117404f, -0.146013f, 0.076076f, 0.291423f, 0.084271f,
    0.058281f, -0.165966f, -0.332860f, -0.004288f, 0.195297f, 0.052119f, -0.218205f, -0.031827f,
    -0.173250f, 0.078413f, 0.091257f, 0.080497f, 0.029672f, 0.082916f, 0.045233f, -0.070868f,
    0.161538f, 0.025456f, -0.143043f, 0.236929f, -0.095378f, -0.063130f, 0.023025f, -0.079614f,
    -0.086872f, 0.010973f, -0.061364f, 0.068040f, -0.181947f, -0.075403f, -0.230489f, -0.191362f,
    -0.317439f, -0.042341f, 0.008117f, 0.175998f, 0.044486f, 0.091779f, -0.122316f, 0.196073f,
    0.160794f, 0.108162f, 0.018799f, -0.240200f, -0.121764f, -0.084577f, 0.138916f, -0.077782f,
    0.104648f, 0.087919f, -0.067570f, -0.051668f, -0.086393f, 0.210008f, 0.064884f, 0.108202f,
    -0.013848f, 0.164700f, 0.083580f, 0.094622f, -0.112935f, -0.095368f, 0.064745f, -0.049726f,
    -0.051302f, 0.080372f, 0.026578f, 0.041427f, -0.013310f, 0.197919f, 0.020836f, -0.371676f,
    0.122831f, -0.148511f, -0.046085f, -0.243344f, 0.011216f, 0.110893f, 0.001705f, -0.004149f,
    -0.092528f, -0.000250f, 0.036816f, -0.106522f, -0.189331f, -0.249559f, 0.129087f, 0.177808f,
    -0.228791f, -0.047123f, -0.133704f, 0.030925f, -0.214273f, -0.004702f, 0.080842f, -0.111523f,
    0.186925f, -0.096712f, -0.187991f, -0.001835f, -0.002953f, -0.135774f, -0.082128f, -0.048257f,
    0.043330f, -0.119910f, 0.077484f, 0.014513f, 0.130558f, -0.100636f, -0.008511f, 0.075013f,
    -0.143453f, -0.130245f, 0.011056f, -0.065444f, -0.108132f, 0.188849f, -0.013734f, -0.156220f,
    0.060561f, 0.151221f, -0.004018f, 0.087565f, -0.032217f, -0.063656f, -0.089687f, 0.122657f,
    0.174379f, 0.140907f, -0.043606f, 0.064621f, -0.120638f, 0.129112f, 0.068210f, -0.048695f,
    -0.100958f, 0.102486f, 0.035572f, -0.341468f, 0.099137f, 0.238238f, 0.118718f, -0.249897f,
    0.059423f, -0.191142f, 0.054656f, 0.134821f, 0.131082f, -0.228941f, 0.085669f, 0.013824f,
    -0.075435f, -0.119823f, 0.054906f, 0.154482f, -0.216756f, 0.057259f, 0.086820f, 0.232380f,
    0.105411f, 0.110111f, -0.098718f, 0.157864f, -0.117228f, -0.055727f, -0.209070f, 0.000522f,
    -0.044281f, 0.047708f, -0.041444f, -0.009324f, 0.095650f, 0.048707f, -0.225959f, 0.178230f,
    -0.148676f, -0.249943f, 0.009240f, -0.059145f, 0.258168f, 0.015349f, -0.100918f, -0.054088f,
    -0.237437f, 0.195343f, -0.223266f, 0.127730f, 0.219853f, 0.188759f, 0.155314f, -0.044033f,
    0.084999f, 0.014955f, -0.084856f, -0.066244f, -0.062333f, 0.018521f, 0.056135f, 0.046285f,
    0.260307f, 0.192231f, 0.043730f, 0.114432f, 0.153814f, -0.145424f, -0.049137f, 0.040413f,
    -0.057435f, -0.072993f, -0.136822f, 0.143139f, -0.046174f, 0.295647f, 0.179711f, -0.186742f,
    0.217002f, -0.390734f, 0.095441f, 0.063816f, 0.157373f, -0.116734f, -0.293962f, 0.148206f,
    0.161603f, -0.076702f, 0.145240f, -0.022958f, -0.059095f, -0.074214f, -0.032328f, 0.108314f,
    -0.281845f, 0.342711f, 0.164353f, 0.035742f, -0.045808f, 0.277314f, 0.144399f, -0.417291f,
    0.215272f, -0.044796f, -0.266612f, 0.175634f, 0.289842f, -0.326057f, 0.087756f, -0.227903f,
    0.117096f, -0.261296f, -0.094496f, -0.113232f, 0.024000f, 0.029269f, 0.151825f, 0.157277f,
    0.238463f, -0.139533f, 0.114018f, -0.628297f, -0.267738f, -0.075097f, -0.221358f, 0.121783f,
    -0.087820f, -0.120411f, -0.048958f, -0.230899f, 0.218366f, 0.145015f, 0.031456f, 0.149645f,
    -0.144147f, 0.176848f, 0.010212f, -0.120150f, 0.030428f, 0.234967f, -0.067992f, 0.140432f,
    0.222118f, -0.131031f, -0.154081f, -0.042638f, 0.104562f, -0.194594f, -0.331260f, 0.295028f,
    0.117478f, 0.072719f, 0.198881f, -0.244677f, 0.160834f, -0.129080f, -0.083868f, -0.043980f,
    -0.205733f, 0.106290f, -0.017945f, 0.008985f, 0.005125f, 0.136575f, -0.119600f, 0.141076f,
    -0.148795f, -0.041072f, 0.069000f, 0.203830f, 0.030031f, 0.078058f, 0.104621f, -0.059329f,
    -0.006007f, -0.039631f, 0.301179f, 0.117505f, 0.371071f, 0.150497f, -0.346243f, 0.258037f,
    -0.238904f, -0.005315f, 0.033048f, 0.190028f, -0.003513f, -0.162634f, 0.162308f, -0.137098f,
    -0.182488f, -0.038008f, 0.131531f, 0.236701f, 0.113206f, 0.103659f, 0.017837f, -0.167304f,
    0.193007f, -0.076404f, -0.032044f, -0.059689f, 0.344810f, -0.199533f, -0.049602f, 0.087766f,
    0.005348f, -0.026223f, -0.179586f, 0.002082f, -0.220128f, 0.146636f, 0.026146f, -0.132536f,
    0.020044f, -0.014796f, 0.176414f, 0.061565f, -0.067380f, 0.025841f, -0.298931f, -0.216262f,
    -0.124824f, -0.115520f, 0.124585f, -0.099367f, -0.028017f, -0.131187f, -0.000455f, 0.004170f,
    0.153956f, 0.124798f, 0.011006f, -0.035023f, -0.191080f, 0.147100f, -0.045374f, -0.071638f,
    0.154438f, -0.026395f, 0.292369f, -0.091154f, 0.083597f, 0.080326f, -0.187645f, 0.244222f,
    0.000585f, -0.049964f, 0.049679f, -0.146864f, -0.074027f, 0.064932f, -0.137367f, 0.216339f,
    -0.282277f, -0.053314f, -0.034518f, -0.168705f, 0.071855f, 0.016992f, 0.149226f, 0.145619f,
    0.117263f, -0.383428f, -0.006207f, -0.033834f, -0.117744f, -0.200505f, 0.041609f, -0.296353f,
    -0.345850f, 0.050684f, 0.160542f, 0.118523f, 0.090578f, 0.073305f, 0.463381f, -0.206268f,
    -0.184963f, 0.156282f, 0.090644f, 0.035726f, 0.139225f, 0.133371f, 0.191385f, -0.007553f,
    0.104995f, 0.021656f, -0.061704f, -0.192793f, -0.088529f, -0.166435f, -0.150275f, 0.216538f,
    0.123957f, -0.219658f, -0.540903f, 0.011204f, -0.198490f, 0.120934f, 0.011745f, 0.360857f,
    0.396103f, 0.032067f, -0.204137f, 0.066913f, -0.164222f, -0.184451f, -0.531400f, 0.293731f,
    0.091190f, -0.142107f, 0.100439f, 0.305129f, 0.061975f, -0.139193f, -0.020918f, 0.192945f,
    -0.169403f, -0.160999f, 0.087337f, 0.011089f, -0.287269f, -0.034445f, -0.025005f, -0.007814f,
    0.069825f, -0.112104f, -0.187142f, 0.155930f, 0.140369f, 0.028278f, -0.117427f, 0.144833f,
    -0.084635f, 0.079671f, -0.120027f, -0.040242f, -0.163469f, -0.085865f, 0.232173f, -0.161150f,
    -0.037660f, -0.274368f, 0.295059f, 0.150834f, 0.063890f, -0.052494f, 0.141185f, 0.020344f,
    0.015646f, -0.104437f, -0.079148f, 0.105645f, 0.025766f, 0.092301f, 0.068985f, 0.247451f,
    -0.144471f, -0.279333f, 0.005086f, 0.121844f, -0.143189f, 0.154248f, -0.035812f, -0.240500f,
    0.004245f, 0.370271f, -0.049080f, -0.131876f, 0.073910f, 0.050645f, 0.345889f, -0.037947f,
    0.060438f, 0.115131f, -0.041248f, -0.062900f, 0.326835f, -0.100948f, 0.015435f, 0.105252f,
    0.153647f, -0.038489f, 0.276582f, -0.039392f, -0.122795f, -0.011819f, 0.038385f, -0.198891f,
    -0.079120f, 0.054066f, -0.318673f, 0.194651f, -0.142285f, -0.073932f, -0.098133f, -0.315278f,
    0.107164f, -0.122290f, -0.266080f, 0.190989f, 0.037714f, -0.116196f, -0.101303f, 0.008776f,
    -0.026109f, 0.224795f, 0.093608f, 0.231218f, 0.079847f, -0.244695f, -0.175037f, -0.208293f,
    -0.171507f, 0.110630f, 0.083148f, -0.073604f, 0.287136f, 0.225960f, 0.157416f, -0.071527f,
    0.023875f, -0.108882f, 0.029545f, -0.056960f, 0.023317f, -0.016625f, -0.066378f, 0.006598f,
    0.154680f, 0.073959f, -0.005802f, 0.005586f, 0.049614f, -0.021523f, 0.046530f, 0.173302f,
    -0.162868f, 0.128374f, 0.236705f, 0.259540f, 0.028493f, 0.020561f, 0.120368f, -0.277810f,
    0.099287f, -0.053537f, 0.129476f, -0.160281f, 0.117956f, -0.060705f, 0.018495f, 0.296021f,
    -0.081334f, 0.089601f, 0.110474f, 0.056973f, -0.029096f, 0.117360f, -0.005699f, -0.093489f,
    -0.019102f, 0.195756f, 0.209130f, 0.000107f, 0.125218f, 0.156115f, 0.064869f, -0.032571f,
    -0.216980f, 0.147649f, 0.210109f, 0.124711f, -0.006101f, -0.145071f, -0.144589f, 0.051934f,
    -0.124552f, 0.019981f, -0.008887f, 0.139143f, -0.252866f, 0.038404f, 0.144450f, -0.310370f,
    0.125665f, -0.040800f, -0.143929f, 0.098562f, -0.128969f, 0.013795f, -0.088272f, -0.072369f,
    0.224368f, 0.145390f, -0.225374f, -0.151851f, 0.091887f, -0.177397f, 0.059273f, 0.068150f,
    -0.017292f, -0.075099f, 0.020413f, 0.012339f, -0.031684f, 0.066581f, -0.022535f, -0.241092f,
    -0.296930f, 0.035133f, 0.040014f, -0.084820f, 0.303267f, 0.175823f, -0.031919f, 0.034361f,
    -0.102157f, 0.049480f, 0.082345f, 0.093532f, -0.054055f, -0.226389f, 0.116801f, 0.058873f,
    -0.051276f, 0.084866f, -0.101914f, 0.027903f, 0.053330f, 0.008520f, 0.033167f, 0.115839f,
    -0.329854f, -0.021260f, 0.123510f, 0.240280f, -0.013510f, 0.147560f, 0.010923f, -0.078711f,
    -0.092167f, -0.119375f, 0.083395f, -0.102273f, -0.033565f, 0.123388f, 0.052427f, -0.028508f,
    -0.000023f, -0.151131f, -0.215282f, 0.207410f, -0.082336f, 0.043231f, 0.019111f, 0.051341f,
    -0.127268f, -0.152967f, -0.022664f, -0.206117f, -0.344905f, -0.216731f, -0.275904f, -0.035535f,
    0.055252f, 0.140313f, 0.162445f, -0.015446f, 0.038251f, 0.096682f, -0.026390f, 0.020465f,
    0.167309f, 0.040635f, -0.031538f, -0.133881f, -0.048675f, -0.027939f, -0.025282f, 0.089454f,
    -0.127007f, -0.283883f, -0.076595f, -0.015523f, 0.125816f, -0.024903f, -0.078110f, 0.240042f,
    0.132616f, 0.158211f, 0.141505f, 0.272515f, 0.152465f, 0.170221f, 0.252153f, -0.273093f,
    0.109356f, -0.144226f, 0.048212f, -0.071571f, 0.060360f, 0.183753f, 0.293128f, -0.058742f,
    -0.138890f, 0.108997f, -0.333515f, -0.113006f, -0.030372f, 0.131984f, -0.408322f, -0.157743f,
    -0.124718f, -0.043849f, -0.095548f, -0.024165f, 0.033812f, -0.063239f, 0.065450f, 0.151786f,
    -0.103978f, -0.064786f, -0.277032f, 0.162836f, 0.093828f, -0.147668f, -0.091822f, -0.142698f,
    0.033701f, 0.123467f, -0.229703f, -0.025798f, -0.144997f, -0.094964f, 0.014315f, -0.057921f,
    -0.169649f, 0.080999f, -0.086713f, -0.252184f, -0.021820f, 0.001798f, 0.045287f, -0.135066f,
    -0.161589f, -0.017344f, -0.112401f, -0.192782f, -0.087622f, 0.154618f, -0.061509f, 0.091343f,
    -0.066350f, -0.084154f, 0.280782f, 0.034571f, 0.069855f, -0.024787f, 0.181429f, 0.168409f,
    -0.016548f, -0.057956f, -0.029028f, -0.030564f, -0.158679f, -0.027948f, 0.076232f, -0.054322f,
    0.364370f, 0.270385f, -0.119455f, 0.316369f, -0.103596f, -0.091318f, 0.252786f, 0.100868f,
    -0.175921f, -0.133865f, 0.077259f, 0.049280f, -0.050158f, 0.139179f, -0.323567f, 0.268072f,
    -0.106620f, 0.313415f, -0.077728f, 0.016636f, 0.006343f, 0.184820f, 0.212460f, -0.684852f,
    -0.274357f, -0.212853f, -0.102541f, -0.013399f, 0.315908f, 0.053544f, 0.140197f, -0.196856f,
    0.098317f, 0.225775f, -0.063196f, -0.163594f, -0.106452f, 0.203777f, -0.130237f, 0.019565f,
    -0.015244f, 0.298518f, -0.065797f, 0.171459f, 0.346098f, -0.067451f, -0.028635f, -0.048019f,
    0.071624f, 0.195568f, -0.092534f, 0.029145f, -0.158160f, -0.189004f, 0.004578f, 0.164941f,
    -0.044424f, 0.109719f, -0.260263f, -0.082546f, -0.205436f, -0.133213f, -0.113945f, -0.155695f,
    -0.057746f, 0.079350f, -0.006249f, -0.059584f, -0.075404f, -0.050683f, 0.053918f, -0.097065f,
    -0.102955f, 0.028364f, 0.007892f, -0.184408f, 0.012604f, -0.003675f, 0.094354f, -0.006079f,
    -0.201148f, -0.067924f, 0.083607f, 0.101149f, 0.051703f, -0.045348f, 0.261149f, 0.158552f,
    0.058314f, -0.106900f, 0.074741f, -0.069993f, -0.371895f, -0.125480f, 0.053090f, 0.109514f,
    0.032657f, 0.193805f, -0.090654f, 0.207551f, -0.057207f, 0.064954f, 0.189975f, -0.015744f,
    0.035413f, 0.039870f, 0.027036f, 0.064375f, 0.016143f, -0.034097f, -0.288670f, 0.229773f,
    -0.183124f, 0.222684f, 0.019185f, 0.041057f, 0.055840f, -0.020436f, -0.051172f, -0.244688f,
    -0.245152f, -0.008952f, 0.064823f, 0.079642f, 0.143894f, -0.041645f, 0.005257f, -0.153149f,
    0.109837f, -0.166402f, -0.168705f, -0.187921f, -0.142226f, 0.061092f, 0.215651f, 0.155283f,
    -0.120020f, 0.172272f, -0.033610f, -0.069025f, -0.008799f, -0.171764f, 0.152250f, 0.024607f,
    -0.179442f, -0.022684f, 0.001221f, -0.077384f, -0.048774f, -0.082214f, -0.057884f, 0.174248f,
    0.111877f, -0.142848f, -0.082913f, -0.010117f, -0.132324f, 0.129329f, -0.038506f, -0.102256f,
    0.225149f, 0.003727f, -0.155442f, 0.110684f, 0.052764f, 0.100278f, 0.171693f, -0.048579f,
    0.006208f, -0.088108f, 0.353255f, -0.082639f, 0.085780f, -0.111272f, -0.219362f, -0.222963f,
    0.208391f, 0.058381f, -0.091688f, 0.040140f, 0.122252f, -0.107592f, 0.027426f, -0.178522f,
    -0.071301f, 0.349924f, 0.055450f, -0.079520f, -0.319317f, -0.045989f, -0.147162f, 0.001022f,
    0.161531f, -0.155272f, 0.107831f, -0.218171f, -0.142637f, -0.320187f, 0.084407f, -0.368307f,
    -0.102890f, -0.126222f, 0.040373f, -0.022717f, -0.129767f, 0.038727f, -0.022738f, 0.156505f,
    -0.002119f, 0.005918f, 0.089775f, -0.189301f, -0.127570f, 0.011189f, -0.073537f, 0.067920f,
    -0.131028f, 0.035917f, -0.035968f, -0.035460f, 0.116081f, -0.081720f, -0.028852f, -0.006845f,
    0.032098f, 0.112326f, 0.123855f, 0.050831f, -0.057996f, 0.135380f, 0.077980f, -0.148737f,
    0.042977f, 0.010138f, -0.081820f, 0.233995f, 0.149461f, 0.107318f, -0.338298f, 0.058115f,
    0.259482f, 0.080690f, 0.134563f, 0.046535f, -0.056226f, 0.117715f, 0.024215f, 0.253509f,
    0.177187f, 0.168537f, 0.118522f, 0.021555f, -0.151887f, -0.227335f, -0.146007f, -0.022146f,
    0.301754f, -0.063050f, -0.180064f, 0.268777f, -0.106532f, -0.039215f, 0.216126f, -0.131780f,
    0.025325f, -0.143975f, 0.099161f, -0.008743f, 0.322228f, -0.048777f, -0.018471f, -0.098718f,
    0.218219f, -0.040841f, -0.079775f, -0.145772f, 0.116910f, -0.187598f, -0.046273f, 0.042714f,
    -0.010703f, 0.152314f, 0.250255f, -0.101275f, 0.006276f, -0.235458f, 0.000323f, -0.047231f,
    0.243150f, -0.124257f, 0.024706f, 0.026344f, -0.078759f, -0.030855f, 0.064511f, -0.377758f,
    -0.070116f, -0.153648f, -0.048175f, 0.003246f, 0.024262f, 0.188881f, -0.006982f, 0.298153f,
    0.201415f, -0.045112f, 0.274080f, -0.070939f, 0.348556f, 0.073823f, 0.182168f, 0.194479f,
    -0.178639f, 0.128209f, -0.049760f, 0.122215f, 0.096760f, -0.212744f, 0.306838f, -0.402547f,
    -0.228017f, 0.278923f, -0.187849f, -0.093022f, -0.123180f, 0.159832f, 0.012337f, 0.080719f,
    -0.085714f, 0.191025f, 0.004953f, 0.147782f, 0.122336f, -0.070868f, -0.058656f, -0.122472f,
    0.036215f, 0.221924f, 0.113115f, 0.037903f, -0.087733f, -0.084459f, 0.135369f, 0.199162f,
    -0.052027f, -0.059198f, -0.268643f, -0.146037f, -0.122203f, -0.012480f, 0.017029f, -0.293264f,
    0.149283f, 0.193355f, -0.138865f, 0.100327f, -0.299449f, -0.005238f, 0.073366f, 0.003735f,
    0.026429f, -0.176348f, 0.131552f, 0.009730f, 0.135432f, 0.220517f, -0.145510f, -0.109608f,
    -0.150183f, 0.072653f, -0.079888f, 0.154588f, 0.019110f, 0.213728f, -0.129325f, 0.033491f,
    0.042432f, -0.250830f, -0.093327f, -0.028212f, 0.213242f, -0.038891f, -0.187201f, 0.058699f,
    0.107344f, -0.012716f, -0.075086f, 0.125424f, -0.110510f, 0.000276f, -0.133317f, -0.247484f,
    0.211324f, -0.290876f, -0.204256f, -0.067746f, 0.170822f, -0.029332f, -0.006713f, 0.070769f,
    0.090475f, 0.053545f, -0.020968f, -0.182084f, 0.032106f, -0.151774f, 0.073746f, 0.110099f,
    0.054458f, -0.174980f, 0.027375f, -0.218393f, 0.119604f, 0.007711f, 0.043662f, -0.276285f,
    0.156046f, -0.161417f, 0.025198f, 0.106353f, -0.155944f, -0.238841f, 0.274746f, 0.013843f,
    -0.054877f, -0.096887f, -0.094070f, -0.048241f, 0.275441f, 0.184164f, 0.139324f, 0.030210f,
    -0.138371f, -0.082964f, -0.055790f, -0.381755f, -0.151822f, 0.068842f, -0.006282f, 0.102338f,
    -0.018982f, -0.085711f, 0.189870f, 0.004146f, 0.026275f, -0.254440f, -0.163590f, 0.012618f,
    0.109558f, -0.059620f, 0.166740f, 0.077076f, -0.065634f, -0.056507f, 0.051200f, -0.093191f,
    0.083108f, 0.082112f, -0.009941f, 0.102864f, 0.115425f, -0.011512f, -0.014155f, -0.083628f,
    0.119820f, 0.068788f, -0.018516f, -0.037452f, 0.011300f, 0.019621f, 0.071740f, -0.015002f,
    -0.344170f, 0.034091f, -0.151490f, 0.214911f, -0.073466f, -0.092353f, -0.121334f, 0.023053f,
    -0.010524f, -0.081580f, -0.015838f, 0.040078f, 0.025091f, 0.018946f, 0.173020f, 0.031816f,
    0.227651f, 0.196722f, -0.193119f, -0.026535f, -0.090464f, -0.053646f, 0.035516f, -0.023779f,
    0.042159f, -0.018196f, -0.111494f, 0.030409f, -0.022364f, -0.198904f, -0.111851f, 0.066173f,
    0.285190f, -0.067309f, 0.274900f, -0.056844f, -0.179815f, 0.094344f, -0.075615f, 0.067390f,
    -0.010542f, 0.150813f, -0.143647f, -0.004295f, -0.044111f, -0.393051f, -0.004130f, 0.093888f,
    0.114589f, 0.027010f, 0.028570f, 0.034439f, -0.051647f, -0.033067f, 0.206406f, 0.193215f,
    0.112915f, 0.156508f, 0.094589f, 0.334063f, 0.115004f, 0.160719f, -0.036412f, -0.178112f,
    -0.043066f, 0.151859f, -0.100553f, -0.127489f, 0.096416f, 0.070574f, -0.070470f, 0.050202f,
    0.240589f, 0.193763f, -0.161620f, -0.332460f, -0.016716f, 0.016554f, 0.087453f, -0.245604f,
    0.197687f, -0.222066f, 0.015774f, 0.090213f, 0.027193f, 0.046498f, -0.018507f, -0.050900f,
    0.195579f, 0.017468f, -0.145688f, 0.069094f, 0.047236f, 0.097061f, 0.133169f, -0.050663f,
    -0.202307f, 0.056440f, 0.121498f, 0.184792f, 0.118449f, 0.182761f, 0.301069f, -0.087530f,
    -0.126270f, -0.106363f, -0.102618f, 0.084390f, 0.096563f, -0.020170f, 0.268890f, 0.083572f,
    -0.291570f, 0.154278f, -0.546723f, 0.194314f, -0.185177f, -0.126056f, 0.008891f, 0.177991f,
    0.159552f, -0.309807f, -0.292009f, 0.155651f, -0.383902f, -0.042571f, -0.014684f, 0.033425f,
    0.180111f, 0.291576f, 0.021678f, 0.105941f, -0.278011f, 0.236056f, -0.143274f, -0.109455f,
    0.044100f, 0.024603f, 0.081897f, -0.182548f, -0.177289f, -0.035185f, -0.063306f, 0.299114f,
    -0.191428f, 0.095846f, 0.067676f, -0.094640f, 0.087317f, 0.092470f, -0.251448f, -0.088967f,
    0.136321f, 0.309503f, -0.070884f, 0.133803f, -0.168097f, 0.208040f, -0.231734f, -0.093225f,
    -0.131621f, -0.122332f, -0.060736f, -0.306269f, 0.161073f, -0.046143f, -0.159669f, -0.070398f,
    0.292703f, -0.096441f, 0.081361f, -0.379981f, -0.276835f, 0.121291f, -0.217370f, 0.131179f,
    -0.094878f, -0.022780f, 0.109040f, -0.086328f, 0.158296f, -0.158723f, -0.306888f, 0.075650f,
    -0.060946f, -0.244696f, -0.001724f, 0.164248f, -0.178988f, 0.184465f, -0.161059f, -0.074323f,
    0.019910f, 0.083654f, 0.107704f, 0.115055f, -0.109959f, 0.016622f, 0.154595f, -0.289850f,
    -0.103242f, -0.070740f, 0.186738f, 0.028405f, 0.118502f, 0.102174f, 0.021140f, 0.057452f,
    -0.265350f, 0.093171f, -0.375102f, 0.063289f, -0.064732f, 0.177870f, -0.089942f, 0.200516f,
    0.204063f, 0.008784f, -0.018066f, 0.079370f, 0.013379f, -0.048788f, 0.151575f, 0.197017f,
    -0.272981f, 0.171329f, 0.000526f, -0.173127f, 0.022199f, 0.332049f, 0.026668f, 0.029727f,
    -0.077316f, -0.022797f, -0.207526f, -0.069478f, -0.116772f, -0.245269f, -0.149821f, 0.207470f,
    -0.217280f, -0.225250f, -0.110466f, 0.078461f, -0.025325f, 0.255773f, -0.505131f, -0.086249f,
    0.040989f, 0.099606f, 0.128533f, -0.021083f, 0.045967f, 0.034388f, 0.073882f, 0.019655f,
    -0.159689f, -0.161889f, -0.019607f, -0.112490f, -0.110966f, -0.000342f, 0.116095f, 0.002390f,
    0.147497f, 0.158726f, -0.192748f, -0.230969f, -0.260161f, -0.018219f, 0.094702f, -0.165201f,
    0.151495f, 0.163097f, 0.165942f, 0.166008f, 0.007094f, 0.107257f, 0.106706f, 0.099861f,
    -0.026599f, -0.155720f, -0.276095f, 0.060551f, -0.116150f, 0.010285f, 0.008378f, 0.120635f,
    0.179062f, 0.096901f, -0.404260f, 0.062576f, -0.043664f, -0.588542f, 0.154477f, 0.100272f,
    0.126854f, 0.038387f, 0.101747f, 0.076146f, 0.136769f, -0.062461f, 0.228406f, 0.141297f,
    -0.006938f, -0.085631f, 0.224328f, -0.307982f, -0.055681f, -0.212603f, -0.057059f, 0.306482f,
    -0.312328f, -0.302306f, 0.067611f, -0.182096f, -0.053894f, -0.018796f, -0.083564f, 0.057440f,
    0.471516f, -0.064445f, -0.015961f, -0.107842f, -0.102802f, -0.025465f, 0.006026f, -0.163221f,
    -0.068429f, -0.052844f, 0.104265f, 0.060291f, -0.174323f, 0.167974f, 0.021252f, 0.094691f,
    -0.229320f, -0.275680f, -0.186472f, 0.056560f, 0.129642f, -0.060751f, 0.180123f, 0.251220f,
    0.217304f, -0.219933f, -0.071736f, -0.079466f, 0.310667f, 0.036555f, -0.230039f, 0.092227f,
    -0.042965f, 0.272298f, 0.271686f, 0.073083f, -0.241018f, -0.114428f, -0.029047f, 0.137232f,
    -0.099217f, 0.140593f, -0.182815f, -0.050590f, -0.059626f, -0.039601f, -0.066560f, -0.085160f,
    0.125773f, -0.225501f, 0.072403f, -0.225155f, 0.302319f, -0.149770f, 0.121729f, 0.047184f,
    -0.009150f, -0.076997f, -0.156817f, -0.236593f, -0.155740f, -0.233097f, 0.426559f, 0.046784f,
    -0.322703f, 0.222087f, -0.141631f, 0.168650f, -0.042603f, -0.318626f, 0.094710f, 0.001781f,
    -0.006448f, -0.003462f, -0.019736f, 0.089672f, 0.452772f, -0.344582f, -0.016660f, 0.275603f,
    -0.009111f, -0.265215f, 0.268619f, -0.249349f, 0.008343f, -0.150158f, 0.341983f, 0.315062f,
    -0.014926f, -0.138422f, 0.147486f, -0.088672f, 0.260120f, 0.274446f, -0.149894f, 0.374610f,
    -0.039110f, -0.126014f, -0.036007f, -0.021288f, 0.212136f, 0.044817f, 0.052902f, 0.171670f,
    0.043245f, 0.164698f, 0.100094f, -0.065005f, -0.087388f, 0.172498f, -0.310964f, -0.093786f,
    0.025664f, -0.104766f, 0.000277f, -0.017538f, -0.173496f, -0.160024f, -0.001064f, -0.058395f,
    0.147624f, -0.016051f, -0.192116f, -0.092838f, 0.377106f, -0.092426f, -0.025164f, 0.209407f,
    -0.176357f, 0.180351f, 0.013839f, 0.088164f, 0.029633f, -0.129247f, 0.024812f, 0.093606f,
    -0.347379f, -0.100315f, 0.095302f, 0.233151f, 0.028002f, -0.040309f, -0.200457f, 0.066668f,
    -0.036377f, -0.017217f, -0.000712f, 0.148148f, 0.167609f, 0.088186f, 0.337904f, 0.037698f,
    0.025478f, -0.170958f, -0.125155f, -0.181085f, -0.138725f, -0.048350f, 0.034914f, -0.325426f,
    0.082967f, -0.390529f, -0.103345f, -0.289310f, 0.244902f, 0.008568f, -0.119271f, 0.138591f,
    -0.180095f, 0.045814f, 0.017832f, 0.075315f, -0.030373f, -0.091908f, -0.147005f, -0.028555f,
    0.389592f, -0.130275f, 0.095044f, -0.033093f, 0.203630f, 0.075236f, 0.156066f, 0.044611f,
    0.165074f, -0.111977f, -0.043748f, -0.052530f, 0.034120f, 0.034127f, -0.030624f, 0.039185f,
    0.096697f, -0.140913f, -0.064244f, 0.010926f, 0.006466f, -0.090993f, 0.032950f, 0.157515f,
    0.129148f, 0.034980f, -0.053027f, 0.087353f, -0.070400f, -0.138831f, -0.143461f, -0.290149f,
    -0.058256f, 0.086373f, 0.192234f, 0.287784f, -0.046131f, 0.083180f, -0.033861f, 0.072075f,
    0.150502f, 0.085259f, -0.067055f, 0.117738f, -0.146789f, -0.070840f, 0.126732f, 0.230055f,
    -0.073029f, -0.351378f, -0.060488f, 0.086108f, 0.088709f, 0.013285f, 0.133776f, 0.153127f,
    -0.041338f, -0.106171f, -0.415029f, 0.229171f, -0.078302f, -0.047635f, -0.099056f, 0.016331f,
    0.002211f, -0.027220f, -0.013709f, -0.071759f, -0.033665f, -0.083571f, 0.072992f, -0.024547f,
    0.121805f, -0.040175f, 0.260454f, -0.145743f, 0.222092f, 0.205053f, -0.054749f, -0.186890f,
    -0.070611f, 0.128340f, 0.376179f, 0.127056f, 0.114477f, 0.094765f, -0.033262f, 0.018392f,
    -0.071018f, -0.054080f, -0.080901f, 0.188151f, -0.209848f, 0.110372f, -0.038813f, -0.146543f,
    -0.121296f, 0.020054f, 0.097576f, -0.113526f, -0.120931f, -0.099880f, -0.048819f, -0.025718f,
    -0.029171f, 0.093452f, 0.404814f, 0.257210f, -0.066026f, -0.043654f, 0.014908f, 0.009054f,
    -0.015569f, -0.279580f, 0.174446f, 0.028817f, -0.048353f, 0.010610f, 0.193059f, -0.003789f,
    0.257987f, 0.175029f, -0.006207f, -0.119236f, -0.026196f, -0.271542f, 0.044293f, -0.133524f,
    -0.014398f, 0.024123f, -0.065325f, -0.036141f, -0.135472f, -0.206271f, 0.044740f, 0.022417f,
    0.050056f, 0.110747f, -0.140247f, -0.057370f, 0.015800f, -0.025333f, 0.050703f, -0.156258f,
    0.208819f, 0.020666f, 0.105268f, -0.042349f, -0.029279f, 0.106282f, 0.041868f, -0.018174f,
    -0.022924f, -0.067249f, -0.162484f, 0.154995f, 0.035233f, -0.077880f, -0.158160f, 0.113503f,
    -0.130772f, -0.065877f, -0.219164f, 0.070999f, -0.206040f, -0.156408f, 0.091908f, -0.103806f,
    0.153313f, 0.020538f, 0.243650f, 0.086476f, 0.281046f, 0.069406f, -0.115111f, 0.015478f,
    -0.035506f, 0.036595f, -0.098607f, 0.005205f, 0.058690f, 0.172294f, -0.082533f, -0.021330f,
    -0.159740f, -0.150609f, 0.066666f, 0.048925f, 0.244626f, 0.225009f, 0.096940f, -0.062118f,
    0.106095f, -0.246162f, -0.368492f, -0.301625f, -0.216208f, -0.176650f, 0.143577f, -0.225346f,
    0.143773f, -0.163481f, -0.056134f, 0.316062f, 0.275845f, -0.030652f, 0.021308f, -0.054007f,
    0.147713f, -0.147864f, 0.145882f, -0.180553f, -0.195545f, 0.059283f, 0.263864f, 0.042954f,
    0.101633f, 0.077564f, -0.003557f, -0.018751f, 0.035716f, -0.074446f, -0.145231f, -0.107610f,
    -0.138426f, 0.075028f, -0.091449f, 0.093611f, 0.118809f, -0.146664f, 0.055165f, -0.235709f,
    -0.079498f, 0.234799f, -0.178301f, -0.102865f, 0.097849f, 0.245429f, 0.048462f, -0.081361f,
    -0.126293f, -0.023115f, 0.001506f, 0.236748f, 0.299578f, 0.022157f, 0.043240f, 0.235983f,
    -0.060392f, 0.038046f, -0.102421f, -0.041281f, 0.024233f, -0.101505f, -0.125175f, 0.130238f,
    -0.111550f, -0.256160f, -0.082835f, -0.054111f, 0.033815f, -0.147994f, -0.027051f, -0.123881f,
    -0.196306f, 0.078683f, -0.022327f, 0.119187f, -0.065311f, -0.074515f, -0.107520f, -0.107380f,
    0.027162f, 0.067245f, 0.058412f, 0.009511f, -0.066911f, 0.116599f, -0.159705f, 0.167444f,
    0.192518f, 0.030472f, -0.131102f, 0.100412f, 0.100226f, 0.008725f, 0.153413f, 0.133104f,
    -0.047987f, -0.220421f, -0.149042f, -0.021761f, -0.029571f, -0.124468f, 0.069545f, -0.056146f,
    -0.007239f, -0.050916f, -0.016260f, 0.183534f, 0.367952f, 0.050015f, 0.034794f, 0.072216f,
    -0.148559f, 0.088383f, 0.043427f, -0.158393f, -0.095667f, -0.062245f, -0.098165f, 0.066855f,
    0.024965f, -0.231401f, -0.030711f, 0.145468f, -0.083755f, -0.261566f, -0.147594f, -0.195544f,
    -0.111012f, -0.033442f, -0.092067f, 0.082743f, -0.120209f, 0.166102f, 0.139166f, -0.342476f,
    -0.358207f, 0.186248f, 0.095644f, -0.030626f, 0.140522f, 0.080673f, 0.162073f, -0.183797f,
    0.131899f, -0.066649f, 0.051971f, 0.370093f, -0.020290f, -0.172463f, -0.047518f, 0.221158f,
    0.006183f, 0.184465f, 0.309996f, 0.006831f, -0.056757f, -0.162419f, 0.217917f, 0.004657f,
    -0.020873f, 0.009348f, -0.284723f, 0.160716f, -0.295493f, -0.070694f, -0.127338f, 0.063892f,
    -0.144018f, -0.150769f, -0.090163f, 0.243445f, 0.280676f, -0.131740f, 0.102940f, -0.403324f,
    -0.074229f, 0.011035f, -0.085901f, -0.025016f, -0.034658f, 0.102052f, 0.094626f, 0.107895f,
    0.266519f, -0.171365f, -0.008708f, 0.091175f, -0.101440f, 0.210735f, -0.185815f, -0.007208f,
    -0.255981f, -0.079738f, 0.199832f, -0.243782f, -0.068492f, 0.103976f, -0.015111f, 0.171801f,
    0.142163f, -0.444228f, -0.126813f, 0.092658f, -0.098029f, -0.039766f, -0.120830f, 0.070147f,
    -0.127390f, 0.231346f, 0.010977f, -0.031454f, 0.125460f, 0.042679f, -0.020715f, 0.265311f,
    -0.053579f, -0.127219f, 0.043511f, -0.186006f, -0.008779f, -0.136490f, 0.094715f, -0.016180f,
    0.005990f, 0.000197f, 0.016092f, 0.254725f, -0.295338f, -0.200780f, 0.204267f, -0.191992f,
    -0.010988f, -0.046096f, -0.016240f, -0.141265f, -0.029454f, -0.014055f, 0.093796f, 0.056798f,
    -0.043776f, -0.047670f, 0.032841f, -0.025455f, -0.075921f, -0.000416f, 0.139379f, 0.078855f,
    -0.028061f, 0.001514f, -0.226233f, -0.151944f, -0.012346f, -0.131292f, 0.295425f, 0.217066f,
    0.178227f, -0.061515f, -0.337568f, 0.084775f, -0.043848f, -0.249351f, -0.074656f, -0.473879f,
    0.142240f, -0.146819f, 0.236557f, 0.271641f, -0.141427f, -0.159411f, -0.225638f, -0.053929f,
    -0.348547f, 0.131836f, -0.040532f, -0.280356f, -0.354749f, 0.220167f, -0.155991f, 0.042993f,
    0.146989f, -0.075795f, 0.060675f, 0.138300f, 0.044248f, 0.098644f, -0.127432f, 0.332428f,
    -0.338509f, -0.480896f, 0.009294f, -0.490453f, 0.321388f, -0.225253f, 0.051966f, -0.296569f,
    0.098199f, -0.383480f, -0.402071f, 0.260824f, -0.265686f, 0.318136f, 0.020676f, 0.145972f,
    -0.225170f, 0.232670f, 0.012927f, -0.197856f, 0.293232f, -0.071620f, -0.033198f, -0.087072f,
    0.112176f, -0.160447f, -0.031726f, -0.260424f, -0.052065f, -0.234834f, 0.146747f, 0.071523f,
    -0.012016f, -0.073886f, 0.031854f, 0.071760f, 0.127379f, 0.020286f, 0.075031f, -0.102330f,
    0.022546f, 0.134777f, -0.000125f, -0.129085f, -0.283629f, -0.051606f, -0.102837f, 0.036673f,
    -0.030727f, 0.071560f, 0.100790f, 0.029596f, 0.061959f, 0.068355f, 0.179289f, 0.316234f,
    0.051426f, -0.096263f, -0.283945f, -0.043864f, 0.045857f, -0.059115f, 0.020389f, 0.117870f,
    0.023918f, 0.146519f, -0.159207f, 0.191334f, -0.236053f, -0.059973f, 0.180606f, -0.030646f,
    0.083182f, 0.059759f, 0.076259f, 0.066622f, 0.135089f, 0.000434f, -0.042875f, 0.072530f,
    -0.178951f, 0.030855f, 0.037981f, -0.040803f, 0.071930f, 0.259271f, 0.040128f, 0.165323f,
    -0.236344f, 0.281408f, 0.083698f, 0.190790f, 0.084318f, 0.166062f, -0.117758f, 0.262314f,
    -0.028197f, -0.341931f, -0.120530f, -0.078037f, 0.143249f, -0.318547f, -0.012296f, -0.296330f,
    0.068972f, 0.029007f, -0.308311f, 0.247977f, -0.261792f, 0.138569f, 0.049855f, -0.004004f,
    -0.545649f, 0.076279f, -0.015025f, -0.064470f, 0.260206f, -0.045684f, 0.003655f, -0.270958f,
    0.126173f, -0.110519f, -0.130659f, -0.046907f, -0.014524f, -0.079212f, -0.063742f, 0.028766f,
    -0.125851f, -0.232651f, 0.051407f, -0.085992f, 0.353299f, 0.133474f, 0.003238f, 0.153371f,
    -0.088298f, 0.026763f, 0.097327f, -0.163072f, -0.008091f, 0.305082f, -0.140248f, 0.019769f,
    0.023030f, -0.029795f, 0.118252f, -0.016984f, -0.037911f, 0.289160f, 0.030753f, 0.073049f,
    -0.180368f, -0.036441f, -0.013011f, 0.066286f, 0.045024f, 0.094494f, -0.162039f, -0.055390f,
    -0.131218f, -0.190583f, 0.092092f, -0.018465f, 0.069123f, 0.050920f, 0.251091f, 0.000779f,
    0.136443f, -0.111230f, -0.282692f, -0.021062f, -0.176679f, -0.110401f, 0.359249f, 0.014959f,
    0.003437f, -0.060248f, -0.026867f, -0.008486f, -0.258345f, -0.178295f, 0.107469f, 0.001505f,
    -0.087345f, 0.031756f, -0.000816f, -0.029831f, 0.310329f, -0.130212f, -0.075058f, -0.127547f,
    0.355300f, -0.152268f, 0.078634f, 0.089819f, -0.029479f, -0.137073f, 0.131963f, 0.088817f,
    0.016721f, 0.154389f, 0.045165f, 0.087481f, 0.078034f, 0.083801f, 0.051307f, 0.108032f,
    -0.008745f, -0.098607f, -0.266011f, 0.073292f, 0.150601f, 0.010803f, 0.135052f, -0.056972f,
    -0.043634f, 0.013449f, -0.057020f, -0.034275f, -0.021961f, 0.118796f, -0.182864f, 0.022895f,
    -0.063656f, -0.100243f, 0.022447f, 0.078652f, 0.166582f, -0.032366f, 0.067262f, 0.027509f,
    -0.113962f, 0.211641f, -0.208627f, -0.124948f, -0.013235f, 0.066062f, 0.086294f, -0.027979f,
    -0.026009f, 0.084514f, -0.031524f, -0.099250f, -0.037134f, 0.086716f, -0.322532f, -0.280223f,
    -0.230371f, -0.000150f, -0.116302f, -0.056853f, 0.067772f, -0.116275f, 0.078201f, 0.040412f,
    -0.085086f, 0.105611f, 0.003373f, -0.254223f, 0.299221f, -0.193828f, 0.019031f, -0.033597f,
    -0.072660f, -0.087150f, 0.198731f, 0.052922f, -0.103483f, -0.088500f, -0.112795f, 0.043977f,
    -0.039589f, -0.080749f, -0.051694f, -0.051251f, -0.116048f, -0.309177f, -0.134567f, 0.227335f,
    0.097780f, 0.277090f, 0.051445f, -0.120410f, 0.232728f, 0.029934f, 0.361632f, 0.071695f,
    0.225555f, -0.023450f, 0.136505f, -0.205233f, -0.087948f, -0.389681f, 0.502450f, -0.036963f,
    0.008307f, -0.012308f, -0.150781f, -0.271473f, -0.218442f, -0.144853f, -0.190752f, -0.261734f,
    0.150160f, 0.073413f, -0.334940f, 0.098627f, 0.309118f, 0.115418f, -0.000695f, 0.654011f,
    -0.205067f, 0.039094f, -0.019538f, -0.108708f, -0.020195f, 0.058103f, -0.269723f, -0.081879f,
    0.273267f, 0.064708f, 0.078363f, 0.038920f, -0.005098f, -0.030245f, -0.045741f, -0.230204f,
    -0.012756f, 0.092557f, -0.099913f, 0.102383f, -0.073467f, 0.037750f, -0.136575f, 0.230809f,
    0.054787f, -0.138441f, 0.145096f, 0.055493f, 0.159655f, 0.139983f, 0.032741f, 0.023337f,
    -0.135489f, -0.050290f, 0.302921f, -0.010374f, -0.129316f, -0.230425f, -0.006343f, 0.123098f,
    0.195761f, 0.192007f, 0.149314f, 0.019652f, 0.054163f, -0.049020f, -0.199802f, -0.101696f,
    0.077895f, -0.133750f, 0.280293f, -0.080932f, -0.091664f, 0.161357f, -0.479580f, 0.041628f,
    -0.073843f, -0.289770f, -0.043853f, -0.001860f, -0.040229f, -0.111976f, 0.003362f, 0.073280f,
    -0.011672f, 0.090576f, 0.142343f, -0.117290f, -0.126193f, -0.051385f, -0.185549f, 0.097525f,
    -0.288530f, 0.096718f, 0.173627f, -0.404546f, 0.206307f, -0.007141f, 0.001053f, -0.158740f,
    -0.053711f, -0.175861f, -0.004812f, -0.396361f, -0.182896f, -0.061598f, -0.307793f, 0.118387f,
    -0.265193f, 0.029262f, -0.154452f, -0.106630f, 0.250605f, 0.364062f, -0.027529f, 0.232380f,
    -0.014643f, -0.200781f, 0.132934f, -0.048647f, -0.112067f, -0.012894f, -0.159193f, 0.074521f,
    -0.081694f, 0.061375f, 0.003927f, 0.008317f, -0.008794f, -0.023759f, -0.256476f, 0.072120f,
    -0.107377f, 0.095995f, -0.131423f, 0.210819f, -0.280051f, -0.098951f, 0.046969f, -0.197214f,
    0.085432f, 0.171027f, 0.132765f, 0.029828f, 0.145326f, 0.244482f, 0.094282f, 0.024226f,
    0.059856f, 0.223006f, -0.040587f, -0.006091f, 0.023416f, 0.067162f, 0.192088f, -0.073477f,
    0.110418f, 0.021468f, 0.080528f, -0.152429f, 0.087646f, -0.148583f, 0.152591f, 0.012602f,
    -0.160101f, 0.095387f, -0.000370f, 0.092319f, 0.018757f, 0.091602f, 0.029716f, -0.152548f,
    -0.120108f, 0.128660f, 0.069699f, 0.028403f, 0.138109f, -0.157196f, 0.202758f, 0.165450f,
    -0.108346f, 0.235009f, -0.076329f, -0.142667f, -0.094207f, -0.274050f, 0.034785f, -0.205429f,
    -0.091251f, -0.077876f, 0.053815f, -0.016147f, 0.182060f, 0.101533f, -0.055497f, 0.266178f,
    0.124533f, -0.072779f, 0.144743f, 0.125122f, -0.083653f, -0.079779f, 0.022775f, -0.001135f,
    0.101033f, -0.236353f, -0.001567f, -0.242702f, -0.079492f, 0.009309f, -0.097594f, -0.082933f,
    0.157442f, 0.050287f, 0.030670f, 0.127332f, 0.127426f, -0.075186f, 0.005086f, 0.067779f,
    0.089618f, 0.206055f, 0.092949f, -0.019748f, 0.002354f, 0.005640f, -0.062596f, -0.021899f,
    0.068470f, -0.037224f, 0.343591f, 0.083344f, 0.123798f, -0.049825f, 0.220057f, -0.285359f,
    0.064585f, -0.357758f, 0.085059f, 0.173744f, 0.011550f, -0.066536f, 0.048822f, 0.056934f,
    0.161875f, 0.066683f, -0.172178f, 0.063020f, -0.031070f, 0.051358f, -0.044434f, -0.122067f,
    -0.014269f, -0.064863f, -0.008256f, 0.174975f, -0.031488f, 0.013785f, 0.107818f, -0.214846f,
    0.041814f, 0.198608f, -0.006751f, 0.252006f, -0.031570f, 0.192078f, 0.008251f, -0.168887f,
    -0.010994f, 0.271392f, 0.339624f, 0.170046f, 0.173402f, -0.266743f, 0.237199f, -0.121000f,
    -0.024890f, 0.116544f, 0.373660f, -0.242481f, -0.010192f, -0.223298f, 0.028316f, -0.331012f,
    0.007618f, -0.056368f, 0.146603f, -0.036526f, 0.063753f, 0.236965f, 0.024857f, 0.111991f,
    -0.013767f, -0.112739f, 0.184198f, -0.110092f, -0.127427f, -0.035571f, -0.375259f, 0.105596f,
    0.002887f, -0.169167f, -0.273032f, -0.377928f, 0.021020f, -0.043970f, -0.046701f, -0.090747f,
    0.163107f, 0.061809f, -0.145614f, 0.141811f, 0.088284f, -0.126166f, -0.072953f, 0.145605f,
    0.137243f, -0.144286f, -0.053601f, 0.094593f, 0.041959f, 0.174702f, -0.044471f, -0.253196f,
    0.028083f, 0.017342f, 0.111118f, 0.143779f, 0.133673f, 0.179073f, 0.065180f, -0.189014f,
    -0.157977f, -0.151540f, 0.011648f, 0.222877f, -0.353725f, 0.091559f, 0.024493f, 0.190125f,
    -0.095783f, -0.181006f, -0.177538f, 0.006581f, 0.086132f, 0.053148f, -0.160378f, -0.047895f,
    -0.040969f, -0.109896f, -0.134239f, 0.122285f, 0.154786f, 0.228690f, -0.250647f, -0.635683f,
    -0.221775f, 0.211082f, 0.058201f, 0.149250f, 0.204585f, -0.005884f, -0.093404f, -0.057075f,
    -0.065712f, -0.055084f, 0.220858f, 0.118265f, 0.045286f, 0.117943f, -0.061034f, -0.280114f,
    -0.113323f, 0.045234f, 0.090190f, -0.070401f, 0.049311f, 0.043342f, 0.041304f, -0.214261f,
    -0.237552f, 0.002493f, 0.018104f, -0.107785f, 0.119029f, 0.072572f, 0.027036f, 0.323280f,
    0.067270f, -0.133694f, 0.277936f, -0.105047f, 0.252823f, 0.098885f, 0.030725f, 0.148796f,
    -0.063326f, -0.017409f, -0.154878f, -0.216566f, 0.123647f, 0.092389f, -0.015757f, -0.132184f,
    -0.010587f, -0.192764f, -0.240912f, 0.107983f, -0.004328f, 0.222873f, -0.053512f, -0.015571f,
    0.294284f, -0.054280f, 0.009087f, 0.079734f, 0.124877f, 0.146754f, -0.102913f, -0.275916f,
    -0.162084f, 0.019711f, 0.093578f, 0.039397f, 0.095436f, 0.225320f, -0.014026f, 0.046157f,
    -0.116435f, -0.098797f, 0.082174f, -0.084467f, -0.188924f, -0.134400f, 0.240862f, 0.075952f,
    -0.128745f, 0.124803f, 0.064905f, 0.190668f, 0.058204f, -0.099354f, 0.004826f, 0.093334f,
    0.240484f, 0.113053f, -0.006326f, 0.163858f, -0.154325f, -0.260740f, -0.101662f, 0.000267f,
    -0.155781f, -0.264304f, -0.107253f, -0.083240f, 0.113015f, 0.239331f, -0.297817f, 0.061744f,
    -0.060200f, -0.102388f, 0.084913f, -0.128251f, -0.044269f, -0.061825f, -0.174576f, -0.068675f,
    -0.018623f, 0.057583f, 0.024086f, -0.116800f, 0.062566f, 0.033890f, -0.164879f, -0.134228f,
    -0.178049f, 0.096349f, -0.001037f, 0.126130f, 0.027116f, 0.009048f, -0.020505f, -0.415195f,
    -0.140738f, 0.090469f, -0.335389f, -0.319831f, -0.036250f, -0.013070f, -0.034445f, 0.051147f,
    0.086483f, -0.097099f, -0.005998f, 0.219815f, 0.037533f, -0.191351f, 0.014990f, 0.136331f,
    -0.173480f, -0.020033f, -0.098671f, 0.129987f, 0.313306f, -0.096668f, 0.106333f, -0.095565f,
    -0.027836f, -0.079818f, -0.020324f, -0.200243f, -0.033796f, 0.307496f, 0.320604f, 0.236157f,
    -0.168625f, 0.158033f, -0.045663f, -0.033391f, -0.083635f, 0.111442f, 0.076822f, -0.259822f,
    0.290607f, 0.126763f, -0.190265f, -0.193061f, -0.037635f, 0.180335f, 0.146471f, -0.028249f,
    -0.138246f, 0.004248f, 0.184855f, 0.095429f, 0.315311f, -0.042895f, 0.051293f, 0.278639f,
    0.470496f, 0.005399f, -0.055785f, -0.250236f, -0.080924f, 0.069255f, -0.130490f, -0.501073f,
    0.057881f, 0.018408f, 0.076818f, -0.131105f, -0.036277f, 0.194310f, 0.170219f, 0.103263f,
    -0.267766f, -0.119235f, 0.147155f, 0.037332f, 0.233290f, 0.319235f, -0.023563f, 0.028488f,
    0.028120f, 0.247488f, 0.120815f, -0.350416f, 0.115066f, -0.036072f, -0.124046f, -0.244622f,
    -0.301885f, 0.101888f, -0.044022f, 0.319980f, 0.072731f, -0.185713f, 0.249442f, 0.233513f,
    0.036146f, 0.124768f, -0.111395f, -0.177913f, 0.145098f, 0.042183f, -0.421456f, -0.056886f,
    0.076792f, -0.175623f, 0.003919f, 0.212412f, -0.031081f, -0.386819f, 0.034294f, 0.401761f,
    0.172628f, 0.198422f, -0.331246f, 0.099394f, 0.222505f, -0.094730f, 0.031995f, -0.102054f,
    0.028603f, -0.025322f, 0.251733f, -0.165533f, 0.056866f, -0.086023f, 0.137644f, -0.295016f,
    0.019846f, 0.035346f, 0.209714f, 0.271633f, -0.178925f, -0.090416f, 0.094434f, 0.016601f,
    0.082379f, -0.020053f, -0.006901f, 0.007896f, -0.004394f, 0.143861f, 0.101555f, -0.126762f,
    0.082736f, -0.079943f, -0.113218f, -0.167526f, -0.115360f, 0.257043f, 0.196924f, 0.089779f,
    -0.020635f, -0.146644f, 0.106881f, -0.002026f, -0.278273f, 0.176711f, 0.466014f, 0.019849f,
    -0.076688f, -0.027722f, 0.252270f, 0.019443f, -0.134782f, -0.105633f, 0.252494f, -0.102705f,
    0.240854f, -0.046836f, 0.077202f, -0.047741f, 0.075317f, 0.063668f, 0.141669f, 0.016172f,
    -0.148458f, -0.119841f, 0.110824f, -0.369278f, -0.326692f, 0.013427f, -0.028467f, -0.175720f,
    -0.108313f, 0.031357f, 0.021560f, -0.020895f, -0.012218f, -0.009524f, -0.075397f, 0.071732f,
    -0.021483f, 0.025667f, -0.002027f, 0.016265f, 0.003213f, -0.196976f, -0.333366f, -0.084343f,
    0.362410f, -0.096421f, -0.121113f, 0.020281f, -0.161409f, 0.141565f, 0.178051f, -0.121664f,
    0.328267f, -0.027177f, 0.089043f, 0.328131f, 0.143563f, -0.231030f, -0.295110f, -0.182096f,
    0.153840f, -0.279597f, 0.267444f, -0.112968f, 0.043807f, -0.153536f, 0.189959f, -0.077479f,
    0.112287f, -0.118989f, -0.067808f, 0.172879f, 0.068112f, 0.015152f, -0.119573f, -0.064889f,
    -0.328801f, 0.116255f, 0.294455f, -0.019617f, 0.179775f, 0.042897f, 0.222449f, 0.263439f,
    -0.001192f, 0.050280f, -0.114649f, 0.039303f, -0.002827f, -0.070635f, -0.255026f, -0.268439f,
    0.115683f, 0.026717f, -0.115625f, 0.062070f, 0.163544f, 0.034492f, 0.143400f, -0.163270f,
    0.298516f, -0.446399f, -0.048817f, 0.071480f, -0.079370f, -0.047844f, 0.150004f, 0.074404f,
    -0.090549f, -0.054797f, 0.129042f, -0.128781f, -0.132746f, -0.065246f, 0.048905f, -0.139503f,
    -0.007774f, 0.279742f, -0.043543f, -0.408589f, -0.030142f, 0.040352f, 0.066515f, -0.200386f,
    0.206125f, -0.061398f, 0.158256f, 0.083196f, 0.240312f, -0.081373f, -0.306317f, 0.228980f,
    0.056198f, -0.155462f, 0.097260f, -0.102338f, -0.262258f, -0.094241f, -0.139503f, 0.029071f,
    -0.024491f, 0.144009f, 0.188559f, 0.083343f, 0.003827f, 0.015903f, -0.046500f, 0.073898f,
    0.029733f, 0.076182f, 0.158392f, -0.004651f, -0.301307f, 0.002430f, -0.238032f, -0.034578f,
    0.213860f, 0.038983f, 0.032145f, -0.019738f, -0.087579f, -0.341607f, 0.355501f, -0.283386f,
    0.063633f, 0.094406f, 0.247513f, 0.195759f, -0.101107f, 0.004822f, -0.060327f, 0.097445f,
    -0.007321f, 0.276563f, -0.139669f, 0.035335f, -0.097285f, 0.236587f, -0.269124f, -0.256024f,
    0.183858f, 0.046979f, 0.137781f, 0.068486f, 0.223263f, -0.203893f, 0.086249f, -0.288747f,
    0.236962f, -0.131027f, -0.390003f, 0.073893f, 0.092279f, -0.406876f, 0.021745f, 0.057961f,
    -0.127318f, -0.021631f, -0.121751f, 0.141859f, -0.056606f, 0.439826f, -0.215898f, 0.022720f,
    -0.232430f, -0.254496f, -0.067132f, 0.033108f, -0.187608f, 0.082834f, 0.070693f, 0.016992f,
    0.192661f, 0.132248f, -0.017805f, -0.549616f, 0.348507f, -0.104458f, -0.285136f, 0.049528f,
    -0.220629f, -0.341515f, 0.234453f, -0.415793f, 0.230789f, -0.275652f, -0.139114f, -0.172551f,
    0.051458f, -0.149569f, -0.052523f, -0.215566f, -0.058075f, -0.043753f, -0.069275f, 0.319595f,
    -0.265339f, 0.193512f, 0.034916f, 0.169485f, 0.106188f, 0.202862f, -0.310495f, 0.374003f,
    0.213871f, 0.137199f, 0.182332f, -0.072631f, 0.107626f, 0.244058f, 0.053148f, -0.068399f,
    0.107900f, 0.067997f, -0.013345f, -0.064585f, 0.035297f, -0.010051f, -0.241651f, -0.171789f,
    0.170194f, 0.067529f, -0.147558f, -0.124261f, -0.034689f, -0.121659f, 0.005260f, 0.296885f,
    0.074656f, 0.081918f, -0.092099f, -0.041221f, 0.040934f, 0.078179f, -0.059263f, 0.098739f,
    -0.176105f, -0.194217f, 0.173860f, -0.172903f, 0.348505f, -0.191549f, -0.122813f, -0.072427f,
    0.065127f, -0.126208f, -0.026876f, -0.257622f, -0.458566f, -0.399548f, 0.101350f, -0.244956f,
    -0.171521f, -0.135271f, 0.239347f, 0.288299f, -0.009594f, -0.102802f, -0.172259f, -0.228345f,
    -0.433489f, -0.024230f, -0.113914f, -0.159258f, 0.225891f, 0.347595f, -0.140414f, 0.373056f,
    -0.026210f, 0.064790f, 0.026858f, -0.178668f, 0.261308f, -0.283563f, -0.039523f, 0.156188f,
    0.028203f, -0.245959f, 0.162979f, -0.250970f, -0.043455f, 0.194655f, 0.077489f, -0.174161f,
    0.036096f, -0.138654f, -0.256984f, -0.017380f, 0.163167f, 0.130429f, -0.011121f, 0.208846f,
    0.261288f, -0.101483f, -0.036438f, -0.108209f, 0.035965f, 0.126692f, -0.201627f, 0.455933f,
    0.241642f, 0.171588f, 0.096726f, -0.118590f, 0.045589f, 0.109552f, 0.199017f, -0.208157f,
    -0.007747f, -0.056638f, -0.032518f, -0.103873f, -0.102313f, 0.027089f, -0.234547f, 0.085967f,
    -0.040344f, -0.283502f, -0.110587f, -0.184507f, 0.372659f, -0.090655f, -0.079477f, 0.197641f,
    -0.040191f, -0.257754f, -0.099021f, 0.223515f, 0.003550f, 0.084079f, 0.193538f, 0.040537f,
    0.070504f, -0.102634f, 0.110016f, -0.229175f, 0.012126f, 0.280011f, 0.080725f, -0.331312f,
    0.331826f, -0.002988f, 0.053392f, -0.107458f, -0.058936f, 0.109902f, -0.282019f, -0.086770f,
    -0.202711f, -0.197150f, -0.023833f, 0.014388f, 0.020720f, 0.030675f, -0.140068f, 0.044150f,
    0.121492f, 0.124895f, -0.137056f, 0.317153f, 0.130965f, 0.163109f, -0.029115f, -0.084674f,
    -0.045943f, 0.004160f, 0.256228f, -0.018346f, -0.178643f, -0.214690f, -0.155293f, -0.128229f,
    0.074383f, 0.100320f, 0.052477f, 0.214564f, 0.067686f, 0.023259f, 0.019913f, 0.303317f,
    0.006416f, 0.193025f, 0.083461f, 0.021397f, 0.029712f, 0.204975f, 0.053253f, -0.173914f,
    0.193632f, 0.128521f, 0.032822f, -0.075420f, -0.002280f, -0.258436f, 0.045010f, -0.110117f,
    -0.080484f, -0.146197f, -0.184987f, -0.072575f, -0.090120f, 0.260358f, 0.092009f, 0.467677f,
    -0.178485f, 0.082864f, -0.089839f, -0.154890f, 0.100223f, 0.043662f, -0.048294f, 0.010156f,
    0.091965f, -0.060311f, 0.088110f, -0.420854f, -0.280092f, -0.023805f, 0.019182f, -0.193138f,
    0.136984f, -0.292969f, -0.264692f, 0.095594f, 0.105614f, -0.045515f, -0.220385f, 0.069091f,
    -0.004265f, 0.287623f, 0.172192f, 0.096762f, 0.131596f, 0.064967f, 0.152492f, 0.083918f,
    -0.092968f, -0.035371f, -0.133482f, -0.154023f, -0.188639f, 0.045753f, 0.089213f, -0.038497f,
    0.174287f, 0.182348f, 0.197788f, -0.258018f, 0.015618f, 0.192069f, -0.111551f, -0.021358f,
    -0.198864f, -0.106776f, -0.087323f, 0.043616f, 0.068491f, -0.017803f, 0.066614f, 0.004415f,
    -0.176488f, 0.103482f, 0.078037f, -0.043530f, -0.602569f, -0.206249f, 0.030696f, -0.072266f,
    0.016915f, 0.245899f, 0.161304f, 0.265262f, -0.141574f, 0.390426f, 0.130212f, 0.212213f,
    -0.060691f, 0.034061f, 0.062569f, 0.089511f, -0.093687f, -0.202370f, 0.024259f, -0.306223f,
    0.143973f, -0.132809f, 0.033812f, -0.071565f, -0.070955f, -0.065483f, -0.152283f, -0.189607f,
    -0.066598f, -0.089458f, -0.291160f, 0.002688f, -0.124112f, 0.133246f, -0.029887f, 0.101281f,
    -0.028668f, -0.092998f, 0.173485f, -0.123205f, -0.177635f, -0.004586f, -0.071816f, -0.147420f,
    -0.091453f, 0.107410f, -0.122392f, -0.334174f, 0.068856f, 0.049427f, 0.225527f, 0.027603f,
    -0.025918f, -0.312845f, -0.292229f, 0.000693f, 0.242346f, 0.253546f, -0.173014f, 0.186227f,
    -0.037466f, 0.160862f, 0.374667f, -0.066079f, 0.362964f, -0.169141f, -0.044885f, 0.110175f,
    0.124724f, -0.197976f, -0.024386f, 0.111846f, 0.051266f, 0.019645f, 0.347408f, 0.015666f,
    0.023388f, 0.223132f, -0.112421f, -0.027285f, 0.124694f, 0.022584f, -0.407383f, -0.019147f,
    0.028874f, 0.176630f, -0.036739f, 0.114893f, 0.067420f, -0.036231f, 0.329925f, -0.045851f,
    -0.167003f, 0.033947f, 0.130386f, -0.014660f, -0.251892f, -0.025593f, 0.204114f, 0.010263f,
    0.135211f, 0.055723f, 0.154476f, 0.109780f, -0.162831f, 0.124139f, -0.185827f, 0.238900f,
    -0.041538f, 0.072032f, 0.028550f, 0.119679f, -0.006874f, 0.005457f, 0.241136f, -0.028670f,
    0.162587f, -0.153281f, -0.208035f, 0.308506f, 0.123336f, 0.130639f, -0.230751f, -0.001760f,
    -0.010083f, -0.022935f, 0.071199f, 0.123198f, 0.122601f, -0.074077f, 0.145343f, -0.065163f,
    0.043261f, -0.065268f, 0.134282f, -0.021610f, -0.201528f, -0.137544f, 0.060610f, -0.226016f,
    0.108579f, 0.061634f, 0.121133f, -0.075659f, 0.285822f, 0.014916f, -0.115919f, -0.042099f,
    -0.049828f, -0.016744f, -0.144719f, -0.105071f, 0.240225f, 0.124046f, 0.053695f, 0.222514f,
    -0.114394f, 0.014971f, 0.020408f, -0.020140f, -0.106184f, -0.043519f, -0.069340f, -0.002983f,
    0.052399f, 0.048096f, -0.163715f, -0.268673f, -0.142827f, -0.113301f, 0.292137f, 0.064351f,
    0.020725f, -0.072031f, 0.199018f, -0.026472f, 0.147108f, 0.212137f, 0.076738f, -0.028944f,
    -0.286138f, -0.002196f, -0.104340f, -0.096195f, -0.178794f, 0.152620f, 0.115393f, 0.101049f,
    0.137846f, -0.063487f, -0.253432f, 0.108667f, -0.040324f, -0.181280f, 0.030517f, -0.018619f,
    0.015934f, 0.090381f, 0.077847f, 0.081361f, 0.063300f, -0.135358f, 0.021123f, 0.116984f,
    0.256292f, 0.043821f, -0.058445f, 0.042989f, -0.071835f, -0.011197f, 0.091761f, -0.134819f,
    0.033239f, 0.133332f, 0.195064f, -0.011504f, 0.046313f, -0.043016f, 0.061450f, -0.267081f,
    0.018341f, -0.134967f, 0.026441f, -0.230124f, 0.230578f, -0.112444f, 0.050510f, 0.157130f,
    0.105770f, 0.015740f, -0.239727f, 0.015357f, 0.123362f, 0.175702f, -0.077427f, -0.117227f,
    0.028074f, -0.081124f, -0.066549f, 0.072563f, -0.126977f, -0.013252f, 0.056880f, 0.143170f,
    -0.011108f, -0.056838f, -0.190516f, -0.060869f, -0.183292f, 0.146617f, 0.116234f, -0.053904f,
    -0.112998f, 0.088579f, 0.148297f, 0.221299f, -0.068252f, 0.062962f, -0.048251f, 0.236344f,
    -0.069806f, 0.103335f, -0.018806f, -0.073296f, 0.073243f, -0.047088f, 0.204990f, 0.042690f,
    0.087240f, -0.219027f, -0.035681f, -0.004967f, -0.384494f, 0.157203f, -0.016688f, -0.108374f,
    -0.503974f, 0.066056f, 0.215072f, 0.037561f, 0.100664f, -0.063662f, -0.072078f, -0.049293f,
    0.155540f, -0.270038f, -0.339186f, 0.194595f, -0.217471f, 0.049621f, -0.218764f, 0.110352f,
    0.079535f, 0.063169f, -0.046751f, -0.034177f, -0.125231f, 0.035955f, -0.110385f, 0.063851f,
    0.122861f, 0.036892f, -0.076529f, 0.055551f, 0.261033f, 0.060661f, -0.027866f, -0.025281f,
    0.087127f, 0.523400f, 0.362386f, 0.156463f, 0.053928f, -0.148586f, 0.202156f, -0.016401f,
    -0.033071f, -0.060917f, -0.040494f, -0.037101f, 0.024574f, -0.159725f, 0.143637f, 0.182092f,
    -0.059481f, -0.131018f, -0.062109f, 0.083950f, 0.114627f, -0.040184f, -0.188444f, -0.136581f,
    0.211489f, -0.045349f, 0.121640f, 0.254601f, -0.347255f, -0.184366f, 0.119656f, 0.126618f,
    -0.025536f, 0.019290f, -0.191777f, -0.190057f, 0.001086f, 0.150184f, 0.103851f, -0.146352f,
    -0.123610f, 0.009134f, -0.142268f, 0.158187f, 0.094370f, -0.209573f, 0.273058f, -0.164759f,
    -0.394376f, 0.129309f, -0.016770f, 0.027738f, -0.022670f, 0.093747f, -0.325323f, -0.031374f,
    0.198041f, -0.010082f, -0.043156f, 0.073598f, 0.115073f, -0.098253f, -0.025580f, -0.132123f,
    -0.141161f, -0.149233f, -0.082467f, 0.017857f, 0.012919f, 0.059390f, 0.078287f, -0.072181f,
    0.189349f, -0.129776f, -0.113724f, -0.058967f, -0.243020f, 0.259246f, -0.162960f, -0.000098f,
    -0.157707f, 0.000289f, -0.178716f, -0.006357f, 0.038803f, 0.006046f, -0.107167f, 0.136695f,
    0.049349f, 0.014810f, -0.118747f, -0.143189f, 0.024458f, -0.083352f, -0.116762f, 0.103794f,
    0.013047f, 0.275237f, 0.158876f, 0.179167f, -0.002803f, -0.101994f, 0.244591f, 0.027647f,
    0.109168f, 0.017046f, -0.176445f, 0.006231f, -0.091868f, 0.234023f, -0.124719f, -0.180096f,
    0.130320f, 0.018674f, -0.021724f, 0.123210f, 0.041587f, 0.160742f, -0.163524f, -0.011008f,
    -0.070624f, 0.074564f, 0.190043f, -0.064148f, 0.008781f, 0.010279f, -0.032352f, -0.052964f,
    0.127456f, -0.121994f, 0.171656f, 0.242177f, -0.079212f, 0.117330f, 0.107784f, -0.114659f,
    0.176591f, -0.305310f, 0.413272f, 0.211355f, -0.282711f, -0.264919f, 0.037869f, 0.317055f,
    -0.115611f, -0.113315f, -0.202437f, 0.115110f, -0.080078f, -0.265515f, -0.556919f, 0.317516f,
    -0.081588f, -0.259046f, -0.321012f, -0.156901f, 0.355078f, 0.082034f, -0.065024f, -0.015700f,
    0.341431f, -0.326163f, 0.063214f, -0.108710f, -0.051919f, -0.384934f, 0.069972f, -0.012061f,
    -0.150062f, -0.014389f, 0.008302f, 0.044366f, 0.059827f, -0.234097f, -0.031758f, -0.051634f,
    0.224291f, 0.067998f, 0.070942f, 0.095687f, 0.012523f, -0.046089f, 0.056163f, 0.281355f,
    -0.062441f, -0.119702f, -0.012938f, 0.038137f, 0.070776f, 0.039738f, -0.116154f, 0.091261f,
    -0.129917f, -0.114104f, -0.138519f, 0.186192f, 0.130375f, -0.120967f, 0.070342f, 0.383211f,
    -0.157842f, 0.011671f, -0.086940f, 0.030653f, -0.068197f, 0.027045f, -0.003629f, 0.166631f,
    -0.027315f, 0.090454f, 0.117498f, -0.218736f, -0.024506f, -0.071585f, -0.012831f, -0.183512f,
    0.030965f, 0.145217f, -0.158963f, 0.004370f, 0.151947f, -0.074321f, -0.390236f, 0.049586f,
    0.011226f, 0.045838f, 0.168280f, 0.026838f, -0.023395f, 0.202059f, -0.295305f, -0.128010f,
    0.055896f, 0.001202f, 0.088445f, 0.174196f, -0.082469f, 0.067669f, 0.008649f, 0.158073f,
    0.139702f, 0.276549f, 0.226773f, -0.048077f, -0.040697f, 0.006908f, -0.028208f, 0.198262f,
    0.115769f, -0.155812f, -0.305436f, 0.023256f, -0.037187f, -0.275236f, 0.104739f, 0.141704f,
    0.066912f, 0.076661f, 0.036259f, -0.173823f, 0.162729f, 0.004866f, -0.107034f, -0.322227f,
    0.092819f, 0.151464f, -0.103340f, -0.131386f, 0.108911f, -0.329049f, -0.255907f, 0.104364f,
    0.134877f, -0.224222f, -0.046627f, -0.178326f, -0.097070f, 0.000006f, 0.020291f, 0.309650f,
    0.013610f, 0.061410f, -0.002304f, -0.309999f, -0.041180f, 0.082535f, -0.037544f, 0.061236f,
    0.091565f, -0.090634f, 0.132325f, 0.131429f, 0.105380f, 0.037129f, -0.033952f, 0.452594f,
    0.081458f, -0.305947f, -0.388734f, -0.171203f, 0.046446f, 0.107131f, 0.018693f, 0.086350f,
    0.247945f, 0.072036f, 0.049175f, -0.047091f, 0.029500f, -0.001214f, 0.212227f, -0.004583f,
    0.095119f, 0.002117f, 0.091891f, 0.229282f, -0.187409f, -0.051570f, -0.034973f, -0.034012f,
    0.008617f, 0.030914f, 0.236050f, -0.004836f, 0.245045f, 0.139332f, 0.108659f, 0.148479f,
    -0.118866f, 0.064075f, 0.205032f, -0.049042f, -0.001616f, 0.026252f, 0.135047f, 0.163622f,
    0.097433f, 0.188006f, 0.167379f, -0.092079f, -0.011519f, -0.018333f, 0.112313f, 0.104511f,
    0.076612f, -0.063479f, -0.008413f, 0.028526f, 0.131244f, 0.014995f, -0.149909f, 0.177355f,
    -0.090967f, -0.319307f, -0.172127f, 0.033579f, -0.240175f, -0.122660f, 0.108695f, 0.037241f,
    0.048148f, 0.078991f, -0.096198f, -0.187843f, 0.330729f, -0.215324f, -0.249679f, 0.120145f,
    -0.154966f, 0.049975f, 0.088684f, 0.136464f, 0.131128f, 0.021487f, -0.044234f, 0.071989f,
    -0.004266f, 0.138922f, 0.094021f, -0.139489f, -0.006253f, 0.203449f, 0.023814f, -0.175701f,
    0.053877f, 0.182042f, -0.012437f, -0.033744f, 0.069362f, -0.125360f, -0.133909f, 0.089110f,
    -0.034157f, -0.123228f, -0.315442f, -0.375470f, 0.119869f, -0.006613f, 0.155166f, 0.094331f,
    0.179539f, -0.060929f, 0.078189f, 0.120209f, 0.256301f, 0.055375f, -0.147333f, -0.216812f,
    0.138722f, 0.391046f, 0.043473f, 0.079719f, -0.252186f, 0.086202f, 0.221127f, 0.001370f,
    0.168020f, -0.031543f, 0.035257f, -0.372897f, -0.030277f, 0.237385f, -0.173393f, 0.267604f,
    0.023303f, 0.029400f, 0.066424f, -0.109182f, 0.032596f, -0.060073f, 0.146931f, 0.087550f,
    0.182912f, 0.106348f, 0.294840f, 0.037845f, 0.013110f, -0.244649f, -0.182106f, -0.012985f,
    -0.157481f, 0.203438f, -0.073354f, 0.027837f, -0.234430f, -0.029276f, -0.154570f, -0.092892f,
    -0.091323f, 0.096146f, 0.118969f, 0.312602f, -0.127665f, -0.300215f, 0.000603f, 0.092058f,
    0.183981f, -0.034437f, -0.013517f, 0.088975f, -0.149112f, -0.107410f, -0.306590f, 0.036828f,
    -0.082371f, 0.206153f, 0.079570f, 0.120816f, -0.032161f, 0.155451f, -0.044143f, -0.186485f,
    -0.089433f, -0.205960f, -0.032014f, 0.040480f, 0.049412f, 0.122017f, 0.189253f, 0.070866f,
    -0.039317f, 0.015046f, -0.217798f, 0.213790f, -0.000573f, -0.100523f, -0.035228f, -0.055290f,
    0.121833f, 0.053619f, 0.008607f, -0.065458f, 0.076438f, -0.238084f, -0.014445f, 0.155321f,
    0.007360f, -0.184331f, -0.041615f, -0.061375f, -0.134087f, -0.033556f, 0.228608f, -0.098146f,
    -0.332421f, -0.105709f, -0.047798f, 0.071503f, 0.074963f, 0.053166f, 0.193551f, -0.113600f,
    0.078381f, 0.010943f, 0.061879f, 0.002867f, -0.168653f, 0.067421f, -0.047981f, 0.154781f,
    -0.134289f, -0.089765f, -0.076542f, 0.005609f, 0.133478f, -0.104671f, 0.074676f, -0.131824f,
    -0.089457f, -0.000216f, 0.023713f, 0.063494f, 0.249002f, 0.054603f, 0.055106f, 0.112086f,
    0.008608f, -0.023057f, 0.122760f, 0.057673f, -0.079087f, 0.130494f, -0.107023f, -0.110566f,
    -0.215926f, -0.008866f, 0.162132f, 0.133756f, 0.128163f, -0.415636f, 0.053961f, 0.022272f,
    0.257209f, -0.075764f, -0.161438f, -0.044873f, -0.139832f, 0.285362f, -0.276611f, -0.029015f,
    -0.137883f, 0.101089f, 0.384927f, 0.015233f, 0.178236f, 0.165839f, -0.376899f, -0.109951f,
    0.213284f, -0.121978f, 0.182661f, 0.021824f, -0.022177f, 0.156917f, -0.060438f, -0.011300f,
    0.026835f, -0.084444f, -0.164775f, 0.154923f, -0.003504f, -0.091424f, 0.207419f, 0.023254f,
    0.041399f, -0.033156f, 0.161709f, -0.034863f, 0.025304f, -0.037716f, 0.016041f, 0.006596f,
    0.034538f, 0.170828f, 0.227909f, 0.117455f, -0.091515f, -0.159192f, -0.231135f, -0.418548f,
    -0.194844f, -0.158714f, -0.118918f, 0.064352f, -0.158102f, 0.027753f, 0.058839f, 0.181201f,
    -0.156636f, 0.031735f, 0.122154f, -0.036922f, 0.082246f, -0.167373f, 0.157662f, -0.054464f,
    -0.073429f, 0.129051f, 0.254840f, 0.008306f, 0.128931f, -0.135877f, 0.196645f, 0.022485f,
    -0.145226f, -0.034776f, -0.080698f, 0.095948f, 0.272806f, -0.057024f, 0.018053f, 0.078317f,
    0.177249f, -0.052628f, -0.213414f, 0.145618f, -0.038334f, 0.057624f, -0.136274f, -0.240198f,
    -0.069594f, -0.086029f, 0.095787f, 0.072144f, 0.065814f, 0.236878f, 0.048940f, 0.059109f,
    0.108952f, -0.042958f, -0.090648f, -0.096493f, -0.030526f, -0.047114f, -0.014664f, 0.165223f,
    -0.189471f, -0.094797f, 0.074594f, -0.061960f, 0.035783f, 0.015219f, 0.032600f, 0.232061f,
    0.115812f, -0.146662f, 0.028073f, -0.021686f, -0.171085f, -0.057754f, -0.102492f, -0.087955f,
    0.448013f, -0.046380f, 0.072415f, -0.015991f, -0.047417f, -0.093015f, 0.160244f, -0.138266f,
    -0.060782f, -0.162259f, -0.044742f, 0.047650f, -0.255594f, -0.084371f, 0.104391f, -0.011727f,
    0.139795f, 0.071132f, -0.127912f, 0.157801f, -0.106037f, -0.011059f, -0.253656f, 0.108217f,
    -0.150928f, -0.039413f, -0.121250f, 0.170315f, -0.101763f, 0.195665f, -0.116530f, 0.047843f,
    0.229070f, 0.231278f, 0.109373f, -0.018830f, 0.248497f, -0.125846f, -0.086519f, 0.063750f,
    -0.193917f, 0.087630f, -0.034945f, -0.097115f, 0.107650f, 0.025177f, 0.004344f, 0.027160f,
    0.105918f, -0.062767f, 0.081341f, 0.151306f, -0.005012f, 0.052569f, -0.072793f, 0.141457f,
    0.245063f, 0.073129f, -0.233184f, 0.080759f, -0.120050f, -0.197591f, -0.066892f, 0.119748f,
    -0.097885f, -0.051284f, -0.017317f, -0.184031f, -0.044027f, 0.110575f, 0.060190f, 0.062991f,
    -0.041533f, 0.141755f, -0.136909f, 0.040034f, 0.026959f, -0.111698f, 0.031847f, -0.129954f,
    0.122043f, 0.074984f, 0.075511f, -0.081457f, 0.059499f, 0.088551f, 0.268477f, 0.108813f,
    -0.038680f, -0.114839f, -0.148289f, 0.094580f, -0.037314f, -0.162489f, 0.121427f, -0.115244f,
    0.256703f, 0.138156f, -0.037842f, -0.077956f, -0.128550f, -0.283044f, 0.185773f, -0.215903f,
    -0.023777f, -0.265036f, 0.101658f, 0.130433f, -0.223578f, 0.072887f, 0.044033f, 0.117558f,
    0.003360f, -0.016448f, 0.034338f, -0.110558f, 0.140962f, -0.088739f, 0.110105f, -0.081286f,
    -0.145856f, -0.011995f, 0.120604f, 0.048878f, 0.064703f, -0.164854f, 0.166182f, 0.087116f,
    -0.094042f, -0.101522f, -0.012613f, 0.071619f, -0.184411f, 0.087570f, -0.106733f, 0.082146f,
    -0.222994f, 0.110585f, -0.175624f, -0.146202f, -0.058665f, -0.010661f, -0.019227f, -0.058198f,
    -0.007302f, 0.040563f, -0.086754f, -0.105090f, 0.036892f, -0.041019f, -0.181459f, -0.051269f,
    0.167874f, 0.201937f, -0.209814f, 0.008827f, 0.027332f, -0.074135f, 0.106442f, 0.067898f,
