#ifndef __SV128WB_H__
#define __SV128WB_H__

static const float conv_5_BiasAdd_ReadVariableOp_sv128[128] = {
    0.050480f, 0.022766f, -0.024226f, -0.013478f, 0.285758f, 0.150552f, -0.012130f, 0.234531f,
    0.180128f, -0.249060f, -0.128878f, -0.027975f, 0.026334f, 0.081698f, 0.114701f, -0.379902f,
    0.008045f, 0.078144f, 0.002302f, -0.127947f, -0.231279f, -0.064488f, 0.149646f, 0.033576f,
    0.002826f, -0.012574f, -0.223453f, -0.191036f, 0.171576f, 0.040558f, 0.101166f, -0.029667f,
    -0.040252f, 0.240817f, 0.045714f, 0.091977f, -0.070017f, -0.022548f, 0.066282f, 0.141136f,
    -0.051281f, 0.337980f, 0.204724f, 0.064761f, -0.129520f, 0.008180f, 0.006960f, -0.011138f,
    -0.016765f, -0.141536f, 0.099414f, 0.043751f, 0.141902f, -0.023560f, 0.205344f, 0.108241f,
    -0.131157f, -0.295655f, 0.146021f, -0.026738f, -0.151219f, -0.008674f, -0.111919f, 0.095874f,
    -0.092244f, 0.047130f, 0.447044f, -0.005268f, -0.343739f, -0.067425f, 0.035802f, 0.072411f,
    0.320816f, -0.110657f, -0.465050f, -0.056196f, -0.024724f, 0.084543f, -0.342056f, -0.034683f,
    -0.029550f, -0.042658f, 0.011129f, 0.081660f, -0.317126f, -0.104750f, 0.046577f, -0.009671f,
    0.003006f, 0.314302f, 0.010629f, 0.473647f, 0.199592f, 0.186963f, -0.059078f, -0.082767f,
    0.042532f, 0.272218f, 0.245842f, 0.012952f, -0.137136f, 0.078406f, -0.178797f, 0.167644f,
    0.026112f, -0.112651f, 0.185307f, 0.075363f, -0.163996f, -0.021867f, 0.004763f, -0.249953f,
    -0.205888f, 0.137510f, 0.138703f, -0.096556f, -0.117977f, -0.171191f, 0.079317f, 0.582848f,
    -0.116133f, 0.101298f, 0.108959f, -0.084030f, 0.068416f, 0.141168f, -0.239454f, -0.253051f,
};

// Shape: (128,)

static const float conv_4_BiasAdd_ReadVariableOp_sv128[64] = {
    0.072960f, 0.254968f, -0.027248f, 0.074211f, -0.008087f, -0.295033f, 0.075493f, -0.137267f,
    -0.064610f, -0.057539f, 0.059756f, -0.201119f, 0.071287f, 0.043625f, -0.236662f, -0.191344f,
    0.001548f, 0.130207f, 0.074744f, 0.111368f, -0.088724f, 0.045210f, -0.017277f, 0.027242f,
    0.110610f, 0.039295f, -0.173002f, -0.336380f, 0.017479f, 0.126973f, -0.134556f, -0.011495f,
    -0.136427f, -0.169767f, 0.012146f, 0.094897f, -0.067381f, -0.110767f, 0.178194f, -0.021702f,
    -0.160213f, -0.031776f, -0.022421f, 0.257927f, -0.058242f, -0.167256f, 0.005151f, 0.054543f,
    -0.102733f, 0.060919f, -0.126548f, -0.076148f, -0.028369f, 0.166122f, 0.208752f, 0.208760f,
    -0.072114f, -0.100406f, -0.073141f, 0.079703f, -0.048433f, 0.190164f, 0.324143f, -0.019803f,
};

// Shape: (64,)

static const float conv_3_BiasAdd_ReadVariableOp_sv128[32] = {
    0.067210f, 0.160623f, -0.034073f, 0.034645f, 0.210314f, 0.059273f, -0.215054f, 0.050236f,
    -0.191915f, -0.289833f, 0.060658f, -0.110073f, 0.079895f, -0.017336f, -0.299401f, 0.095087f,
    0.060116f, -0.164194f, -0.121297f, 0.202396f, -0.050682f, 0.062317f, -0.044581f, -0.002882f,
    -0.120759f, -0.075690f, -0.195556f, 0.078275f, 0.156052f, 0.136562f, 0.023724f, 0.083928f,
};

// Shape: (32,)

static const float conv_2_BiasAdd_ReadVariableOp_sv128[16] = {
    -0.223608f, -0.045902f, -0.064097f, -0.120614f, 0.000109f, -0.185145f, -0.117990f, -0.020917f,
    -0.048691f, 0.279827f, -0.117513f, -0.059989f, -0.300761f, -0.109764f, 0.048049f, 0.517177f,
};

// Shape: (16,)

static const float conv_1_BiasAdd_ReadVariableOp_sv128[8] = {
    0.122536f, -1.088370f, 0.413062f, -0.216863f, 0.522495f, -0.665992f, 0.520538f, -0.001533f,
};

// Shape: (8,)

static const float conv_5_Weights_sv128[73728] = {
    0.233146f, 0.028624f, -0.070503f, 0.051410f, -0.184666f, 0.175943f, -0.099144f, 0.016852f,
    0.026359f, 0.044020f, 0.043596f, -0.012588f, -0.041326f, -0.047814f, -0.269002f, -0.175263f,
    -0.138580f, 0.033897f, -0.020310f, -0.084800f, -0.167457f, -0.039782f, 0.260336f, 0.024562f,
    -0.114485f, -0.025904f, -0.068779f, 0.074509f, 0.168106f, -0.071426f, 0.050545f, -0.031181f,
    -0.078621f, -0.272634f, 0.014986f, 0.252860f, 0.064786f, -0.034447f, -0.102273f, -0.033492f,
    -0.005812f, -0.093077f, -0.163173f, 0.075669f, -0.151084f, -0.272260f, -0.447180f, -0.008356f,
    -0.082782f, -0.143661f, 0.060796f, 0.153050f, -0.069793f, 0.152568f, -0.033179f, 0.009972f,
    0.067996f, -0.063202f, -0.294761f, 0.088340f, -0.013971f, -0.311668f, 0.049867f, -0.038686f,
    0.009229f, 0.094961f, -0.176614f, -0.153406f, 0.192519f, 0.019172f, -0.038796f, 0.045122f,
    -0.085486f, -0.064829f, -0.197925f, 0.170673f, 0.122802f, 0.093385f, 0.262243f, 0.111980f,
    0.021067f, 0.199200f, -0.029911f, 0.130516f, -0.090113f, 0.095610f, -0.031824f, -0.043661f,
    0.101551f, -0.183523f, 0.027591f, 0.090985f, -0.133785f, 0.005055f, 0.197187f, -0.109034f,
    0.137479f, 0.057123f, 0.007842f, -0.084836f, -0.125459f, 0.085108f, 0.031796f, 0.038160f,
    0.075611f, -0.037736f, 0.103092f, -0.054445f, -0.037818f, 0.014546f, -0.061017f, -0.120771f,
    0.050183f, -0.368347f, 0.193468f, 0.134536f, 0.021124f, 0.224216f, -0.001225f, 0.135010f,
    0.004502f, -0.079414f, -0.007214f, -0.095139f, 0.039788f, -0.068485f, -0.120130f, -0.215676f,
    0.045430f, 0.031961f, -0.046780f, -0.006530f, 0.029510f, -0.046286f, 0.003667f, -0.024780f,
    0.043061f, -0.025570f, -0.015881f, 0.051601f, 0.030597f, 0.049300f, -0.023349f, -0.055381f,
    0.017059f, -0.047683f, -0.017192f, 0.050710f, -0.054744f, 0.001985f, 0.009364f, -0.002586f,
    -0.017745f, -0.018918f, -0.015983f, 0.019769f, 0.041739f, 0.002076f, 0.017276f, -0.049448f,
    0.001702f, -0.002064f, -0.026013f, -0.046169f, 0.047623f, 0.004597f, -0.000234f, 0.023462f,
    -0.026729f, 0.035314f, -0.010370f, -0.051658f, 0.047477f, 0.015811f, 0.033818f, 0.040653f,
    -0.022939f, -0.027910f, -0.040195f, 0.041350f, 0.042971f, 0.047289f, 0.013962f, -0.055596f,
    -0.041710f, -0.015229f, -0.045021f, -0.013725f, -0.046169f, 0.058747f, -0.024659f, -0.047144f,
    0.056035f, -0.128653f, -0.069599f, 0.216923f, 0.228938f, 0.075707f, -0.182766f, 0.021963f,
    0.151323f, 0.060052f, 0.071609f, -0.131983f, 0.316179f, -0.333102f, 0.243971f, 0.052938f,
    -0.018320f, -0.155187f, -0.019020f, -0.141765f, -0.173721f, 0.006511f, 0.076267f, -0.015352f,
    0.076881f, 0.168894f, 0.001306f, 0.050911f, -0.006300f, -0.041520f, 0.056712f, 0.064721f,
    -0.028561f, 0.095970f, -0.119218f, -0.002595f, -0.071212f, -0.154812f, 0.225372f, -0.007208f,
    -0.223816f, -0.025434f, -0.037926f, 0.118748f, -0.199150f, 0.273801f, 0.015736f, 0.077334f,
    0.023766f, -0.081038f, -0.038744f, 0.034811f, -0.447599f, 0.178494f, -0.226060f, -0.006973f,
    -0.100045f, -0.020622f, -0.194657f, 0.277049f, -0.230774f, -0.065892f, 0.009246f, -0.111593f,
    -0.031311f, -0.057870f, 0.186117f, 0.170861f, 0.125353f, 0.302922f, -0.187769f, 0.088528f,
    -0.221774f, -0.021320f, -0.082413f, 0.128169f, -0.071427f, 0.086667f, -0.174649f, -0.148755f,
    -0.114659f, -0.028130f, 0.159103f, 0.221128f, -0.094714f, -0.186873f, 0.079167f, 0.453853f,
    0.133595f, -0.061874f, -0.075629f, 0.018390f, -0.079639f, -0.046695f, 0.048506f, 0.221006f,
    -0.242302f, 0.032385f, -0.051152f, 0.137961f, 0.060747f, -0.192579f, -0.009746f, 0.114367f,
    0.038703f, -0.010168f, -0.089959f, 0.117577f, 0.126969f, -0.080446f, 0.287703f, -0.142341f,
    -0.247235f, 0.038516f, -0.117277f, -0.083607f, 0.047851f, -0.064567f, 0.235577f, 0.088426f,
    -0.071571f, -0.064378f, -0.091447f, 0.117979f, 0.220361f, -0.056163f, 0.121114f, -0.056052f,
    -0.054698f, -0.006046f, 0.054773f, -0.011609f, -0.024171f, -0.020488f, 0.050722f, -0.019509f,
    0.001223f, 0.045258f, -0.029660f, 0.022047f, 0.009293f, 0.046322f, 0.019022f, 0.004165f,
    -0.025894f, -0.005152f, 0.051359f, 0.026780f, -0.029723f, -0.023528f, 0.013215f, 0.005328f,
    0.018929f, 0.007085f, -0.015436f, 0.020604f, -0.021310f, 0.038528f, 0.027008f, -0.058374f,
    0.015000f, 0.041571f, -0.017321f, -0.017609f, -0.023076f, 0.053198f, 0.029640f, 0.048683f,
    -0.041392f, 0.016521f, -0.000833f, -0.010628f, -0.026892f, -0.009389f, -0.051107f, -0.035599f,
    0.018667f, 0.007200f, 0.000411f, 0.017875f, 0.005476f, 0.044086f, -0.009459f, 0.009278f,
    0.050981f, -0.011326f, -0.033154f, -0.043114f, 0.026064f, 0.005682f, -0.002698f, 0.005505f,
    -0.028826f, -0.001485f, 0.015307f, -0.043206f, -0.039406f, -0.006731f, -0.007719f, 0.055068f,
    0.041766f, -0.042077f, 0.056694f, -0.019434f, 0.046851f, 0.054590f, -0.045360f, -0.015596f,
    -0.001518f, 0.013378f, 0.048536f, -0.056573f, 0.056621f, 0.040375f, 0.046503f, -0.042997f,
    -0.017252f, 0.037724f, -0.026643f, -0.016316f, 0.052425f, -0.051246f, -0.053530f, 0.051850f,
    -0.011487f, -0.001194f, -0.025405f, -0.058846f, -0.014085f, 0.009619f, -0.046274f, 0.034239f,
    -0.034439f, 0.029591f, -0.006735f, -0.022959f, -0.029418f, 0.002576f, 0.032407f, 0.054272f,
    -0.033163f, -0.001526f, -0.022485f, 0.055240f, -0.040382f, 0.054677f, -0.048821f, 0.041234f,
    -0.015431f, 0.024929f, 0.044283f, 0.011141f, -0.032887f, -0.049959f, -0.043839f, 0.051614f,
    -0.023065f, -0.050962f, -0.046031f, -0.008065f, -0.013910f, 0.021304f, 0.010569f, -0.037232f,
    0.049690f, -0.058559f, 0.058143f, -0.044163f, 0.044370f, 0.046231f, -0.017866f, -0.027452f,
    0.005998f, 0.043102f, -0.048716f, -0.004335f, -0.002525f, -0.000366f, 0.054989f, 0.046710f,
    -0.038196f, 0.052319f, -0.019597f, 0.011095f, 0.032193f, 0.050119f, 0.044829f, 0.041320f,
    -0.036751f, -0.034873f, -0.024971f, -0.004053f, 0.052416f, -0.012915f, 0.029416f, 0.027420f,
    0.016629f, 0.049601f, 0.032081f, -0.000803f, 0.004647f, 0.019554f, 0.024288f, 0.021795f,
    0.048325f, 0.037875f, -0.003699f, 0.036534f, -0.015793f, -0.013842f, 0.021511f, 0.054656f,
    -0.053360f, -0.023975f, 0.018969f, -0.022613f, -0.045783f, 0.051308f, 0.041321f, 0.033662f,
    0.004276f, 0.024719f, -0.048642f, 0.051738f, 0.051233f, -0.042330f, -0.057857f, -0.057721f,
    -0.022099f, 0.010899f, -0.014255f, -0.017428f, -0.036239f, 0.019586f, 0.006760f, -0.035043f,
    0.057278f, 0.018102f, 0.026962f, 0.000956f, -0.006378f, -0.043622f, -0.008471f, -0.051744f,
    0.057225f, 0.021257f, 0.057751f, 0.050341f, 0.024353f, 0.041706f, -0.022305f, -0.055907f,
    -0.003369f, -0.031381f, 0.001003f, 0.001963f, 0.028123f, 0.014350f, -0.016754f, 0.031547f,
    0.023180f, 0.028809f, 0.033239f, 0.049664f, -0.031738f, 0.002002f, -0.038368f, 0.035564f,
    -0.029982f, -0.054590f, -0.013808f, -0.000124f, -0.028240f, -0.019223f, -0.046139f, 0.012792f,
    0.055101f, 0.010684f, 0.006505f, -0.052059f, 0.000026f, 0.025768f, -0.016328f, 0.044606f,
    0.107314f, -0.079255f, 0.012130f, 0.204306f, -0.056383f, 0.117612f, -0.035880f, -0.009225f,
    0.007602f, -0.095764f, -0.048008f, -0.005731f, -0.013795f, -0.016032f, -0.026695f, 0.066799f,
    -0.015033f, -0.031981f, 0.130870f, -0.315290f, 0.001260f, -0.029973f, -0.041358f, 0.062863f,
    -0.215834f, -0.135521f, -0.178685f, -0.083203f, -0.162678f, 0.037876f, 0.079884f, -0.081076f,
    0.107747f, -0.027747f, 0.003311f, 0.200362f, -0.110076f, -0.164628f, -0.041945f, 0.055904f,
    0.143352f, -0.097339f, -0.151816f, -0.108338f, 0.087946f, -0.248791f, -0.098654f, 0.096179f,
    -0.011359f, 0.104542f, -0.011869f, -0.069477f, 0.034694f, 0.090933f, 0.042329f, -0.047060f,
    -0.136672f, -0.002448f, -0.066399f, -0.104067f, -0.113151f, -0.215573f, -0.040536f, 0.020895f,
    0.096003f, 0.048246f, 0.247181f, 0.064463f, 0.128373f, 0.020511f, 0.097133f, 0.014789f,
    -0.122312f, 0.071068f, 0.386596f, -0.020349f, 0.126362f, 0.174342f, 0.143697f, -0.186534f,
    -0.260935f, 0.141829f, 0.234675f, 0.019527f, -0.002878f, -0.064796f, 0.084221f, -0.065893f,
    0.030743f, 0.010480f, 0.107736f, -0.279291f, -0.000794f, -0.141514f, 0.068056f, -0.100222f,
    -0.011104f, 0.170718f, 0.004216f, 0.070402f, 0.121491f, -0.086767f, 0.130474f, -0.125129f,
    0.186416f, -0.197824f, 0.073006f, 0.017853f, -0.029768f, 0.119708f, -0.003656f, 0.078391f,
    0.010218f, -0.086926f, 0.158465f, 0.044750f, 0.152412f, -0.194173f, -0.148475f, 0.115990f,
    0.078192f, 0.222310f, 0.030244f, -0.239784f, 0.021174f, -0.075942f, -0.017954f, -0.143117f,
    0.005931f, 0.044140f, -0.015911f, -0.002035f, 0.046444f, 0.050729f, 0.045156f, -0.047524f,
    0.011221f, 0.048230f, 0.054327f, -0.001549f, 0.000712f, 0.013574f, 0.055498f, 0.051461f,
    -0.048134f, -0.050184f, 0.021663f, -0.024849f, -0.013361f, 0.002636f, 0.005369f, -0.038912f,
    0.041471f, 0.058418f, 0.019403f, 0.019833f, 0.002609f, 0.048132f, 0.037287f, 0.036144f,
    -0.051653f, -0.004010f, 0.051074f, 0.053126f, 0.030414f, -0.022323f, -0.013024f, 0.056122f,
    0.038146f, -0.021000f, 0.042760f, -0.023476f, -0.051152f, -0.043289f, -0.040741f, -0.024939f,
    -0.030858f, 0.054697f, 0.028835f, 0.057767f, -0.030945f, 0.000020f, -0.019855f, -0.030439f,
    -0.031818f, 0.024143f, 0.054454f, 0.021357f, -0.045385f, 0.025943f, -0.018664f, -0.007460f,
    0.118988f, 0.037462f, 0.038452f, 0.108685f, 0.083272f, -0.064741f, 0.051250f, -0.046787f,
    0.145724f, -0.121338f, -0.134250f, -0.175872f, -0.071876f, 0.068779f, 0.002116f, -0.008181f,
    -0.019832f, 0.056858f, 0.000805f, 0.045647f, -0.115234f, -0.064531f, -0.124101f, -0.141501f,
    -0.039368f, -0.045515f, -0.016858f, -0.094064f, 0.043738f, 0.143120f, -0.119225f, -0.006903f,
    0.018337f, -0.050134f, -0.060317f, 0.138814f, -0.164615f, -0.073900f, 0.145251f, 0.064891f,
    0.114225f, -0.023507f, 0.020121f, 0.102925f, -0.003011f, -0.232616f, -0.150792f, -0.025958f,
    -0.114736f, -0.025126f, -0.110679f, -0.038464f, -0.132955f, 0.189852f, -0.012242f, -0.202697f,
    0.180635f, -0.060637f, -0.024890f, 0.054553f, -0.014547f, -0.194952f, 0.254691f, -0.091221f,
    -0.002153f, 0.119568f, 0.237726f, -0.055949f, 0.201948f, 0.046431f, 0.137349f, -0.137786f,
    -0.088629f, -0.018742f, -0.200132f, -0.057885f, 0.060172f, -0.016049f, 0.007523f, -0.031135f,
    -0.067677f, -0.059295f, -0.057127f, -0.003771f, -0.113253f, 0.009965f, 0.018089f, 0.107335f,
    0.052145f, 0.095689f, -0.010211f, -0.107450f, 0.138574f, -0.087318f, 0.068139f, 0.140477f,
    0.169828f, 0.091779f, 0.088792f, 0.139510f, 0.136178f, -0.174535f, -0.114094f, 0.043943f,
    0.006704f, -0.076566f, 0.047699f, -0.027088f, -0.138162f, 0.021386f, 0.165981f, 0.110528f,
    -0.010547f, 0.004318f, -0.032495f, 0.063617f, -0.038196f, -0.207633f, -0.107307f, 0.209864f,
    -0.011799f, 0.087517f, 0.130889f, 0.023741f, 0.078456f, 0.214574f, -0.207752f, -0.095847f,
    0.052858f, 0.010270f, -0.058643f, 0.044087f, 0.027004f, 0.028977f, 0.045289f, 0.028396f,
    0.001242f, -0.031390f, -0.044340f, -0.055357f, 0.012418f, 0.042463f, -0.023796f, -0.013468f,
    0.005750f, -0.031373f, -0.009133f, -0.026223f, -0.031214f, 0.000833f, -0.041950f, 0.031581f,
    0.000949f, 0.046075f, -0.012884f, -0.041280f, 0.043673f, -0.031099f, 0.009049f, 0.009740f,
    0.006735f, 0.010501f, 0.041026f, 0.044098f, -0.025446f, 0.006365f, -0.030208f, 0.058169f,
    -0.037065f, 0.051627f, -0.039392f, 0.013996f, -0.008935f, -0.030284f, -0.043983f, 0.013731f,
    0.040848f, 0.050633f, 0.024797f, -0.046295f, 0.021284f, 0.055144f, -0.021289f, 0.048457f,
    0.034046f, 0.058065f, -0.010053f, -0.039722f, -0.037820f, -0.016872f, 0.012279f, -0.031033f,
    0.033871f, 0.028885f, 0.009925f, -0.051875f, -0.023715f, 0.043603f, 0.047361f, 0.052464f,
    -0.048068f, 0.039893f, 0.007817f, 0.040565f, -0.044409f, -0.007289f, 0.026216f, -0.044444f,
    -0.038636f, -0.044742f, -0.026654f, -0.003202f, 0.012986f, -0.013763f, 0.027939f, -0.007511f,
    -0.002047f, -0.004023f, 0.005886f, 0.030939f, 0.016226f, -0.038230f, 0.007097f, -0.005644f,
    0.040563f, 0.050621f, -0.018194f, -0.025247f, 0.004342f, 0.004774f, 0.007483f, 0.014832f,
    0.040392f, 0.002371f, -0.035964f, -0.055542f, 0.045321f, -0.036661f, 0.038043f, 0.035483f,
    0.056307f, -0.004673f, -0.019881f, 0.016693f, 0.057840f, 0.022696f, -0.006365f, -0.055245f,
    -0.008891f, 0.020096f, -0.056598f, 0.009109f, -0.019991f, -0.006946f, -0.057036f, -0.022831f,
    0.034434f, -0.012839f, 0.003359f, -0.057395f, 0.015723f, 0.002808f, 0.029444f, -0.002348f,
    0.021607f, -0.037955f, 0.014808f, -0.039558f, -0.040853f, -0.058267f, 0.053686f, 0.025013f,
    -0.032706f, 0.043350f, 0.052905f, 0.013949f, 0.025111f, 0.041426f, -0.051992f, 0.013539f,
    -0.013619f, -0.041163f, -0.024191f, 0.006200f, -0.055883f, 0.053206f, -0.026949f, -0.020188f,
    -0.048432f, 0.006762f, 0.044039f, -0.055448f, -0.002360f, -0.011760f, -0.048172f, 0.041472f,
    0.056214f, 0.041942f, 0.041522f, 0.035574f, -0.030234f, -0.022675f, 0.026811f, 0.037402f,
    0.010147f, -0.018983f, 0.028641f, -0.017643f, 0.034396f, 0.003827f, -0.047688f, -0.058538f,
    -0.002810f, -0.037909f, -0.015125f, -0.026259f, 0.027643f, -0.054611f, 0.022397f, -0.011079f,
    0.015347f, 0.028560f, 0.003574f, -0.039867f, 0.034850f, 0.045194f, -0.044156f, -0.028371f,
    -0.040259f, -0.036860f, 0.050702f, -0.029232f, -0.025048f, 0.017217f, 0.048202f, -0.058532f,
    -0.051886f, -0.043949f, 0.018452f, -0.020907f, -0.040281f, -0.022929f, 0.050822f, -0.014439f,
    0.024907f, 0.001252f, 0.027878f, -0.022802f, 0.018869f, 0.043522f, -0.002058f, 0.054840f,
    -0.047502f, -0.027789f, 0.017727f, -0.054428f, 0.015034f, -0.023741f, 0.033821f, 0.046937f,
    -0.005145f, 0.034552f, -0.030033f, 0.020369f, 0.029704f, 0.049364f, -0.013591f, 0.014312f,
    0.022787f, -0.003612f, -0.013231f, -0.012107f, 0.002419f, -0.017354f, 0.028147f, 0.014469f,
    0.013023f, -0.045440f, 0.003650f, -0.035405f, -0.011963f, -0.046353f, 0.040955f, 0.048177f,
    0.110270f, 0.053833f, 0.085922f, 0.113241f, -0.399414f, -0.138900f, 0.000602f, 0.044283f,
    -0.067634f, -0.044318f, 0.062003f, 0.015145f, -0.151565f, -0.070260f, 0.196891f, 0.157969f,
    -0.060762f, 0.123474f, 0.256594f, -0.227651f, -0.140743f, -0.146679f, -0.102862f, 0.119446f,
    0.008650f, 0.169051f, 0.134722f, 0.014793f, 0.040169f, -0.183133f, 0.141962f, 0.057655f,
    -0.041895f, 0.229358f, 0.120711f, 0.130114f, 0.092906f, -0.080653f, 0.090508f, -0.023880f,
    -0.210535f, 0.017726f, -0.163670f, 0.005805f, -0.006414f, -0.133038f, 0.091887f, -0.125754f,
    0.273855f, -0.025784f, -0.204850f, -0.145377f, 0.107433f, 0.089235f, -0.093237f, -0.051837f,
    -0.139334f, -0.081823f, 0.234775f, 0.013051f, -0.051936f, 0.071268f, -0.161199f, -0.118732f,
    0.026620f, -0.012278f, -0.141404f, -0.072360f, -0.031996f, -0.051666f, 0.130575f, -0.269461f,
    0.083776f, 0.126769f, 0.217335f, -0.058907f, -0.091190f, -0.323207f, -0.040057f, 0.255631f,
    0.129412f, 0.058884f, 0.050837f, 0.097241f, 0.110152f, 0.206488f, -0.211689f, -0.162924f,
    0.014392f, -0.080584f, -0.003511f, -0.066020f, -0.162945f, -0.152876f, -0.214700f, 0.047309f,
    0.140766f, -0.007468f, 0.098973f, -0.078434f, 0.117608f, 0.100927f, 0.088755f, -0.111524f,
    0.027489f, -0.239557f, 0.040048f, -0.036825f, -0.248859f, 0.086999f, 0.285190f, 0.066407f,
    0.238908f, 0.046304f, 0.006437f, 0.230396f, 0.063075f, 0.067621f, 0.107140f, -0.236923f,
    0.126011f, -0.238198f, -0.214345f, 0.002676f, 0.086494f, 0.199630f, -0.047699f, 0.010722f,
    -0.007256f, 0.038264f, 0.001157f, 0.041541f, 0.045088f, -0.022810f, -0.029929f, -0.057426f,
    -0.008364f, -0.013303f, 0.018153f, -0.023444f, -0.055694f, -0.033487f, -0.008563f, 0.056420f,
    0.020941f, 0.000116f, 0.014087f, -0.045952f, 0.015631f, -0.004840f, -0.049931f, 0.034575f,
    -0.052682f, 0.000598f, -0.044942f, 0.041053f, -0.012015f, 0.041588f, -0.037332f, -0.012756f,
    0.009377f, 0.040772f, -0.027338f, 0.052003f, -0.049554f, -0.042772f, 0.013147f, -0.001073f,
    -0.049767f, 0.030440f, -0.039867f, 0.018064f, 0.039317f, 0.042868f, 0.004366f, -0.049623f,
    -0.044793f, 0.053271f, 0.034058f, -0.041181f, 0.032042f, 0.034796f, -0.035870f, -0.054787f,
    -0.054721f, -0.016263f, 0.044656f, 0.026944f, -0.029258f, -0.001373f, 0.034780f, -0.052328f,
    0.054137f, -0.022685f, 0.139197f, 0.055418f, 0.069999f, -0.030206f, -0.215203f, 0.136898f,
    -0.081597f, -0.175682f, 0.139411f, -0.174474f, -0.225572f, 0.018923f, 0.098705f, -0.055310f,
    -0.030651f, 0.199951f, 0.148260f, 0.055623f, 0.013738f, 0.060294f, -0.107664f, 0.057595f,
    0.063593f, -0.029737f, 0.101445f, 0.061954f, 0.106608f, -0.050787f, 0.156542f, 0.130910f,
    0.018772f, 0.185124f, 0.051260f, 0.115470f, -0.139317f, 0.028079f, -0.120929f, 0.014034f,
    0.054062f, -0.034384f, -0.018529f, -0.098858f, -0.189168f, -0.089204f, 0.068298f, 0.022050f,
    0.089459f, 0.171162f, 0.047668f, 0.024110f, 0.075892f, 0.034308f, -0.138595f, 0.130342f,
    0.034402f, -0.317409f, 0.069623f, -0.216099f, -0.026167f, 0.047010f, -0.054940f, -0.228131f,
    0.084329f, 0.108053f, -0.126392f, 0.013043f, -0.035183f, -0.154709f, 0.271799f, -0.149235f,
    -0.128869f, -0.068346f, 0.037663f, 0.053549f, -0.103807f, -0.073501f, 0.012236f, 0.170394f,
    0.038128f, 0.085999f, 0.106508f, 0.089935f, 0.161528f, -0.198163f, -0.091530f, -0.098193f,
    -0.080381f, 0.157408f, -0.205285f, -0.039364f, -0.184684f, 0.054615f, -0.012318f, -0.136266f,
    0.126114f, -0.008898f, -0.126207f, 0.044164f, -0.125220f, -0.080432f, 0.081989f, -0.220226f,
    0.165667f, -0.021338f, -0.136106f, 0.099135f, -0.151884f, 0.045151f, 0.399424f, -0.187134f,
    0.349991f, -0.115273f, 0.031869f, 0.089865f, 0.046487f, -0.195772f, 0.137857f, -0.060673f,
    0.085799f, -0.011748f, -0.216805f, 0.170425f, 0.006401f, 0.042842f, 0.412327f, -0.071448f,
    -0.005920f, -0.014731f, -0.031936f, -0.025708f, -0.003553f, 0.011244f, 0.005761f, 0.009905f,
    0.048434f, -0.049362f, -0.057842f, 0.023752f, -0.046615f, -0.027205f, -0.058612f, 0.009475f,
    -0.008742f, -0.036334f, -0.029818f, 0.012849f, -0.044652f, 0.025455f, 0.021459f, 0.030753f,
    -0.051910f, 0.035555f, 0.031850f, 0.038339f, -0.023403f, 0.010934f, -0.024699f, 0.055857f,
    0.031941f, 0.037400f, 0.039724f, 0.013812f, -0.025781f, 0.045624f, -0.055483f, 0.002570f,
    0.012082f, -0.035261f, 0.019042f, 0.022453f, 0.058125f, -0.017887f, 0.047355f, -0.045975f,
    -0.031028f, 0.027456f, 0.053184f, 0.021331f, -0.035505f, -0.025779f, 0.009757f, -0.034764f,
    -0.000583f, 0.013936f, 0.015000f, 0.045377f, 0.032241f, -0.036350f, 0.049209f, 0.018736f,
    0.007998f, 0.036359f, -0.013955f, -0.026067f, 0.023167f, -0.014213f, 0.042625f, 0.030340f,
    -0.054135f, -0.013352f, -0.043896f, -0.023307f, -0.042339f, -0.008770f, -0.005860f, -0.036879f,
    0.023492f, 0.036819f, 0.003190f, 0.027733f, -0.019480f, 0.033648f, -0.040312f, -0.000036f,
    -0.030528f, 0.003577f, 0.040960f, 0.050111f, -0.041847f, -0.004994f, 0.033592f, 0.012869f,
    -0.052778f, 0.001954f, 0.031541f, -0.017904f, 0.012411f, 0.020461f, -0.003167f, -0.032963f,
    0.006939f, -0.052859f, -0.038877f, 0.013736f, -0.036628f, -0.009456f, 0.054067f, 0.045828f,
    0.015187f, -0.023387f, -0.007892f, -0.021204f, -0.049785f, -0.004331f, -0.024061f, -0.007007f,
    -0.040342f, 0.003258f, 0.049657f, 0.018186f, 0.047850f, -0.042281f, 0.001730f, -0.026174f,
    -0.020089f, -0.039544f, -0.020701f, 0.030271f, -0.032249f, 0.009253f, 0.013949f, 0.040396f,
    0.034477f, -0.016964f, -0.038688f, -0.017386f, -0.055912f, -0.015728f, 0.057463f, -0.029904f,
    0.006696f, -0.004082f, -0.031676f, 0.030819f, -0.010464f, 0.019608f, -0.049600f, -0.000081f,
    -0.040977f, 0.026418f, 0.017538f, -0.007646f, -0.008019f, -0.003666f, -0.045206f, 0.015640f,
    0.018884f, -0.030533f, -0.026909f, -0.004281f, 0.011593f, 0.015698f, 0.026611f, -0.016824f,
    0.001281f, 0.054035f, 0.007732f, 0.004475f, 0.047930f, -0.040477f, 0.058075f, 0.047779f,
    0.010342f, 0.036180f, 0.033776f, -0.028175f, -0.032506f, -0.029271f, -0.032172f, -0.041789f,
    -0.028413f, 0.002806f, -0.038392f, 0.051472f, -0.027785f, 0.047725f, 0.014414f, -0.015382f,
    -0.008697f, -0.014211f, -0.038880f, 0.007222f, -0.009850f, 0.036480f, -0.028788f, -0.046370f,
    0.010078f, 0.032490f, -0.001748f, 0.020032f, -0.006192f, -0.050116f, 0.018092f, -0.042834f,
    0.028295f, -0.015354f, 0.034024f, 0.004011f, 0.015696f, -0.007229f, -0.008298f, -0.032126f,
    -0.029900f, 0.055468f, 0.013796f, 0.003498f, 0.023847f, 0.012907f, -0.052224f, 0.044665f,
    -0.045335f, -0.004350f, 0.003891f, -0.024483f, 0.020720f, -0.022652f, -0.007651f, -0.027383f,
    0.005487f, 0.008963f, -0.057675f, -0.028740f, 0.005127f, 0.039224f, -0.043902f, -0.018075f,
    -0.037489f, -0.008622f, -0.001821f, -0.032876f, 0.009035f, 0.009392f, 0.056050f, -0.044589f,
    -0.037199f, -0.047084f, 0.052536f, -0.003938f, -0.042192f, -0.045644f, -0.044699f, 0.012662f,
    0.014513f, 0.036599f, 0.020271f, -0.046154f, -0.046581f, 0.009389f, -0.064287f, -0.022143f,
    -0.064404f, 0.030212f, -0.020353f, -0.048576f, 0.016165f, -0.043651f, -0.062873f, -0.050327f,
    -0.004603f, -0.004718f, 0.032916f, -0.043104f, -0.061997f, -0.003424f, 0.020779f, -0.000092f,
    -0.030243f, 0.038050f, -0.000525f, -0.057056f, 0.031477f, -0.003688f, -0.009896f, 0.020704f,
    -0.053277f, 0.001023f, 0.013889f, 0.043958f, -0.055868f, -0.061942f, -0.036523f, -0.014137f,
    -0.011341f, 0.031026f, -0.060798f, -0.048334f, 0.047003f, -0.011731f, -0.049986f, 0.013505f,
    -0.059519f, 0.008257f, 0.039136f, -0.034613f, -0.002271f, -0.055290f, 0.017495f, 0.045480f,
    0.037487f, -0.052867f, 0.025666f, 0.034925f, -0.042648f, 0.001539f, -0.038840f, -0.004639f,
    -0.024802f, 0.031688f, 0.006504f, -0.059519f, -0.003347f, -0.006555f, 0.002182f, 0.036362f,
    -0.021778f, -0.003648f, -0.024075f, -0.060926f, 0.012151f, 0.023265f, -0.029424f, 0.018247f,
    0.036619f, -0.009461f, -0.045633f, 0.005332f, -0.056802f, 0.026994f, 0.050207f, -0.015481f,
    -0.058456f, -0.060383f, -0.006656f, -0.006714f, -0.061118f, -0.053058f, 0.023701f, 0.033595f,
    -0.038164f, 0.007916f, -0.020519f, -0.041347f, 0.012732f, 0.029782f, -0.003273f, -0.021640f,
    -0.053738f, -0.040695f, -0.015008f, 0.051225f, -0.019255f, -0.029775f, -0.049296f, 0.040279f,
    0.038939f, -0.020296f, -0.041345f, 0.034048f, 0.023666f, -0.023567f, -0.009956f, 0.031406f,
    -0.022133f, 0.031795f, -0.023544f, 0.002451f, -0.027807f, -0.005537f, -0.058205f, -0.062634f,
    -0.010934f, 0.047571f, -0.049173f, -0.029838f, 0.021745f, -0.058294f, 0.036292f, 0.039594f,
    0.043116f, -0.057237f, 0.003430f, 0.021989f, -0.041518f, 0.055520f, -0.044286f, -0.004532f,
    0.044741f, -0.033253f, -0.010812f, 0.016180f, -0.015194f, -0.048205f, 0.035305f, 0.024884f,
    0.011166f, 0.047114f, 0.036994f, -0.001311f, 0.035238f, 0.016524f, -0.029369f, -0.010980f,
    0.041470f, 0.025449f, -0.032838f, 0.024301f, 0.029880f, 0.016708f, 0.044299f, 0.055619f,
    -0.015940f, 0.054595f, -0.016818f, 0.039911f, 0.022699f, 0.028774f, 0.055775f, 0.015385f,
    -0.036571f, 0.016683f, 0.028843f, -0.043733f, 0.039666f, -0.040432f, -0.032968f, 0.033755f,
    0.038307f, 0.035854f, -0.022870f, 0.029245f, -0.041222f, 0.008644f, 0.006328f, 0.021091f,
    0.048156f, -0.019760f, 0.022898f, 0.043417f, 0.043793f, -0.064561f, 0.024264f, 0.032335f,
    0.017074f, -0.034226f, 0.035511f, 0.005548f, -0.047397f, -0.036488f, -0.041856f, -0.049795f,
    0.017482f, -0.017099f, 0.037564f, 0.040943f, -0.051988f, -0.043545f, -0.009686f, 0.042822f,
    0.007370f, 0.020355f, -0.013825f, -0.029255f, 0.005220f, 0.042975f, -0.046733f, -0.013128f,
    0.033331f, -0.050438f, -0.030077f, -0.007816f, 0.021241f, 0.030062f, -0.023270f, -0.068547f,
    -0.039901f, -0.021387f, 0.023405f, -0.069810f, -0.065136f, -0.050365f, 0.058714f, -0.003964f,
    -0.066972f, -0.025498f, -0.005647f, -0.047217f, 0.018126f, -0.027517f, -0.063869f, 0.050054f,
    0.034496f, 0.024733f, 0.006170f, -0.036546f, -0.040235f, -0.057891f, -0.020986f, -0.039370f,
    -0.000286f, 0.045402f, 0.035331f, -0.037411f, -0.007983f, -0.039967f, -0.064930f, 0.028243f,
    -0.068243f, 0.012293f, -0.036882f, -0.040922f, -0.002081f, -0.038429f, 0.030029f, 0.010363f,
    -0.037831f, -0.022610f, 0.029576f, 0.029028f, 0.037774f, -0.062384f, -0.034229f, -0.032504f,
    -0.058981f, -0.027028f, -0.061277f, 0.002907f, -0.057854f, 0.017676f, 0.025399f, -0.016970f,
    -0.000027f, -0.002210f, 0.035475f, -0.071195f, -0.039178f, 0.026092f, 0.008417f, -0.041532f,
    0.030499f, -0.058234f, -0.019176f, 0.023122f, 0.018409f, -0.032413f, -0.035115f, -0.065858f,
    0.040357f, 0.048858f, -0.011549f, 0.024913f, -0.061897f, -0.024037f, 0.035984f, -0.031959f,
    -0.024360f, -0.063865f, 0.037511f, 0.051974f, -0.050910f, 0.011451f, -0.041526f, 0.033736f,
    0.052282f, 0.011904f, 0.013980f, -0.005907f, -0.037647f, -0.019889f, 0.015428f, -0.028650f,
    -0.027385f, 0.024637f, 0.003354f, 0.027213f, 0.044174f, 0.050010f, 0.007861f, -0.010430f,
    -0.016407f, -0.055064f, -0.024201f, 0.034034f, -0.045039f, -0.045588f, 0.048422f, 0.019071f,
    0.040781f, 0.041882f, -0.032155f, 0.000003f, 0.034994f, -0.021743f, 0.054484f, -0.003911f,
    -0.053575f, 0.015335f, -0.012060f, 0.021661f, 0.028966f, -0.058661f, 0.057461f, 0.037595f,
    -0.049867f, 0.032928f, 0.009113f, 0.017691f, -0.018836f, -0.042933f, -0.056678f, -0.005954f,
    0.027451f, -0.027456f, -0.022641f, 0.037281f, 0.032813f, 0.015432f, -0.047693f, 0.028247f,
    0.029420f, -0.035030f, -0.014724f, -0.004271f, -0.026345f, -0.044170f, -0.005744f, 0.009431f,
    -0.052282f, -0.050066f, -0.005198f, 0.000648f, 0.007875f, -0.054464f, -0.004805f, 0.012082f,
    0.050715f, 0.006480f, 0.020239f, 0.016223f, -0.044507f, 0.035299f, -0.035221f, 0.050053f,
    -0.035154f, -0.029265f, 0.034188f, 0.027767f, 0.031586f, 0.052341f, 0.022196f, 0.013049f,
    0.048234f, 0.057696f, -0.036674f, 0.050399f, -0.032018f, 0.037857f, 0.050239f, 0.042417f,
    -0.052616f, 0.032508f, 0.018767f, -0.035433f, -0.014318f, 0.011905f, 0.009836f, -0.020206f,
    0.025742f, -0.001620f, -0.053292f, 0.018880f, -0.021665f, 0.026078f, 0.038594f, 0.008605f,
    -0.013410f, -0.045783f, 0.004235f, 0.031099f, 0.002532f, 0.001159f, -0.038887f, -0.013018f,
    -0.040085f, 0.003747f, 0.044166f, -0.022252f, 0.013491f, -0.042059f, 0.017793f, -0.033741f,
    -0.032184f, 0.034952f, 0.014802f, 0.018870f, -0.048574f, -0.039665f, 0.008965f, 0.008597f,
    -0.021620f, -0.055725f, -0.052372f, 0.051695f, -0.032550f, -0.002841f, 0.042647f, 0.050061f,
    0.042287f, -0.048716f, 0.011403f, -0.038470f, 0.028154f, 0.006572f, -0.054582f, 0.016570f,
    -0.053884f, 0.053040f, 0.020738f, -0.051262f, 0.058399f, 0.001828f, 0.025266f, -0.036032f,
    0.016825f, -0.005642f, 0.014012f, -0.027805f, 0.013572f, 0.022944f, 0.007174f, -0.002405f,
    -0.048297f, -0.057857f, -0.010788f, -0.009358f, -0.026291f, 0.058768f, 0.044435f, -0.046574f,
    -0.048191f, 0.011064f, -0.013919f, 0.023155f, -0.035977f, 0.024346f, -0.036588f, -0.045490f,
    0.034148f, -0.049813f, 0.016880f, 0.049640f, -0.028049f, -0.028087f, -0.037425f, -0.019135f,
    0.048484f, 0.044589f, 0.032247f, -0.039595f, 0.011729f, -0.010956f, 0.001238f, 0.000177f,
    -0.001508f, 0.003893f, 0.005240f, -0.032693f, 0.030239f, 0.003248f, -0.045133f, -0.042120f,
    0.043335f, -0.016933f, 0.014817f, -0.022204f, 0.021008f, 0.005572f, -0.033302f, -0.052615f,
    0.019532f, -0.038793f, -0.011190f, 0.003816f, 0.022891f, -0.007944f, -0.023155f, 0.013046f,
    0.050074f, -0.040949f, 0.021933f, -0.018176f, 0.037352f, 0.045391f, 0.031994f, 0.008896f,
    -0.050712f, 0.046705f, -0.038586f, -0.046787f, 0.027084f, -0.044230f, -0.007702f, 0.018079f,
    0.003786f, -0.001471f, 0.004462f, 0.057688f, -0.052059f, 0.025440f, 0.027162f, 0.028100f,
    -0.010878f, -0.053627f, 0.000796f, 0.050546f, -0.049636f, -0.004799f, -0.025194f, 0.016272f,
    -0.066338f, 0.002044f, 0.044921f, 0.056573f, -0.222220f, 0.029729f, 0.064288f, -0.191232f,
    0.249457f, 0.268123f, 0.230736f, 0.073991f, 0.131225f, 0.063143f, 0.096178f, 0.095850f,
    -0.055744f, -0.236281f, -0.065006f, -0.061227f, 0.019449f, 0.102722f, 0.065897f, 0.200755f,
    0.073974f, 0.253002f, 0.031539f, -0.007030f, 0.073779f, 0.011481f, 0.137015f, 0.036753f,
    0.161773f, 0.069081f, -0.062796f, 0.080181f, 0.174890f, -0.026169f, 0.037683f, -0.007726f,
    0.104619f, -0.078007f, 0.119524f, 0.201889f, -0.012305f, 0.027781f, 0.068393f, 0.045376f,
    0.090906f, 0.135135f, -0.014804f, -0.097868f, -0.002737f, 0.072237f, -0.041204f, 0.078957f,
    0.043284f, -0.030393f, -0.099543f, -0.232161f, 0.038584f, -0.113288f, 0.013966f, -0.152100f,
    -0.016604f, -0.033040f, 0.110022f, -0.024101f, -0.338888f, 0.124140f, 0.001916f, -0.089909f,
    0.068867f, 0.079536f, -0.008722f, 0.075742f, 0.095062f, -0.046596f, -0.091283f, 0.203136f,
    0.035087f, 0.015052f, -0.170275f, -0.037279f, 0.214368f, -0.370592f, -0.184369f, -0.201981f,
    -0.002846f, 0.108018f, -0.060551f, -0.116034f, -0.149924f, 0.138023f, 0.043467f, -0.208112f,
    0.077765f, 0.032881f, 0.049677f, -0.117871f, 0.047430f, -0.076556f, -0.110393f, -0.301490f,
    -0.082149f, -0.081732f, -0.362331f, 0.070120f, -0.248842f, 0.074273f, 0.055849f, 0.038597f,
    0.171427f, -0.325540f, 0.134573f, -0.065811f, -0.334984f, 0.041946f, -0.200795f, -0.033260f,
    0.134649f, 0.121021f, 0.147973f, -0.048801f, -0.110044f, -0.032405f, -0.085754f, -0.041757f,
    -0.017522f, 0.015720f, -0.026657f, -0.050898f, -0.049622f, -0.009943f, 0.023966f, 0.014989f,
    0.016477f, -0.006397f, -0.028737f, -0.055737f, 0.000513f, -0.053637f, -0.008671f, -0.027489f,
    0.011126f, -0.006046f, 0.048606f, -0.022023f, -0.050275f, -0.003983f, 0.056304f, 0.036486f,
    -0.029740f, -0.026076f, -0.020321f, 0.032836f, 0.058258f, 0.040589f, 0.036273f, 0.003438f,
    -0.036296f, 0.000364f, -0.054644f, 0.056383f, -0.005566f, 0.048345f, -0.001517f, 0.050822f,
    -0.034900f, 0.029229f, -0.030128f, -0.006976f, 0.042993f, -0.048142f, 0.010274f, 0.026265f,
    0.020554f, -0.033359f, 0.005160f, -0.025027f, -0.031392f, -0.045045f, -0.049225f, 0.002917f,
    -0.030929f, 0.056719f, 0.021563f, -0.034611f, -0.016967f, 0.016432f, -0.018151f, -0.042343f,
    -0.006291f, -0.107240f, 0.113123f, 0.211932f, -0.038147f, -0.042893f, 0.079479f, -0.069443f,
    0.091938f, 0.187677f, -0.054058f, -0.035703f, 0.089984f, 0.014242f, -0.227975f, 0.017914f,
    -0.078296f, -0.184579f, 0.144455f, -0.073388f, -0.055422f, 0.072625f, -0.051589f, -0.090771f,
    0.210847f, -0.055880f, 0.136762f, 0.074867f, -0.031226f, -0.050679f, 0.165510f, -0.138875f,
    0.084239f, 0.041762f, -0.085859f, -0.164301f, 0.132874f, -0.084460f, 0.074905f, -0.033850f,
    -0.068634f, 0.141643f, -0.041487f, 0.024317f, -0.106805f, 0.103435f, -0.314383f, 0.052463f,
    0.171408f, 0.119269f, 0.011123f, -0.105578f, -0.173316f, 0.034054f, -0.021525f, -0.156945f,
    -0.084315f, 0.041661f, -0.248347f, 0.083948f, 0.009400f, -0.291866f, 0.054364f, 0.062224f,
    -0.054528f, -0.044766f, 0.065222f, 0.188537f, -0.029869f, 0.036741f, 0.314776f, 0.141440f,
    0.009607f, -0.055234f, 0.076700f, 0.128000f, -0.071185f, -0.026593f, -0.042291f, 0.203081f,
    0.107263f, 0.062302f, -0.054773f, -0.330354f, 0.177256f, -0.194738f, -0.138723f, -0.280506f,
    -0.053505f, 0.022167f, -0.041917f, -0.102484f, 0.093737f, -0.073040f, 0.015468f, -0.138947f,
    0.083139f, 0.086580f, 0.056527f, 0.053491f, 0.043785f, 0.003505f, 0.026589f, 0.050189f,
    0.015230f, 0.015371f, -0.187599f, -0.169633f, 0.023782f, 0.049389f, 0.030223f, -0.112042f,
    -0.053227f, -0.230799f, 0.040734f, 0.088682f, -0.102057f, 0.057294f, -0.088768f, -0.011100f,
    -0.225085f, -0.094671f, 0.149712f, -0.049174f, -0.151938f, -0.207945f, 0.348001f, -0.116617f,
    0.010775f, -0.055647f, 0.038190f, 0.022108f, 0.032244f, -0.032503f, -0.006389f, -0.054599f,
    0.004471f, -0.031606f, 0.048632f, -0.044509f, 0.030977f, 0.055260f, 0.005415f, 0.058018f,
    -0.036107f, 0.040954f, -0.006498f, 0.044347f, 0.017940f, 0.024273f, 0.002156f, -0.034498f,
    -0.054277f, 0.050143f, -0.026146f, 0.020925f, 0.002671f, 0.050573f, 0.002726f, -0.040040f,
    0.017807f, 0.021589f, 0.027980f, -0.015910f, 0.006367f, -0.024850f, 0.032603f, 0.027446f,
    0.026110f, -0.051023f, 0.035166f, -0.023768f, 0.045616f, -0.035222f, 0.047152f, -0.043886f,
    0.010456f, -0.054455f, 0.004887f, 0.036369f, -0.031046f, 0.018400f, 0.029979f, -0.045237f,
    0.005876f, -0.037129f, 0.047912f, -0.046714f, -0.015267f, -0.037164f, -0.018783f, -0.013911f,
    -0.010032f, 0.051790f, 0.015635f, 0.022715f, 0.056084f, 0.027613f, -0.055908f, 0.006785f,
    0.003808f, 0.054074f, 0.022253f, 0.051267f, 0.045864f, -0.007436f, -0.051301f, -0.047504f,
    -0.053822f, -0.023733f, 0.049532f, -0.006019f, -0.032760f, -0.022426f, -0.020114f, -0.046177f,
    -0.058085f, -0.048236f, 0.030229f, 0.056795f, 0.049869f, -0.040089f, -0.013046f, -0.022483f,
    -0.015671f, 0.026443f, 0.041889f, -0.003227f, -0.018206f, -0.043681f, 0.052894f, -0.039740f,
    -0.017459f, -0.054373f, -0.004347f, -0.040419f, -0.016459f, -0.043097f, -0.037814f, -0.000735f,
    0.006233f, 0.033947f, 0.047432f, -0.023728f, -0.006059f, -0.019390f, 0.037028f, -0.050287f,
    -0.046358f, -0.046723f, -0.008571f, -0.018915f, -0.033443f, 0.026488f, 0.028401f, -0.023483f,
    -0.044193f, 0.034663f, -0.033269f, 0.010775f, 0.033252f, -0.001419f, 0.031050f, -0.007275f,
    0.024228f, 0.045680f, 0.024069f, -0.024240f, -0.043472f, -0.006419f, -0.023410f, 0.020926f,
    -0.002392f, 0.041676f, -0.022512f, 0.029336f, 0.006924f, -0.051950f, 0.052054f, -0.025836f,
    0.055653f, -0.019859f, -0.023766f, -0.015020f, 0.008638f, 0.018654f, -0.043581f, 0.007682f,
    -0.027523f, -0.010507f, -0.013104f, -0.006519f, -0.028563f, 0.049166f, -0.036133f, 0.033322f,
    -0.054378f, -0.052615f, -0.021839f, 0.044135f, -0.055789f, 0.038583f, 0.056759f, -0.034299f,
    -0.050033f, 0.008012f, -0.013619f, -0.030747f, -0.003098f, -0.017943f, 0.004222f, -0.023114f,
    0.052181f, 0.056417f, -0.017664f, 0.027238f, 0.046049f, -0.043304f, 0.055860f, 0.036977f,
    -0.039710f, -0.015814f, 0.058580f, -0.055645f, 0.029487f, -0.053836f, -0.005179f, -0.039927f,
    -0.050826f, 0.053359f, 0.026394f, -0.023768f, -0.057099f, 0.016820f, -0.051566f, 0.022723f,
    -0.047707f, 0.047778f, -0.041102f, -0.031441f, -0.036161f, 0.023544f, -0.025718f, -0.002715f,
    0.015148f, 0.049855f, -0.012874f, 0.041731f, 0.010273f, 0.036989f, 0.012901f, 0.003522f,
    -0.018829f, -0.053168f, -0.037993f, -0.041588f, 0.053681f, 0.037978f, -0.029737f, 0.044949f,
    -0.007574f, -0.039968f, -0.014520f, 0.056927f, 0.025614f, 0.002759f, -0.056310f, -0.025800f,
    -0.052583f, 0.046460f, 0.017462f, -0.053528f, -0.048079f, 0.057149f, 0.000319f, 0.037569f,
    0.049770f, -0.006904f, -0.008942f, -0.015175f, -0.041545f, 0.041490f, -0.058872f, 0.053428f,
    -0.095419f, 0.122056f, 0.093764f, -0.115040f, 0.223243f, -0.094486f, 0.007799f, -0.044416f,
    -0.020054f, 0.096957f, 0.097063f, 0.031060f, -0.001116f, 0.056443f, -0.214651f, -0.092605f,
    0.069250f, 0.025822f, 0.021568f, -0.059697f, 0.029001f, -0.249607f, -0.044041f, 0.005162f,
    -0.074106f, 0.193828f, -0.033652f, 0.059273f, 0.002186f, 0.056128f, -0.014640f, -0.097338f,
    0.165126f, 0.147153f, 0.239246f, 0.037941f, -0.072409f, 0.079216f, 0.057035f, 0.080807f,
    0.075720f, -0.145113f, -0.099012f, 0.031282f, 0.044464f, -0.178738f, 0.048082f, -0.020949f,
    0.116721f, 0.021058f, -0.186999f, -0.089101f, -0.079630f, -0.115407f, 0.057579f, -0.034970f,
    0.036667f, 0.062997f, -0.119359f, -0.230239f, -0.153060f, -0.151790f, 0.217887f, 0.005823f,
    0.153898f, -0.089328f, 0.015813f, 0.249324f, -0.109133f, 0.190104f, -0.071558f, 0.026107f,
    0.072561f, -0.030074f, -0.086194f, 0.031684f, 0.104021f, 0.055332f, 0.023236f, 0.072205f,
    -0.006066f, -0.159160f, -0.153567f, 0.196926f, 0.000929f, -0.024073f, -0.100981f, 0.115042f,
    -0.084349f, 0.045066f, 0.226565f, -0.267960f, 0.095694f, 0.118884f, 0.055866f, 0.007344f,
    -0.201424f, -0.088652f, -0.052016f, -0.113486f, 0.112258f, -0.042770f, -0.125384f, 0.023775f,
    -0.180614f, 0.312738f, 0.132322f, -0.064120f, -0.030526f, -0.037666f, -0.048508f, 0.087522f,
    0.013010f, 0.120702f, 0.036115f, -0.194192f, 0.073961f, -0.222781f, 0.140310f, 0.061736f,
    0.115283f, -0.054930f, 0.226728f, -0.029024f, 0.033068f, 0.040687f, -0.087438f, -0.029450f,
    0.051085f, 0.015365f, -0.000680f, -0.002169f, 0.057811f, -0.005442f, -0.012451f, 0.023678f,
    -0.044346f, -0.023371f, 0.019139f, 0.010519f, -0.018117f, -0.012835f, 0.049106f, -0.001929f,
    0.013093f, 0.005701f, -0.056760f, 0.035711f, 0.011272f, 0.054940f, 0.040614f, -0.053286f,
    -0.001463f, -0.007747f, 0.044159f, 0.002400f, -0.055830f, -0.030012f, -0.031305f, -0.013445f,
    -0.055586f, 0.053206f, 0.035157f, 0.053737f, -0.006211f, -0.050022f, -0.031482f, 0.008120f,
    0.000485f, 0.009878f, 0.029941f, -0.022274f, 0.051788f, -0.021281f, -0.024494f, 0.047042f,
    -0.019170f, -0.049463f, 0.002398f, -0.055381f, -0.005696f, -0.002814f, -0.026247f, -0.038311f,
    -0.009542f, -0.041108f, 0.057967f, -0.001884f, -0.014526f, -0.039530f, -0.026385f, -0.018297f,
    0.111535f, -0.012834f, 0.024927f, -0.086716f, 0.106241f, -0.145447f, -0.028258f, -0.012499f,
    0.035505f, 0.106280f, -0.100769f, 0.099970f, 0.108447f, -0.091328f, -0.096881f, 0.017188f,
    0.055787f, 0.097189f, -0.014673f, -0.250535f, 0.037973f, -0.089410f, -0.099909f, -0.163163f,
    0.169502f, 0.152936f, -0.089367f, -0.220829f, -0.009266f, 0.000190f, -0.042149f, -0.271607f,
    0.256107f, -0.050365f, -0.003152f, 0.027380f, 0.032178f, -0.049428f, -0.081664f, 0.021029f,
    -0.022083f, -0.001822f, -0.197034f, -0.003502f, 0.071539f, -0.002712f, 0.016238f, -0.048115f,
    0.160643f, -0.013092f, -0.275341f, 0.063650f, -0.029467f, 0.092969f, -0.037426f, -0.354558f,
    0.048698f, 0.095320f, -0.094039f, -0.029677f, 0.112847f, -0.079199f, 0.236300f, 0.015940f,
    0.197365f, -0.243496f, 0.005612f, -0.155836f, -0.114616f, 0.157912f, -0.120916f, -0.358053f,
    -0.212164f, -0.044139f, -0.138993f, 0.268854f, 0.362740f, 0.081854f, -0.106435f, 0.050235f,
    0.038114f, -0.180692f, -0.093018f, -0.195778f, 0.099913f, 0.000034f, -0.012138f, 0.058204f,
    0.005042f, 0.359144f, 0.011911f, -0.077943f, 0.174669f, 0.107964f, 0.091680f, 0.048369f,
    -0.088734f, -0.109022f, -0.472880f, -0.225154f, 0.075143f, 0.214581f, -0.043037f, 0.015872f,
    -0.038364f, 0.113206f, 0.093412f, -0.012748f, -0.104503f, -0.018479f, 0.024900f, 0.129934f,
    0.093545f, 0.018161f, 0.127505f, -0.236186f, 0.213158f, 0.059474f, -0.075519f, 0.112702f,
    0.031978f, -0.106184f, 0.155120f, -0.107335f, -0.070880f, -0.075366f, 0.092371f, -0.349321f,
    0.013728f, -0.028434f, 0.039570f, -0.042770f, -0.027967f, 0.042637f, 0.018621f, 0.001698f,
    -0.027012f, 0.021259f, -0.055130f, 0.013218f, 0.016560f, 0.017066f, 0.024477f, -0.052529f,
    -0.040793f, 0.009699f, -0.006394f, 0.028725f, 0.058615f, 0.002817f, -0.058010f, 0.058717f,
    0.058200f, -0.047987f, -0.010146f, -0.018446f, -0.032334f, 0.049760f, -0.008290f, -0.006876f,
    -0.051399f, 0.042542f, -0.010410f, -0.038011f, -0.001224f, -0.028649f, -0.023408f, -0.035345f,
    -0.057643f, 0.049356f, -0.031456f, 0.002015f, -0.005476f, 0.021506f, -0.009109f, 0.041841f,
    0.057628f, -0.040802f, -0.022921f, -0.030748f, 0.022181f, -0.015112f, -0.001520f, -0.006299f,
    -0.019959f, 0.013873f, -0.027254f, 0.029333f, -0.056548f, 0.056088f, 0.055984f, 0.045419f,
    -0.013524f, -0.016482f, 0.027112f, 0.023353f, 0.021709f, -0.054850f, 0.056315f, 0.015177f,
    0.027624f, 0.008022f, 0.002229f, 0.022962f, 0.009743f, -0.049675f, -0.000133f, -0.009275f,
    -0.042223f, -0.024270f, 0.013830f, -0.022628f, 0.012028f, -0.017478f, -0.001239f, 0.005588f,
    -0.052011f, -0.011896f, 0.007122f, 0.045905f, 0.003116f, -0.057643f, 0.025391f, -0.027218f,
    -0.016490f, 0.017161f, -0.034121f, 0.044447f, -0.015889f, -0.023378f, -0.045600f, -0.007396f,
    0.025835f, -0.026935f, 0.019677f, -0.012700f, -0.053093f, -0.006145f, 0.031433f, 0.017197f,
    -0.049932f, -0.011494f, 0.011779f, 0.056872f, 0.046116f, 0.050774f, -0.025802f, 0.011843f,
    -0.005779f, -0.036118f, 0.033913f, 0.020531f, 0.015818f, -0.033659f, -0.040706f, 0.020825f,
    -0.038034f, -0.045618f, 0.026037f, 0.036901f, 0.050002f, -0.040146f, -0.033535f, -0.020746f,
    -0.042745f, 0.016979f, 0.044738f, -0.046064f, 0.055205f, -0.014473f, 0.016141f, -0.038793f,
    -0.006631f, -0.035674f, 0.042211f, 0.057353f, -0.016136f, -0.014934f, -0.016845f, -0.007552f,
    0.009956f, -0.041861f, -0.052767f, -0.046228f, 0.057940f, -0.034644f, -0.041866f, 0.055254f,
    0.030529f, -0.038757f, -0.020473f, 0.035624f, -0.025709f, 0.025435f, 0.053356f, -0.055438f,
    0.054289f, -0.051580f, 0.042783f, -0.055036f, -0.042874f, 0.014484f, 0.038585f, 0.003540f,
    0.019146f, 0.038693f, 0.024443f, -0.049693f, -0.038152f, 0.035538f, -0.013903f, -0.024907f,
    0.004473f, 0.030994f, -0.056998f, -0.056641f, -0.033177f, 0.013662f, 0.015019f, -0.005028f,
    -0.000918f, 0.007783f, 0.004769f, 0.005508f, -0.025965f, -0.019107f, -0.027885f, -0.048419f,
    -0.058336f, -0.024895f, 0.022798f, -0.048302f, -0.046813f, 0.032779f, 0.000992f, -0.038547f,
    0.054309f, 0.055647f, 0.022427f, -0.044597f, 0.037799f, -0.057515f, 0.047490f, 0.040080f,
    -0.010963f, -0.036855f, -0.009433f, -0.031576f, -0.048194f, -0.041328f, -0.000982f, 0.052696f,
    0.003089f, -0.036187f, 0.038709f, 0.030465f, 0.020956f, 0.048656f, 0.018218f, -0.016446f,
    0.036800f, -0.027680f, 0.024924f, -0.005727f, 0.008019f, 0.011079f, 0.031635f, 0.044220f,
    0.042231f, 0.057449f, 0.015015f, 0.052355f, 0.001921f, 0.011465f, -0.050835f, -0.044238f,
    -0.023938f, -0.001960f, 0.004501f, -0.019499f, 0.038286f, 0.029063f, 0.012258f, 0.044137f,
    0.023077f, 0.115224f, -0.016210f, 0.036581f, 0.179361f, -0.107738f, 0.110471f, 0.128755f,
    -0.070277f, -0.031584f, -0.096773f, 0.064900f, -0.041918f, 0.222059f, -0.056313f, 0.097874f,
    0.076274f, -0.160483f, -0.064827f, -0.071373f, 0.097824f, 0.155805f, -0.103313f, -0.104464f,
    0.102458f, 0.035454f, -0.023359f, -0.175837f, 0.012524f, 0.165604f, -0.149082f, 0.010032f,
    0.117572f, -0.031240f, -0.024968f, 0.205780f, 0.181249f, 0.039717f, -0.009662f, -0.401018f,
    0.093123f, 0.108687f, 0.120727f, -0.018431f, -0.044106f, 0.164490f, -0.126015f, -0.023901f,
    -0.119884f, 0.008802f, -0.383564f, -0.253069f, 0.147615f, -0.152055f, -0.144520f, 0.120527f,
    -0.055660f, 0.094486f, -0.047044f, -0.048138f, 0.156124f, -0.040664f, -0.030053f, -0.140109f,
    -0.080328f, 0.057086f, 0.110677f, 0.113960f, 0.089606f, 0.071671f, -0.183765f, 0.035947f,
    0.226415f, 0.191106f, -0.033545f, -0.112278f, -0.166756f, 0.021448f, 0.038797f, -0.111805f,
    0.208297f, 0.127696f, 0.147308f, -0.061930f, 0.025963f, -0.066643f, -0.102606f, -0.165009f,
    0.031440f, -0.094638f, -0.127591f, -0.022704f, -0.033661f, -0.205177f, 0.154223f, -0.137809f,
    -0.191291f, 0.047798f, 0.163882f, 0.070263f, 0.053139f, -0.154910f, -0.305009f, 0.016433f,
    0.104661f, -0.142996f, 0.041122f, -0.288910f, -0.044645f, -0.162198f, 0.240464f, -0.049601f,
    -0.004067f, 0.012428f, 0.080648f, 0.116023f, -0.003611f, -0.224602f, 0.036054f, 0.143811f,
    -0.082190f, -0.196649f, 0.091229f, -0.224792f, -0.024105f, 0.228397f, -0.112430f, 0.214844f,
    0.045099f, -0.006081f, 0.055546f, -0.010827f, -0.047761f, -0.004968f, -0.041661f, -0.051334f,
    -0.019329f, -0.018918f, 0.052860f, -0.033886f, 0.036647f, -0.056310f, -0.033647f, -0.031817f,
    0.008384f, -0.026597f, -0.011035f, -0.022231f, 0.013069f, 0.056450f, 0.052932f, -0.012013f,
    -0.013312f, -0.038319f, -0.004692f, 0.012009f, -0.011889f, 0.018519f, 0.058907f, 0.032120f,
    0.017656f, 0.041419f, 0.015770f, 0.014785f, 0.058312f, -0.025718f, -0.006080f, -0.022804f,
    -0.044089f, -0.028407f, 0.058114f, -0.055365f, -0.031290f, -0.033210f, 0.038918f, -0.032757f,
    -0.043917f, 0.033662f, -0.058610f, 0.056619f, 0.026229f, 0.029479f, -0.053733f, -0.037772f,
    -0.048278f, -0.004365f, 0.009442f, 0.052888f, 0.002462f, 0.039740f, -0.005883f, -0.011112f,
    0.211938f, 0.054188f, -0.329376f, -0.259193f, -0.014724f, -0.077431f, 0.232633f, 0.116445f,
    -0.339906f, 0.049406f, -0.184406f, -0.004595f, 0.394308f, 0.087044f, 0.044945f, -0.023012f,
    0.039038f, -0.010742f, -0.194640f, 0.005987f, 0.158699f, 0.120444f, -0.166179f, -0.139761f,
    0.061716f, 0.029415f, -0.066672f, -0.128602f, 0.234972f, 0.137548f, -0.019775f, -0.041034f,
    0.057910f, -0.059191f, 0.055169f, -0.130938f, -0.111846f, 0.046189f, 0.072129f, -0.408056f,
    0.192263f, 0.161809f, -0.061216f, -0.110823f, -0.169883f, 0.131701f, 0.008985f, -0.168005f,
    -0.175788f, 0.007921f, -0.234453f, -0.054456f, 0.146149f, 0.002495f, 0.004916f, -0.039647f,
    0.157535f, -0.031134f, -0.052523f, -0.223189f, 0.142243f, 0.010905f, 0.012294f, -0.188677f,
    -0.183496f, 0.008171f, -0.119430f, 0.132876f, 0.208293f, 0.127191f, -0.018050f, 0.025512f,
    0.010952f, 0.150585f, 0.054338f, -0.019977f, -0.032377f, -0.009032f, -0.049147f, -0.053266f,
    -0.122056f, 0.024111f, -0.086634f, -0.380724f, -0.046066f, 0.050021f, -0.137291f, -0.087130f,
    0.184234f, 0.092615f, -0.014553f, 0.230882f, 0.037358f, -0.149613f, 0.090804f, -0.116021f,
    -0.139803f, 0.103592f, -0.145610f, 0.039585f, 0.098558f, -0.075378f, -0.350336f, 0.094424f,
    0.140699f, -0.296798f, 0.090543f, -0.078531f, 0.088360f, 0.008081f, 0.228844f, -0.048106f,
    0.080151f, -0.126314f, 0.081305f, 0.093575f, 0.017087f, 0.073200f, 0.187504f, -0.246923f,
    -0.015259f, -0.063354f, 0.092953f, -0.095111f, -0.114338f, 0.167075f, 0.006758f, 0.172216f,
    0.038912f, -0.044733f, -0.005668f, 0.006559f, 0.040850f, -0.053851f, -0.043202f, 0.048712f,
    -0.014548f, 0.053594f, 0.005233f, -0.003118f, 0.035700f, 0.007983f, 0.055635f, 0.002238f,
    0.025753f, -0.011742f, 0.020416f, 0.021396f, -0.013912f, 0.026950f, 0.011363f, 0.057424f,
    -0.052129f, 0.052677f, -0.001513f, 0.051829f, 0.035477f, 0.019405f, -0.054283f, 0.034427f,
    -0.006397f, -0.057464f, 0.010223f, 0.021035f, -0.049867f, 0.019826f, 0.025613f, 0.057590f,
    0.056687f, 0.028494f, -0.034425f, 0.044503f, -0.044277f, -0.017592f, 0.007464f, -0.052111f,
    -0.055438f, -0.008538f, 0.040516f, -0.053779f, -0.029982f, 0.002851f, 0.020200f, -0.038510f,
    0.042927f, -0.035591f, 0.018407f, -0.046273f, 0.028618f, 0.058918f, -0.052039f, 0.002278f,
    0.037891f, -0.055520f, -0.042712f, -0.029888f, 0.013449f, 0.039863f, 0.014915f, 0.025569f,
    0.038260f, 0.057171f, 0.035399f, 0.032550f, -0.037353f, 0.057364f, -0.044458f, 0.022261f,
    0.037739f, 0.015617f, 0.009224f, 0.004543f, -0.045942f, -0.013695f, -0.002758f, -0.007093f,
    -0.054036f, 0.043901f, -0.017455f, -0.055759f, 0.058153f, -0.035628f, 0.023259f, -0.006494f,
    -0.037941f, 0.021298f, -0.055523f, 0.038332f, -0.045290f, -0.031367f, 0.050347f, 0.034230f,
    0.058864f, -0.046242f, -0.000250f, -0.036527f, -0.002302f, 0.010213f, 0.051677f, 0.053973f,
    0.016793f, -0.032126f, 0.021799f, 0.026818f, -0.033380f, 0.020289f, -0.058324f, -0.051283f,
    0.030815f, 0.034074f, -0.031471f, -0.053255f, 0.054442f, 0.026826f, 0.057743f, -0.057610f,
    -0.044570f, -0.010944f, 0.014101f, -0.039179f, 0.056171f, -0.021732f, 0.015745f, 0.041110f,
    -0.003804f, -0.020135f, 0.007349f, -0.049972f, 0.003249f, -0.011589f, -0.013407f, -0.047607f,
    0.033484f, 0.003842f, 0.010839f, -0.001794f, 0.048619f, 0.037087f, -0.042747f, 0.007467f,
    -0.011069f, -0.057499f, -0.000925f, 0.051680f, 0.025282f, 0.013524f, 0.009215f, 0.044481f,
    -0.047623f, 0.024971f, -0.057836f, -0.032492f, 0.036499f, -0.017829f, -0.021837f, 0.057029f,
    0.032734f, -0.009771f, -0.036356f, -0.032015f, -0.017509f, 0.009261f, 0.025239f, 0.043161f,
    0.032219f, -0.037660f, -0.053488f, -0.022949f, 0.035656f, 0.021316f, 0.055820f, 0.042722f,
    0.046575f, -0.026252f, -0.041272f, -0.056829f, -0.000649f, 0.015772f, -0.002591f, -0.047125f,
    -0.014993f, 0.031868f, 0.022690f, -0.009835f, -0.045206f, -0.011622f, -0.033413f, -0.004459f,
    -0.008356f, 0.018109f, 0.039266f, -0.047360f, 0.034771f, 0.023130f, -0.047983f, 0.058451f,
    0.055517f, 0.025640f, -0.003910f, -0.001032f, 0.000759f, -0.036679f, 0.012529f, -0.041210f,
    0.008633f, -0.000297f, 0.020445f, -0.019998f, -0.040187f, -0.028070f, 0.044684f, -0.012403f,
    0.009313f, 0.000129f, -0.013662f, -0.046189f, 0.019725f, 0.056587f, -0.053490f, 0.030133f,
    -0.009061f, -0.027680f, -0.057087f, 0.026318f, 0.043647f, -0.005465f, -0.021801f, -0.053282f,
    -0.043029f, 0.004798f, 0.012511f, 0.027453f, -0.005801f, -0.043651f, -0.051224f, -0.021900f,
    -0.005849f, -0.004478f, 0.008268f, 0.007995f, 0.031098f, -0.054502f, -0.002965f, 0.011201f,
    0.122253f, -0.016212f, 0.105800f, -0.057541f, -0.028747f, -0.169747f, 0.067720f, 0.001021f,
    0.273503f, 0.196379f, -0.032895f, -0.057259f, -0.103130f, 0.099268f, 0.108201f, -0.081638f,
    0.061219f, -0.112309f, 0.139612f, 0.084342f, -0.009411f, 0.025977f, -0.096055f, 0.156604f,
    -0.069496f, 0.267277f, 0.052678f, 0.015914f, 0.080685f, 0.029537f, 0.016058f, -0.000008f,
    0.002491f, -0.206832f, -0.006564f, 0.124853f, 0.049431f, -0.233624f, 0.185819f, 0.152153f,
    -0.063723f, -0.122720f, -0.273457f, 0.103670f, 0.125162f, -0.257964f, -0.005548f, -0.226644f,
    -0.087849f, 0.074482f, -0.043814f, -0.049938f, 0.007806f, -0.001195f, 0.070212f, 0.030630f,
    -0.345546f, 0.040399f, -0.032887f, 0.259840f, 0.000020f, -0.095673f, -0.064024f, 0.004321f,
    0.055837f, 0.182204f, -0.172752f, 0.035020f, -0.023454f, -0.010277f, -0.056339f, -0.048491f,
    -0.059462f, -0.222161f, -0.133889f, 0.038042f, 0.053256f, -0.145497f, -0.205704f, -0.153095f,
    0.036576f, 0.141954f, -0.074166f, 0.056679f, -0.092521f, -0.065547f, -0.181294f, 0.037791f,
    0.096261f, 0.084080f, -0.113955f, -0.202488f, -0.117395f, 0.061833f, 0.032352f, 0.142899f,
    0.140327f, 0.082408f, -0.111468f, -0.201841f, -0.017077f, -0.059197f, 0.139141f, -0.011646f,
    0.100055f, 0.125657f, 0.204467f, -0.190526f, -0.034286f, 0.069566f, -0.169755f, -0.148009f,
    0.086661f, 0.032181f, -0.197477f, 0.038064f, -0.154653f, 0.103732f, 0.239149f, -0.231305f,
    0.117481f, -0.166970f, 0.186919f, 0.080533f, -0.211900f, 0.056383f, 0.000840f, 0.066363f,
    0.002355f, 0.058438f, 0.027432f, -0.029739f, -0.058384f, -0.003480f, -0.055786f, -0.033706f,
    -0.000983f, 0.057353f, -0.011929f, -0.031077f, -0.047887f, 0.055813f, -0.037579f, -0.058657f,
    0.050594f, 0.023195f, 0.058201f, 0.038835f, -0.012541f, -0.055733f, -0.004733f, -0.017011f,
    0.036536f, -0.024339f, 0.033134f, -0.050387f, 0.052920f, 0.005796f, -0.010008f, -0.022545f,
    -0.050278f, -0.025868f, -0.022677f, -0.014465f, -0.022592f, -0.024051f, 0.046517f, 0.021693f,
    -0.040411f, 0.004984f, 0.022173f, 0.025311f, -0.006797f, -0.057246f, 0.010244f, -0.040472f,
    0.052875f, 0.044632f, -0.044110f, 0.010010f, -0.054171f, -0.002666f, -0.045013f, 0.051259f,
    -0.005381f, 0.014382f, 0.054271f, -0.023905f, 0.047942f, -0.002364f, 0.053471f, -0.011767f,
    0.214112f, 0.071114f, 0.088697f, 0.135452f, -0.085084f, -0.045449f, 0.006183f, -0.172520f,
    -0.025000f, 0.056918f, 0.161694f, -0.047004f, 0.063322f, 0.097553f, -0.040527f, -0.390162f,
    0.081744f, 0.056862f, 0.092042f, 0.118179f, -0.082942f, 0.116029f, -0.019634f, 0.224417f,
    -0.201803f, -0.012786f, 0.079508f, 0.093687f, 0.185534f, 0.112967f, 0.013399f, -0.069423f,
    0.087566f, -0.236561f, 0.056794f, 0.074258f, 0.151285f, -0.124556f, 0.148126f, 0.045860f,
    0.067445f, -0.088713f, 0.002967f, -0.157464f, -0.012483f, 0.130581f, -0.163374f, 0.022165f,
    -0.017217f, 0.208859f, -0.154761f, -0.106135f, 0.184334f, 0.180002f, 0.004495f, 0.198775f,
    -0.245682f, 0.062722f, -0.045709f, 0.206882f, -0.037578f, -0.315000f, -0.123379f, 0.169584f,
    0.004803f, 0.107735f, -0.107305f, 0.032154f, -0.210333f, 0.067371f, -0.073377f, -0.049895f,
    0.087118f, -0.007321f, 0.004469f, -0.014819f, 0.148407f, 0.014148f, -0.257471f, 0.068135f,
    0.031852f, 0.034928f, -0.019495f, -0.348764f, 0.187397f, -0.178046f, -0.117271f, 0.028005f,
    -0.063994f, -0.140615f, -0.091299f, -0.102205f, 0.055502f, -0.097978f, -0.230116f, 0.117802f,
    0.226384f, 0.028982f, -0.107448f, -0.017260f, -0.066195f, -0.118257f, 0.009389f, 0.005155f,
    -0.046017f, -0.122052f, 0.200183f, -0.012661f, 0.055189f, -0.061999f, -0.122361f, -0.079267f,
    0.038990f, 0.037755f, -0.177260f, -0.096088f, 0.068015f, 0.060963f, 0.325082f, -0.398068f,
    0.124433f, -0.053309f, 0.094438f, 0.107209f, -0.103446f, 0.157213f, 0.142738f, 0.108209f,
    -0.019367f, 0.019524f, -0.039297f, 0.038843f, -0.039957f, 0.051317f, -0.001339f, -0.017584f,
    0.032689f, -0.037944f, -0.029774f, 0.028800f, 0.006599f, -0.005702f, -0.052994f, 0.040549f,
    0.034954f, -0.019670f, 0.031993f, -0.036290f, 0.002862f, 0.031557f, 0.057747f, 0.045401f,
    0.009291f, -0.021349f, 0.041661f, 0.014645f, 0.016043f, 0.031124f, -0.040239f, 0.023588f,
    0.025307f, 0.049322f, 0.053429f, -0.001146f, -0.033629f, 0.020305f, 0.013064f, 0.023837f,
    0.000298f, 0.003783f, 0.026398f, -0.020323f, -0.041007f, 0.036126f, -0.014075f, 0.008261f,
    -0.039068f, 0.034935f, -0.019961f, -0.050131f, -0.054494f, 0.039535f, 0.047060f, 0.029458f,
    -0.029774f, 0.005650f, -0.028019f, 0.041419f, -0.004126f, -0.029603f, -0.006949f, -0.038278f,
    0.057077f, -0.038424f, 0.041586f, 0.011246f, 0.049434f, 0.001747f, 0.014626f, -0.013203f,
    0.054648f, -0.028101f, 0.056741f, 0.033500f, -0.045462f, 0.015282f, 0.031742f, -0.035731f,
    0.040819f, 0.048715f, 0.007510f, -0.007186f, -0.020281f, -0.049105f, 0.018459f, 0.034522f,
    -0.017806f, 0.018370f, 0.051295f, -0.012637f, 0.026087f, -0.026609f, -0.045001f, -0.010966f,
    -0.033875f, -0.008374f, -0.011138f, -0.020063f, 0.049293f, -0.008741f, 0.052451f, -0.019454f,
    -0.013817f, -0.022137f, 0.029602f, 0.054396f, 0.004303f, 0.048651f, -0.016983f, -0.016892f,
    -0.038290f, 0.025940f, 0.030113f, -0.018269f, -0.039372f, 0.004715f, -0.043047f, 0.026936f,
    -0.000392f, -0.050255f, -0.001261f, -0.041076f, 0.011522f, 0.027811f, 0.028736f, -0.016578f,
    -0.058126f, 0.026292f, -0.056157f, -0.045834f, -0.019538f, -0.048297f, 0.030674f, 0.045059f,
    0.008302f, 0.009174f, -0.009534f, -0.031534f, -0.058042f, -0.030549f, -0.020984f, 0.010681f,
    -0.053598f, 0.045177f, -0.004671f, 0.058455f, -0.017376f, -0.045014f, -0.031021f, 0.058126f,
    0.037423f, -0.053528f, 0.013115f, 0.040014f, 0.048613f, 0.049636f, 0.035755f, 0.022368f,
    0.036679f, -0.057266f, 0.039709f, -0.045079f, 0.048454f, -0.033233f, 0.033704f, -0.027186f,
    0.000236f, -0.026332f, -0.006695f, 0.008245f, -0.052315f, -0.032693f, 0.033604f, -0.057955f,
    0.017893f, -0.039732f, -0.034181f, 0.041337f, 0.023263f, -0.039888f, 0.025814f, 0.053377f,
    0.039693f, 0.016091f, 0.009017f, -0.012331f, 0.027758f, -0.021435f, -0.045471f, -0.023500f,
    -0.027547f, -0.007707f, -0.004432f, 0.007828f, 0.042686f, -0.015076f, -0.024514f, 0.027550f,
    0.051420f, -0.032250f, -0.036544f, -0.004750f, -0.048174f, -0.041549f, -0.028071f, 0.011611f,
    -0.042656f, -0.030996f, 0.024214f, 0.031701f, -0.016096f, 0.039615f, -0.052178f, 0.028139f,
    -0.007999f, 0.000153f, -0.048556f, -0.051651f, 0.029160f, -0.024956f, -0.046268f, 0.017781f,
    0.030922f, 0.047932f, -0.038260f, 0.030369f, -0.021846f, -0.042196f, 0.047157f, 0.027870f,
    0.032757f, -0.052090f, -0.035154f, -0.026139f, -0.006326f, 0.039201f, 0.037898f, 0.053559f,
    0.027020f, 0.025166f, 0.030592f, 0.044004f, -0.001823f, 0.055863f, -0.011633f, -0.034831f,
    0.055100f, -0.004363f, 0.004855f, -0.018944f, -0.057245f, -0.057400f, -0.048001f, -0.044195f,
    0.116321f, 0.203679f, -0.136562f, 0.075499f, 0.052159f, 0.137000f, -0.022770f, -0.200273f,
    0.120444f, -0.060229f, -0.075914f, -0.032267f, 0.097753f, -0.112451f, 0.122656f, -0.082456f,
    0.272146f, 0.150966f, -0.144800f, -0.284198f, 0.054076f, 0.081489f, 0.134436f, -0.120343f,
    -0.025274f, -0.018967f, 0.207774f, 0.211554f, -0.044399f, -0.138361f, 0.127457f, 0.002306f,
    0.162442f, -0.017497f, 0.153064f, -0.077547f, -0.094042f, 0.077920f, 0.094824f, -0.024543f,
    -0.063912f, -0.186582f, -0.110329f, -0.039697f, -0.082563f, -0.061663f, 0.150218f, -0.280967f,
    0.273937f, -0.134281f, -0.097435f, -0.022827f, -0.020531f, 0.137429f, 0.095448f, 0.076013f,
    -0.079333f, -0.061800f, -0.263159f, 0.218966f, 0.024581f, -0.328634f, 0.072344f, -0.104299f,
    0.023975f, 0.133333f, -0.049634f, 0.152406f, -0.161441f, 0.110627f, 0.012004f, -0.034528f,
    0.185763f, 0.247293f, -0.185641f, -0.075847f, 0.045656f, -0.097575f, -0.102062f, 0.071415f,
    0.107257f, 0.122315f, 0.077827f, 0.315892f, -0.020353f, -0.059511f, -0.170712f, 0.059693f,
    0.049793f, -0.141684f, -0.005717f, -0.106911f, 0.396688f, -0.170811f, -0.058441f, 0.232305f,
    0.167961f, 0.087072f, -0.083656f, 0.140610f, -0.169512f, 0.132653f, -0.078569f, -0.307699f,
    -0.098835f, -0.180501f, 0.258244f, 0.011424f, 0.012652f, -0.016634f, -0.034960f, 0.049522f,
    -0.111063f, -0.250424f, -0.069569f, -0.155108f, -0.019170f, 0.011398f, 0.097992f, -0.221219f,
    0.170274f, -0.009889f, 0.039681f, -0.104989f, -0.043386f, 0.204100f, -0.030952f, 0.030275f,
    0.049002f, -0.009037f, 0.040630f, -0.028093f, -0.021859f, -0.036313f, 0.058206f, -0.010947f,
    -0.016662f, 0.007676f, 0.030082f, 0.003527f, -0.032650f, 0.052647f, 0.017340f, 0.014144f,
    -0.004017f, -0.033296f, -0.000376f, -0.042508f, -0.006170f, -0.005716f, 0.005835f, 0.043852f,
    -0.013066f, 0.047221f, -0.040738f, 0.024384f, -0.015010f, 0.047501f, 0.010784f, -0.008375f,
    -0.018249f, -0.000151f, -0.052086f, -0.040735f, -0.042387f, 0.050885f, 0.048850f, 0.038948f,
    -0.007257f, -0.035871f, 0.018664f, 0.020786f, 0.028853f, 0.048470f, 0.033220f, 0.031404f,
    -0.049882f, -0.018487f, -0.030960f, 0.000203f, -0.007126f, -0.016236f, 0.057915f, 0.029162f,
    0.031156f, -0.054572f, -0.005208f, -0.037581f, -0.039174f, 0.056659f, -0.021784f, -0.034051f,
    -0.135851f, -0.230187f, 0.004055f, 0.025682f, -0.077552f, -0.175207f, -0.124098f, 0.070439f,
    0.021017f, 0.071335f, 0.181131f, -0.049499f, -0.063460f, 0.161380f, -0.297918f, -0.016783f,
    0.125965f, -0.093872f, -0.025787f, 0.099674f, 0.100496f, 0.073067f, -0.018599f, -0.257666f,
    -0.155395f, 0.128894f, 0.110812f, 0.140889f, 0.007566f, 0.025389f, 0.004925f, 0.027479f,
    0.269777f, 0.090618f, -0.113725f, 0.112429f, -0.073608f, 0.031411f, 0.026163f, -0.139105f,
    -0.013639f, -0.154391f, 0.009201f, 0.057295f, -0.084610f, 0.131959f, -0.093408f, 0.262395f,
    -0.016739f, -0.150575f, 0.057230f, -0.054336f, 0.138978f, -0.028231f, 0.053248f, 0.252953f,
    -0.037725f, -0.069047f, -0.120735f, 0.220483f, -0.182743f, -0.050404f, -0.019473f, 0.125301f,
    0.066971f, 0.110614f, -0.057213f, 0.107812f, -0.127948f, 0.052939f, 0.115138f, -0.079670f,
    -0.080260f, 0.010178f, 0.156256f, -0.034693f, -0.073407f, 0.096340f, -0.049257f, 0.027541f,
    -0.099830f, 0.179815f, 0.018233f, -0.138023f, 0.068642f, -0.047532f, 0.051141f, 0.090511f,
    0.002002f, 0.045509f, -0.183928f, 0.136571f, 0.086582f, -0.157626f, 0.065147f, 0.069011f,
    0.130511f, 0.269818f, 0.007435f, -0.022780f, 0.011451f, -0.089604f, -0.122957f, -0.049012f,
    -0.047960f, -0.105454f, 0.171415f, -0.028398f, -0.044154f, -0.007875f, -0.230458f, -0.028307f,
    -0.096240f, -0.309875f, -0.015549f, -0.096437f, 0.037301f, 0.056991f, -0.029135f, -0.090518f,
    0.144297f, -0.092901f, 0.074234f, -0.051584f, -0.051751f, 0.173428f, -0.276238f, -0.019723f,
    -0.019409f, 0.039276f, 0.032498f, -0.036521f, 0.019750f, 0.035369f, -0.013594f, 0.051262f,
    0.013384f, 0.008466f, 0.047930f, -0.008895f, 0.029300f, -0.045519f, 0.003141f, -0.049116f,
    -0.051980f, -0.044927f, -0.028464f, -0.031660f, -0.041384f, 0.042319f, -0.018579f, 0.014567f,
    -0.039857f, 0.032623f, -0.037662f, -0.007316f, -0.004319f, 0.016657f, -0.033255f, -0.019857f,
    0.004556f, 0.011580f, -0.048922f, -0.023175f, 0.009090f, 0.056198f, -0.047564f, 0.004243f,
    0.009133f, 0.027416f, -0.017231f, -0.051789f, -0.021677f, 0.008325f, -0.029910f, 0.019426f,
    0.000902f, 0.005722f, 0.026326f, -0.016699f, -0.053820f, 0.032217f, 0.045530f, -0.036586f,
    0.022297f, -0.058505f, 0.009836f, 0.034182f, 0.047757f, 0.031292f, -0.022342f, -0.041411f,
    0.048448f, 0.006589f, -0.049008f, -0.002503f, 0.058615f, -0.037104f, 0.012940f, -0.056376f,
    0.054093f, 0.039221f, 0.001781f, -0.014985f, 0.014889f, 0.054879f, 0.042189f, -0.013480f,
    -0.040224f, 0.024043f, -0.056540f, -0.004103f, 0.049359f, -0.023179f, 0.044202f, -0.020332f,
    -0.058055f, 0.053348f, 0.005359f, 0.047542f, 0.008200f, 0.007620f, -0.015293f, -0.018721f,
    0.029017f, -0.057536f, -0.046350f, 0.056402f, 0.004208f, 0.050669f, -0.014673f, 0.017062f,
    -0.025337f, 0.028536f, 0.018315f, -0.053586f, 0.041680f, -0.001523f, 0.045470f, 0.001032f,
    -0.022338f, -0.041146f, -0.044255f, 0.017834f, 0.002396f, 0.036221f, -0.021622f, 0.005373f,
    -0.044427f, 0.020797f, -0.056783f, 0.046215f, 0.024720f, -0.031351f, -0.056810f, -0.030507f,
    -0.052159f, -0.000346f, 0.030182f, 0.049964f, 0.030027f, 0.001674f, 0.024074f, 0.045307f,
    -0.031869f, -0.036501f, 0.046740f, -0.054639f, 0.025756f, 0.012738f, -0.041078f, -0.049594f,
    -0.021650f, 0.030654f, -0.007631f, -0.029586f, 0.058036f, -0.019290f, -0.006157f, 0.002915f,
    0.002404f, -0.041200f, -0.038919f, 0.023556f, -0.015163f, -0.026410f, -0.047008f, -0.025702f,
    0.007655f, 0.030868f, -0.000635f, 0.005592f, -0.048168f, 0.000311f, 0.054761f, -0.028088f,
    0.013122f, 0.054702f, -0.053163f, 0.048040f, -0.043848f, 0.019232f, -0.055229f, 0.055081f,
    0.033751f, -0.001621f, -0.036853f, 0.013681f, -0.014650f, -0.018262f, 0.019069f, 0.010144f,
    -0.025047f, 0.019492f, -0.033268f, -0.022122f, -0.053242f, 0.017759f, 0.010891f, -0.041427f,
    0.030947f, -0.033867f, -0.039070f, -0.019063f, -0.036762f, -0.018216f, 0.010430f, 0.028135f,
    -0.047794f, 0.041903f, -0.021515f, 0.001043f, -0.008053f, 0.034542f, 0.051057f, -0.002426f,
    0.018187f, -0.038853f, 0.028704f, 0.018483f, -0.055465f, 0.043442f, 0.033508f, 0.012718f,
    -0.047547f, 0.031643f, 0.011571f, 0.001893f, -0.010265f, -0.040677f, 0.031804f, -0.017781f,
    -0.013166f, 0.027035f, 0.008394f, 0.041348f, 0.006041f, -0.044446f, -0.050882f, 0.022132f,
    0.011397f, 0.014280f, -0.046834f, 0.056162f, 0.010305f, -0.013462f, 0.020209f, 0.021473f,
    -0.031779f, -0.047832f, 0.006589f, 0.024963f, -0.016407f, -0.021613f, 0.011534f, 0.013991f,
    -0.003073f, 0.052145f, -0.044651f, 0.012986f, 0.047320f, 0.010961f, -0.029435f, -0.029521f,
    -0.100091f, 0.216772f, 0.160377f, -0.050135f, 0.038310f, -0.140550f, -0.329754f, -0.031789f,
    -0.111274f, 0.059374f, 0.099794f, 0.105298f, -0.026913f, 0.015043f, 0.041799f, 0.026396f,
    0.119304f, 0.016571f, -0.518553f, -0.004335f, 0.117984f, 0.032286f, 0.136062f, 0.013783f,
    0.325438f, 0.058934f, -0.006575f, 0.105188f, -0.062659f, 0.024170f, -0.105056f, -0.034691f,
    -0.053050f, 0.222578f, -0.142361f, 0.311545f, 0.018764f, -0.111309f, 0.210385f, 0.205614f,
    -0.029572f, 0.213201f, -0.119142f, 0.027570f, 0.211736f, 0.039845f, 0.164566f, 0.126573f,
    0.101381f, -0.123449f, -0.083396f, 0.016584f, 0.022227f, -0.263767f, -0.099119f, 0.123818f,
    0.150443f, -0.028829f, -0.091552f, -0.049031f, 0.019851f, 0.064888f, 0.119437f, 0.005515f,
    0.036718f, -0.171707f, -0.164592f, 0.158652f, 0.074303f, -0.118345f, 0.097099f, -0.106817f,
    0.072710f, -0.180657f, -0.059625f, 0.092711f, -0.144351f, -0.082268f, -0.195899f, -0.004202f,
    0.035654f, -0.052746f, -0.137012f, -0.093167f, -0.017795f, -0.123910f, 0.052121f, -0.097946f,
    -0.331488f, 0.172022f, -0.078674f, 0.194081f, 0.001532f, 0.066635f, -0.032392f, -0.199949f,
    0.153839f, 0.117700f, -0.070992f, -0.101481f, 0.152605f, 0.178118f, -0.165805f, 0.039150f,
    -0.264081f, 0.151603f, -0.027879f, -0.167757f, 0.052423f, -0.165628f, -0.247951f, -0.194734f,
    0.164381f, -0.031655f, 0.108686f, 0.092696f, -0.246096f, -0.008712f, -0.086478f, 0.040725f,
    0.006043f, -0.063174f, 0.046453f, -0.065511f, 0.036816f, -0.100178f, -0.217383f, 0.071713f,
    0.041811f, -0.055448f, 0.036750f, -0.056213f, -0.032626f, 0.029880f, -0.037342f, 0.016939f,
    -0.015964f, -0.032028f, -0.017742f, 0.019427f, 0.050874f, 0.020135f, 0.032363f, 0.044130f,
    0.055393f, -0.040612f, -0.023053f, 0.037640f, -0.058628f, 0.055586f, -0.040400f, 0.007856f,
    0.032441f, -0.043058f, -0.010833f, 0.040223f, -0.006462f, 0.053932f, 0.004581f, 0.042988f,
    0.029273f, 0.052995f, -0.013623f, 0.047654f, 0.030553f, 0.030936f, 0.037780f, -0.027738f,
    -0.006509f, 0.040981f, -0.028669f, 0.003981f, -0.035902f, -0.018512f, -0.041741f, -0.016490f,
    -0.006119f, 0.021988f, -0.025421f, -0.022604f, 0.039873f, 0.029126f, 0.007219f, -0.004941f,
    0.013462f, -0.051505f, 0.057917f, -0.015176f, -0.005797f, -0.013107f, 0.051518f, -0.018395f,
    -0.013673f, 0.124841f, -0.053339f, 0.012459f, -0.067539f, -0.236072f, -0.019968f, 0.212959f,
    -0.007755f, 0.246688f, 0.049396f, -0.217306f, 0.185153f, 0.028913f, 0.001864f, 0.051861f,
    -0.006860f, 0.193284f, -0.204382f, 0.204818f, 0.178444f, -0.148490f, 0.036410f, -0.218236f,
    0.127350f, -0.051704f, 0.127341f, 0.150692f, -0.007193f, 0.101428f, -0.080566f, 0.000811f,
    0.045123f, 0.249488f, -0.156884f, 0.074530f, 0.020678f, -0.223986f, 0.035547f, -0.008277f,
    -0.074063f, -0.108452f, -0.083019f, -0.113237f, 0.153912f, 0.268225f, 0.106176f, -0.105726f,
    -0.070706f, 0.122091f, 0.144081f, 0.045778f, -0.161671f, -0.277551f, -0.155012f, -0.220910f,
    0.170826f, 0.213819f, 0.027256f, -0.149867f, -0.037209f, -0.019635f, -0.004385f, -0.267445f,
    -0.072442f, 0.059424f, 0.066262f, 0.037938f, 0.006492f, 0.030311f, 0.106183f, 0.251087f,
    0.321819f, -0.114900f, 0.145293f, 0.079903f, -0.114802f, 0.047485f, -0.094689f, 0.015748f,
    0.051274f, 0.145985f, -0.174471f, -0.192478f, -0.063254f, -0.203103f, 0.084262f, 0.006804f,
    -0.300531f, -0.017922f, -0.092143f, 0.320666f, -0.001839f, 0.021534f, 0.053254f, 0.017129f,
    0.155945f, 0.168538f, -0.487753f, -0.253133f, 0.146357f, -0.017697f, -0.208818f, -0.061479f,
    -0.237927f, 0.233994f, 0.197051f, 0.010215f, 0.142977f, -0.144439f, -0.366906f, -0.223291f,
    0.446205f, -0.169293f, 0.087720f, 0.100715f, -0.250207f, 0.005652f, 0.142396f, -0.013044f,
    -0.264220f, -0.021503f, 0.327011f, -0.313260f, -0.029085f, -0.166869f, -0.170213f, -0.022690f,
    0.003943f, -0.009776f, 0.027351f, 0.026629f, 0.038055f, -0.001579f, 0.028342f, 0.005586f,
    0.025816f, 0.009484f, 0.022526f, -0.001605f, -0.049673f, 0.014558f, -0.028365f, -0.033999f,
    -0.047490f, 0.022608f, -0.029107f, -0.000792f, -0.009264f, 0.054212f, 0.027376f, -0.019521f,
    0.006869f, 0.042896f, 0.035551f, 0.042227f, 0.045182f, 0.005810f, -0.045170f, 0.050660f,
    0.038621f, -0.027777f, -0.030525f, -0.052864f, 0.027574f, -0.010458f, -0.029307f, -0.004568f,
    -0.033512f, -0.042136f, -0.042546f, 0.008165f, 0.029055f, 0.013433f, -0.026864f, -0.047961f,
    -0.006786f, 0.049314f, -0.027639f, 0.011408f, -0.005534f, 0.041248f, -0.039187f, -0.042593f,
    -0.049596f, -0.058454f, 0.033921f, 0.048620f, -0.031734f, -0.055281f, 0.021737f, -0.053756f,
    -0.050597f, 0.053572f, 0.047416f, 0.006216f, -0.030918f, -0.034802f, -0.021020f, -0.007614f,
    0.033779f, -0.019276f, -0.031179f, 0.035295f, 0.037742f, -0.047009f, 0.020673f, 0.032981f,
    -0.051847f, -0.040218f, 0.004966f, 0.033325f, -0.044439f, -0.011327f, -0.035449f, 0.042643f,
    -0.036879f, 0.051511f, 0.046031f, 0.041602f, -0.038022f, -0.003768f, -0.007634f, -0.050269f,
    -0.041789f, -0.047029f, 0.042219f, 0.045055f, 0.010988f, -0.003596f, 0.035367f, -0.008678f,
    0.020704f, 0.038831f, -0.023187f, 0.052825f, -0.030098f, 0.047831f, -0.054789f, 0.033845f,
    -0.000831f, 0.012670f, 0.046139f, 0.042965f, -0.044777f, -0.004610f, -0.046821f, 0.055455f,
    -0.031822f, 0.012196f, -0.045201f, 0.051161f, 0.029648f, 0.011608f, 0.010235f, -0.023370f,
    0.014508f, 0.039089f, -0.041131f, -0.030249f, -0.046597f, -0.057846f, 0.027975f, -0.034882f,
    0.008597f, -0.009065f, -0.032429f, -0.024038f, 0.011255f, 0.019644f, -0.052928f, -0.043607f,
    0.023009f, -0.030453f, -0.035752f, 0.028783f, 0.021405f, -0.051379f, 0.056132f, -0.010425f,
    -0.048021f, -0.050270f, -0.016260f, -0.011846f, -0.052787f, -0.034310f, 0.008942f, 0.006210f,
    -0.038813f, -0.050040f, -0.020739f, -0.007111f, 0.052678f, 0.002865f, 0.007895f, -0.017633f,
    -0.016316f, 0.037739f, -0.042315f, -0.017263f, 0.045749f, -0.038315f, -0.023942f, 0.055377f,
    -0.003733f, 0.009797f, -0.049885f, 0.013706f, 0.050291f, 0.013867f, -0.012291f, 0.039867f,
    -0.027465f, 0.024394f, -0.022918f, -0.042474f, -0.018566f, -0.024705f, 0.016749f, -0.054648f,
    0.025847f, -0.028269f, 0.034197f, 0.046825f, 0.019997f, -0.012562f, 0.041254f, -0.054380f,
    0.006566f, -0.058764f, -0.051231f, -0.007561f, -0.005298f, 0.055194f, 0.011897f, 0.003101f,
    0.050472f, -0.008253f, -0.030544f, 0.011600f, -0.048876f, 0.019324f, 0.050514f, -0.035210f,
    -0.024482f, -0.020858f, 0.052040f, 0.051024f, 0.041657f, -0.056334f, -0.024726f, -0.015410f,
    -0.004863f, -0.030595f, -0.053216f, -0.057393f, 0.055579f, -0.020343f, 0.015109f, 0.011881f,
    -0.009095f, -0.031322f, -0.000111f, -0.020627f, -0.007294f, 0.034425f, -0.006767f, -0.058673f,
    0.000940f, -0.022486f, 0.025526f, -0.020878f, 0.028842f, -0.035908f, -0.012077f, -0.012506f,
    0.046733f, -0.058428f, -0.041356f, -0.016613f, 0.038910f, -0.030601f, 0.030948f, -0.002919f,
    0.118361f, -0.034383f, 0.014375f, -0.116905f, 0.003353f, 0.080024f, 0.103445f, 0.141355f,
    -0.118802f, 0.144872f, 0.085701f, -0.086893f, -0.317166f, -0.066178f, -0.001271f, 0.136564f,
    -0.028351f, 0.112748f, -0.198261f, -0.056013f, -0.214075f, 0.070906f, -0.087053f, -0.353662f,
    0.141744f, -0.028967f, -0.218572f, -0.166531f, 0.024397f, 0.273085f, 0.152323f, -0.066475f,
    0.078761f, 0.327942f, -0.190255f, -0.130270f, -0.216806f, -0.120951f, 0.055009f, -0.043275f,
    0.086354f, 0.020317f, -0.318735f, -0.082487f, 0.083076f, -0.018723f, 0.036889f, 0.029188f,
    0.209165f, -0.228873f, 0.043702f, 0.171256f, -0.326042f, 0.035009f, 0.089764f, 0.287155f,
    0.137407f, 0.159725f, -0.030351f, 0.197450f, -0.026108f, 0.052631f, 0.009817f, 0.154526f,
    -0.235987f, 0.044735f, 0.014017f, 0.142651f, -0.109604f, 0.125429f, -0.049576f, -0.130384f,
    0.048116f, 0.150556f, -0.283978f, -0.199300f, 0.023472f, -0.224389f, -0.134831f, 0.004990f,
    0.232695f, -0.293004f, -0.033769f, 0.031483f, 0.018565f, -0.073520f, -0.197371f, 0.070027f,
    -0.032810f, -0.040595f, -0.009805f, -0.428343f, -0.066337f, -0.078131f, 0.123455f, -0.074566f,
    0.151148f, 0.095512f, 0.022798f, -0.164497f, 0.102702f, 0.133371f, -0.003809f, -0.068635f,
    -0.056459f, -0.103121f, 0.029043f, -0.064857f, -0.335808f, 0.035962f, -0.017713f, -0.071478f,
    -0.138720f, 0.003085f, 0.029745f, 0.145931f, -0.071135f, -0.082511f, 0.272150f, -0.302631f,
    0.021747f, 0.094964f, -0.093604f, -0.252703f, -0.362444f, 0.155027f, -0.141704f, 0.281852f,
    0.020208f, 0.057749f, -0.053142f, 0.014378f, 0.003495f, 0.014740f, 0.033940f, -0.031401f,
    -0.021284f, -0.005041f, 0.044327f, -0.001855f, 0.004121f, -0.013026f, 0.047764f, -0.029656f,
    0.022755f, 0.007012f, -0.043120f, 0.043028f, 0.054943f, -0.031008f, -0.025350f, -0.016739f,
    -0.013347f, 0.042635f, 0.044453f, 0.044547f, -0.038609f, -0.019893f, 0.000865f, -0.027279f,
    0.056650f, 0.019071f, -0.004522f, 0.038503f, -0.025228f, 0.057518f, 0.056686f, -0.016507f,
    -0.033592f, -0.018904f, 0.022528f, 0.037679f, -0.025725f, 0.047290f, 0.055384f, 0.057389f,
    -0.017049f, 0.032081f, 0.031946f, 0.050510f, 0.004777f, 0.017595f, -0.037390f, 0.012303f,
    0.019868f, -0.057377f, 0.034012f, -0.038900f, 0.011877f, -0.019619f, 0.048838f, 0.053640f,
    -0.011389f, 0.013924f, -0.009656f, -0.216326f, -0.211257f, -0.173522f, 0.065991f, 0.061908f,
    -0.247938f, 0.110665f, 0.063918f, -0.134030f, -0.208531f, 0.019580f, -0.031587f, 0.122423f,
    -0.046391f, 0.053857f, 0.036869f, 0.052788f, 0.103773f, -0.002124f, -0.105669f, -0.146746f,
    -0.028626f, 0.013817f, -0.085154f, 0.196047f, 0.106964f, 0.028962f, 0.133345f, -0.131085f,
    -0.019226f, 0.484185f, -0.197631f, -0.090476f, -0.196772f, -0.450220f, -0.184800f, -0.026146f,
    0.054937f, -0.000469f, -0.125344f, -0.025757f, 0.082184f, 0.070568f, -0.017856f, 0.052452f,
    -0.208846f, -0.275857f, 0.222683f, 0.056613f, -0.464844f, -0.121969f, 0.102657f, 0.107935f,
    0.118790f, 0.145610f, -0.190836f, 0.244992f, -0.018455f, -0.222057f, 0.089369f, 0.153767f,
    -0.183506f, 0.102222f, -0.002246f, -0.008261f, 0.089898f, 0.243391f, 0.238355f, -0.085448f,
    -0.357274f, -0.187630f, -0.171161f, 0.057586f, 0.371739f, 0.002765f, -0.174363f, -0.051067f,
    0.230231f, 0.072557f, 0.012379f, -0.093920f, -0.062129f, 0.168654f, -0.113894f, -0.237198f,
    0.027269f, 0.000918f, 0.129685f, 0.002611f, 0.310838f, -0.034334f, 0.032579f, -0.069704f,
    0.117641f, -0.022374f, -0.210287f, -0.040296f, 0.091834f, -0.043499f, 0.053044f, -0.046634f,
    -0.054084f, 0.288788f, -0.158531f, -0.005603f, -0.402249f, -0.044803f, 0.074936f, 0.025785f,
    -0.046196f, -0.018561f, 0.055994f, -0.176457f, -0.070131f, -0.246179f, 0.210840f, -0.099418f,
    0.066903f, 0.109673f, -0.111992f, -0.045555f, -0.109071f, 0.029547f, -0.031858f, 0.134362f,
    -0.003937f, 0.026589f, -0.007868f, -0.000197f, 0.049711f, -0.019263f, -0.057748f, 0.047657f,
    -0.030969f, 0.015134f, -0.011054f, -0.028916f, 0.000336f, -0.049737f, 0.004959f, -0.039865f,
    -0.027408f, -0.036058f, -0.009712f, -0.016227f, -0.019055f, -0.028201f, 0.020007f, 0.011403f,
    0.036211f, 0.033559f, 0.024238f, 0.001337f, -0.052327f, 0.002335f, -0.055218f, -0.048043f,
    -0.009231f, 0.027355f, 0.015167f, -0.008660f, -0.029067f, -0.004626f, -0.018861f, -0.008496f,
    0.032255f, 0.002000f, -0.028661f, 0.053005f, 0.028904f, 0.049922f, -0.012381f, 0.009352f,
    -0.012220f, -0.028340f, -0.008682f, -0.037682f, -0.018710f, -0.034479f, -0.056788f, -0.010755f,
    -0.028371f, 0.039854f, 0.000925f, -0.045337f, 0.055556f, 0.040210f, 0.036414f, 0.040846f,
    0.028051f, 0.025139f, -0.036927f, -0.044637f, 0.035904f, -0.014181f, -0.019843f, 0.042185f,
    0.036061f, 0.029375f, -0.029866f, 0.036658f, -0.028344f, 0.009755f, -0.033935f, -0.058252f,
    -0.034807f, -0.049999f, 0.012451f, 0.019949f, -0.008965f, -0.037194f, 0.046107f, 0.017869f,
    -0.057020f, 0.050035f, 0.003836f, -0.039237f, 0.049622f, -0.044457f, 0.036717f, 0.034157f,
    0.029724f, -0.055404f, -0.022332f, -0.043036f, -0.013124f, 0.046101f, 0.003625f, 0.039475f,
    -0.045538f, 0.058793f, 0.029403f, 0.056567f, -0.056312f, -0.044627f, 0.049366f, -0.025153f,
    0.055566f, -0.033068f, 0.017030f, -0.017093f, 0.043397f, -0.025052f, -0.031740f, 0.050307f,
    0.031326f, -0.046548f, -0.008173f, -0.006924f, 0.057116f, 0.037012f, 0.050290f, 0.019175f,
    0.016213f, 0.010024f, 0.045624f, -0.034384f, 0.018294f, 0.036331f, 0.000846f, -0.022075f,
    0.043740f, 0.005773f, -0.030875f, -0.017001f, -0.058745f, 0.018645f, 0.000485f, -0.016539f,
    -0.056006f, -0.011125f, 0.054452f, -0.034808f, 0.029421f, 0.049431f, -0.025380f, -0.035778f,
    -0.026136f, -0.006107f, 0.003236f, -0.053900f, -0.035906f, 0.020241f, 0.049014f, -0.012450f,
    0.044397f, -0.026014f, -0.002612f, -0.021975f, -0.054387f, -0.028097f, -0.025038f, 0.046395f,
    -0.048742f, -0.058663f, 0.037819f, 0.017501f, 0.012674f, -0.040629f, -0.010211f, 0.040208f,
    -0.038483f, 0.008278f, -0.002001f, -0.037757f, 0.029141f, -0.058786f, 0.004208f, 0.033292f,
    0.048564f, -0.034540f, -0.043636f, 0.003600f, 0.007138f, 0.052597f, 0.021784f, 0.049366f,
    0.011373f, -0.046068f, -0.057194f, -0.038496f, -0.029709f, 0.005784f, -0.058334f, 0.015567f,
    0.002592f, -0.048362f, 0.015652f, -0.034527f, 0.055416f, -0.054253f, -0.000827f, 0.014811f,
    0.021363f, 0.002164f, -0.009698f, -0.054316f, -0.038729f, 0.002502f, -0.015467f, 0.048935f,
    -0.009218f, 0.037334f, 0.047131f, 0.055141f, 0.041679f, -0.017128f, -0.022358f, -0.050890f,
    0.049448f, 0.050643f, -0.046911f, -0.009770f, -0.008011f, 0.025991f, 0.003808f, -0.018071f,
    0.008131f, 0.049161f, 0.034804f, 0.015916f, -0.017804f, 0.056335f, 0.008441f, -0.038764f,
    0.006273f, -0.046202f, -0.018843f, -0.040418f, -0.044420f, -0.040535f, -0.026805f, -0.048079f,
    0.017965f, 0.010928f, 0.040127f, 0.009926f, -0.015640f, 0.057908f, 0.021004f, -0.052003f,
    0.036783f, -0.181251f, -0.360104f, -0.095745f, 0.147392f, -0.078392f, 0.004501f, 0.000573f,
    0.059127f, -0.219175f, 0.029393f, 0.038971f, 0.293067f, -0.048447f, 0.013269f, -0.123307f,
    -0.168393f, -0.206382f, 0.114225f, 0.079135f, -0.392792f, -0.357682f, 0.056954f, -0.031050f,
    -0.106110f, 0.090554f, 0.075595f, 0.025215f, 0.172754f, -0.033439f, 0.083030f, -0.021581f,
    -0.216819f, -0.102667f, 0.001762f, -0.014918f, 0.076717f, 0.091472f, -0.287277f, 0.142447f,
    -0.012114f, 0.194380f, -0.322573f, 0.046572f, -0.009513f, 0.093248f, 0.170715f, 0.132315f,
    -0.122811f, -0.106318f, 0.133586f, 0.179074f, -0.009013f, -0.134924f, -0.028180f, 0.047041f,
    0.147808f, -0.202747f, 0.074390f, 0.195593f, -0.073043f, 0.071134f, -0.083372f, 0.004658f,
    -0.073980f, -0.269433f, 0.041721f, 0.015065f, -0.016112f, 0.156758f, 0.072045f, 0.040806f,
    -0.067952f, 0.179571f, -0.002520f, 0.168623f, -0.168044f, -0.016450f, 0.246683f, -0.094352f,
    0.051964f, 0.047189f, -0.170011f, 0.087378f, 0.042494f, -0.043078f, 0.076343f, 0.030348f,
    0.280425f, 0.111001f, 0.076962f, -0.011885f, -0.240293f, -0.174878f, 0.062914f, 0.082896f,
    0.038197f, -0.152767f, 0.085252f, -0.118309f, 0.138881f, -0.154513f, 0.106861f, 0.130248f,
    -0.017764f, 0.027909f, 0.107539f, 0.076753f, 0.002442f, 0.058200f, -0.038003f, 0.066838f,
    0.206748f, 0.080747f, -0.101794f, 0.151134f, -0.281453f, 0.153906f, -0.016500f, -0.100355f,
    -0.023097f, -0.045163f, 0.018246f, -0.084804f, 0.344132f, -0.002944f, -0.147775f, 0.145862f,
    0.012785f, -0.010589f, 0.044313f, 0.037550f, -0.045578f, -0.019756f, 0.025607f, 0.038977f,
    -0.046415f, 0.018800f, -0.048001f, 0.041391f, 0.011582f, -0.031917f, -0.020835f, 0.000175f,
    -0.029768f, 0.033380f, 0.004178f, 0.057043f, 0.045997f, 0.028826f, -0.033746f, -0.016347f,
    0.053721f, -0.028472f, 0.033634f, -0.004363f, 0.030650f, 0.021442f, -0.051497f, -0.038805f,
    -0.034102f, 0.033774f, -0.001835f, -0.023794f, 0.036934f, 0.003463f, -0.048914f, 0.018091f,
    -0.057731f, 0.042983f, -0.033551f, -0.006381f, 0.049378f, -0.041105f, 0.025287f, -0.008449f,
    0.031108f, 0.039589f, 0.044947f, -0.018788f, -0.045194f, -0.050355f, -0.014117f, -0.035983f,
    0.010656f, -0.032857f, 0.021225f, 0.043150f, 0.021160f, -0.058857f, -0.031545f, 0.017931f,
    0.046269f, 0.080493f, -0.225966f, -0.161218f, -0.024243f, -0.040756f, 0.053667f, 0.077659f,
    0.134962f, -0.173302f, -0.274011f, 0.027202f, 0.083471f, -0.106045f, 0.056798f, -0.124647f,
    -0.059289f, 0.234209f, 0.072548f, 0.131417f, -0.189625f, -0.159827f, -0.088805f, 0.201678f,
    -0.089884f, -0.313913f, -0.089763f, -0.149842f, 0.088509f, -0.126165f, 0.071734f, 0.100954f,
    -0.062008f, -0.099963f, 0.001851f, -0.038251f, 0.010524f, 0.100546f, -0.113328f, 0.187496f,
    0.034404f, 0.288170f, -0.308529f, 0.146837f, 0.021904f, -0.173324f, 0.003126f, 0.059175f,
    0.130572f, 0.206532f, 0.070608f, 0.026500f, 0.032085f, -0.034484f, -0.117824f, -0.145358f,
    -0.054840f, -0.072179f, 0.256232f, -0.009960f, 0.080337f, 0.120689f, 0.101873f, 0.134037f,
    0.076900f, 0.121896f, 0.076251f, -0.028035f, 0.131472f, -0.067666f, -0.115309f, -0.209651f,
    -0.131642f, 0.074009f, -0.165571f, 0.002137f, -0.091659f, 0.032642f, 0.077387f, 0.042572f,
    0.114174f, 0.201563f, 0.040314f, 0.516069f, 0.007898f, 0.039901f, 0.004001f, 0.017624f,
    -0.016642f, 0.163256f, -0.118406f, -0.095983f, -0.117659f, 0.107695f, 0.067657f, 0.195496f,
    0.086977f, -0.028875f, 0.164761f, -0.268940f, 0.013038f, 0.057065f, 0.163702f, 0.031333f,
    0.161181f, -0.187269f, -0.316869f, -0.043840f, -0.169540f, -0.023676f, -0.097595f, 0.197440f,
    0.133352f, -0.012178f, 0.108355f, 0.108627f, -0.112682f, -0.052159f, -0.032441f, 0.019048f,
    0.240658f, -0.039878f, -0.234114f, -0.128381f, -0.132934f, -0.037370f, 0.105246f, -0.073916f,
    0.056111f, -0.013045f, 0.022662f, -0.058749f, -0.056057f, 0.051047f, -0.039116f, 0.016293f,
    0.011350f, -0.058610f, -0.026502f, 0.020458f, 0.000648f, -0.006050f, 0.025457f, 0.009177f,
    -0.056030f, -0.024516f, -0.057661f, -0.025635f, -0.031530f, -0.028367f, 0.032100f, 0.051684f,
    0.037581f, -0.048217f, 0.053317f, -0.052836f, -0.014926f, 0.004638f, 0.011148f, 0.044169f,
    0.037568f, 0.015444f, 0.044070f, -0.049718f, 0.014235f, 0.039802f, -0.012855f, 0.009686f,
    -0.055208f, 0.054022f, -0.044186f, 0.017099f, -0.016857f, -0.017959f, 0.046643f, -0.000619f,
    -0.017616f, 0.006313f, -0.032033f, 0.016821f, 0.054769f, 0.048335f, -0.045158f, -0.019226f,
    -0.029456f, 0.003582f, -0.028285f, 0.030216f, -0.031460f, 0.022323f, 0.020576f, 0.020299f,
    0.055272f, -0.032471f, 0.048136f, 0.034345f, -0.056648f, -0.045910f, -0.010463f, 0.027181f,
    -0.052918f, 0.007756f, 0.021429f, -0.053339f, -0.012956f, 0.013711f, 0.005610f, -0.042927f,
    -0.020893f, -0.014679f, 0.039413f, 0.044878f, -0.049250f, -0.033143f, -0.008476f, -0.000618f,
    0.020543f, -0.025209f, 0.024459f, -0.038901f, 0.013080f, 0.015255f, 0.018114f, 0.003808f,
    0.048220f, 0.029021f, 0.002131f, 0.028475f, 0.025699f, 0.011916f, -0.034720f, 0.030456f,
    0.048846f, 0.038965f, 0.016641f, 0.000096f, 0.054267f, -0.037321f, 0.050512f, -0.036211f,
    0.025116f, -0.006575f, -0.004104f, 0.019759f, -0.028270f, 0.055036f, 0.034780f, -0.047484f,
    -0.055661f, 0.023995f, 0.038729f, -0.034569f, -0.006247f, 0.058445f, 0.021819f, -0.033508f,
    0.043600f, 0.030128f, -0.001756f, 0.058374f, -0.039543f, -0.014692f, 0.026178f, 0.020371f,
    -0.047244f, -0.034061f, 0.053070f, -0.005944f, -0.039407f, 0.035099f, 0.031851f, 0.050224f,
    0.010116f, -0.012358f, -0.039507f, -0.008818f, -0.006018f, 0.001551f, 0.026496f, 0.050459f,
    -0.041239f, -0.053824f, -0.013967f, 0.017118f, 0.026166f, 0.029196f, 0.047788f, -0.002873f,
    -0.055976f, 0.014781f, 0.011850f, 0.048362f, -0.052619f, -0.034025f, 0.000217f, -0.016656f,
    -0.027279f, -0.038839f, 0.017235f, 0.016790f, -0.048776f, -0.052362f, -0.034070f, 0.005226f,
    0.020187f, 0.039875f, 0.018275f, 0.040705f, 0.022952f, -0.051824f, 0.043295f, -0.034988f,
    0.057578f, 0.055856f, 0.037372f, -0.047733f, -0.050376f, 0.018613f, 0.046659f, 0.018806f,
    -0.032471f, -0.020714f, 0.035618f, -0.002813f, 0.013036f, -0.016000f, -0.039303f, 0.051238f,
    -0.004496f, 0.043075f, 0.046959f, -0.048511f, -0.003766f, 0.000245f, -0.057797f, 0.025817f,
    -0.034856f, 0.011864f, -0.002270f, 0.018093f, -0.005226f, 0.044839f, 0.017836f, -0.027770f,
    -0.034872f, -0.023410f, 0.030669f, 0.004095f, -0.013135f, 0.054724f, 0.056923f, 0.011616f,
    -0.021672f, -0.034439f, -0.011860f, -0.020739f, 0.006106f, -0.044456f, -0.056571f, -0.057930f,
    -0.036891f, 0.031401f, -0.007114f, -0.043994f, -0.055062f, 0.027826f, 0.046868f, 0.029301f,
    0.025393f, -0.034903f, 0.028045f, -0.050462f, 0.046476f, -0.047928f, 0.049801f, -0.017561f,
    0.025568f, 0.054946f, -0.011582f, -0.009461f, 0.003919f, -0.024067f, -0.028560f, 0.042351f,
    -0.017237f, 0.023764f, -0.008968f, -0.015885f, 0.160904f, 0.033276f, 0.021985f, 0.097171f,
    -0.059074f, 0.220861f, -0.050948f, -0.059777f, 0.056007f, 0.111153f, 0.023794f, 0.083728f,
    -0.086538f, 0.097741f, 0.031708f, -0.047765f, -0.009589f, -0.026851f, 0.173964f, -0.122876f,
    -0.061404f, -0.114383f, 0.179016f, 0.125378f, 0.176137f, -0.089919f, 0.142276f, 0.092677f,
    0.083154f, -0.037705f, 0.064633f, -0.125213f, 0.076898f, 0.029857f, 0.062097f, -0.050936f,
    0.068423f, -0.091890f, -0.016744f, -0.137603f, -0.034208f, -0.108835f, 0.085662f, 0.003721f,
    0.014944f, 0.094539f, 0.000848f, 0.105483f, 0.073776f, -0.264601f, 0.110487f, -0.003612f,
    0.116669f, -0.080167f, -0.044886f, 0.048810f, 0.063292f, 0.055888f, -0.080104f, 0.089768f,
    0.032113f, 0.010319f, -0.048875f, -0.217917f, 0.117023f, -0.160078f, -0.066460f, 0.089356f,
    0.162425f, -0.238029f, -0.306161f, 0.095971f, 0.160369f, -0.135392f, -0.010783f, -0.102071f,
    -0.234272f, 0.204938f, -0.021474f, 0.067502f, 0.007446f, 0.107274f, 0.019525f, 0.053418f,
    -0.069406f, -0.295798f, 0.108050f, 0.072126f, 0.050247f, 0.153990f, 0.042120f, -0.009238f,
    0.155061f, -0.113579f, -0.221443f, 0.054065f, -0.054877f, -0.010165f, 0.004779f, -0.110556f,
    -0.093428f, 0.072476f, -0.015036f, -0.110239f, 0.007381f, 0.134648f, -0.167226f, 0.028752f,
    -0.117499f, -0.074518f, -0.099216f, 0.077221f, -0.023758f, 0.220269f, -0.040813f, 0.115977f,
    0.008636f, -0.113023f, -0.008363f, -0.075456f, 0.204619f, -0.125610f, 0.005325f, 0.065296f,
    -0.048370f, 0.040803f, 0.007858f, 0.055655f, -0.005290f, -0.016626f, -0.048050f, -0.030743f,
    0.042414f, -0.050801f, -0.004601f, -0.035024f, -0.046959f, 0.034804f, -0.053171f, 0.002555f,
    -0.043507f, -0.035752f, 0.044566f, -0.047456f, -0.027468f, 0.002153f, -0.014269f, 0.054411f,
    -0.027298f, -0.030797f, 0.011558f, -0.002590f, 0.023799f, 0.029491f, -0.021365f, -0.037305f,
    0.041786f, -0.052188f, 0.002341f, 0.027698f, -0.041706f, -0.028690f, 0.008464f, -0.000070f,
    0.031660f, -0.009793f, -0.044415f, -0.055454f, 0.010216f, -0.006389f, -0.010097f, -0.009674f,
    0.004810f, 0.019866f, 0.046957f, 0.012460f, 0.017181f, -0.017667f, -0.001572f, 0.029266f,
    -0.028984f, -0.048903f, 0.043361f, -0.018319f, 0.056756f, 0.024618f, -0.049002f, -0.010840f,
    -0.045960f, -0.081639f, -0.096927f, 0.172885f, -0.042578f, -0.031772f, 0.075679f, 0.008143f,
    0.063164f, 0.073667f, 0.125107f, 0.055768f, -0.060699f, 0.109133f, 0.001999f, 0.155852f,
    -0.054714f, 0.096566f, -0.019807f, -0.075637f, -0.068096f, 0.077425f, -0.043098f, -0.250653f,
    -0.079705f, 0.065831f, 0.230764f, -0.018149f, -0.003882f, -0.044527f, 0.205623f, -0.090456f,
    0.175033f, -0.120128f, 0.068981f, -0.132130f, 0.231004f, 0.008240f, -0.146128f, -0.116361f,
    0.003300f, -0.018433f, 0.068723f, -0.011927f, 0.009235f, 0.027244f, -0.188255f, -0.108104f,
    0.233576f, 0.120439f, 0.031596f, 0.276304f, -0.198871f, -0.051677f, -0.017568f, 0.005988f,
    -0.033599f, -0.025185f, -0.016315f, 0.016291f, 0.100026f, -0.077071f, -0.025471f, -0.075881f,
    0.004378f, -0.061047f, 0.047679f, 0.139871f, -0.013563f, 0.097283f, -0.187398f, 0.065442f,
    0.004159f, -0.112287f, 0.049486f, -0.064206f, 0.022121f, -0.025850f, 0.029962f, -0.046375f,
    -0.051890f, -0.045172f, 0.008881f, -0.262548f, -0.171876f, -0.095015f, 0.207537f, -0.017258f,
    -0.122151f, -0.012158f, 0.066434f, 0.007453f, 0.032827f, 0.132069f, -0.178763f, 0.121065f,
    0.002378f, -0.026839f, -0.152357f, 0.070373f, -0.220361f, 0.099645f, -0.160228f, -0.026183f,
    -0.124549f, 0.031339f, -0.302412f, 0.160750f, 0.088301f, 0.005620f, -0.165421f, -0.110622f,
    0.078404f, 0.388592f, -0.070025f, -0.060392f, -0.108189f, 0.143182f, -0.213359f, 0.338020f,
    -0.048131f, -0.061279f, -0.078335f, 0.037614f, 0.261069f, 0.007909f, -0.216068f, -0.050357f,
    0.046455f, -0.038357f, 0.032000f, -0.021451f, 0.053589f, -0.002861f, -0.024135f, -0.034337f,
    -0.004478f, 0.049787f, 0.026381f, 0.001467f, -0.000276f, 0.016949f, -0.026454f, 0.043804f,
    -0.026211f, -0.033258f, -0.023663f, 0.022062f, -0.036951f, 0.033396f, 0.023162f, 0.023068f,
    0.008095f, 0.045949f, -0.057005f, 0.025864f, 0.019082f, 0.014253f, 0.047844f, 0.025125f,
    -0.008914f, -0.053883f, 0.011133f, 0.001594f, -0.048302f, 0.029584f, 0.000967f, 0.040941f,
    -0.020579f, 0.051497f, -0.031854f, 0.010322f, -0.050713f, -0.046969f, -0.002727f, -0.030194f,
    -0.039148f, 0.054434f, -0.056074f, 0.046455f, 0.048988f, 0.019903f, -0.010866f, 0.008081f,
    0.032334f, 0.040908f, 0.023366f, 0.043222f, -0.003481f, -0.034664f, 0.023759f, -0.042321f,
    -0.043270f, 0.052574f, -0.021437f, -0.042059f, 0.042662f, -0.041423f, -0.026969f, 0.049534f,
    0.038930f, -0.038049f, 0.007847f, 0.017590f, 0.037244f, 0.037698f, 0.006286f, 0.045576f,
    0.008999f, -0.003685f, -0.029849f, -0.004785f, 0.055963f, -0.034777f, -0.004813f, 0.040022f,
    0.041613f, -0.002566f, 0.020715f, 0.020666f, -0.022668f, -0.054015f, 0.029821f, -0.002368f,
    -0.024428f, -0.045618f, -0.048619f, 0.032727f, 0.034369f, 0.008371f, -0.020047f, 0.022970f,
    -0.053563f, 0.013569f, -0.003550f, 0.034096f, -0.058307f, -0.050827f, 0.050615f, 0.024675f,
    -0.008415f, 0.009066f, -0.031083f, -0.013512f, 0.011095f, 0.056424f, 0.057080f, -0.005690f,
    -0.054520f, 0.055717f, 0.002716f, 0.053931f, -0.001721f, -0.041754f, 0.048416f, -0.048065f,
    -0.030602f, -0.053082f, 0.000468f, -0.037830f, 0.031042f, -0.004281f, -0.024592f, 0.047944f,
    0.034833f, 0.036435f, 0.040798f, 0.013464f, -0.014349f, 0.020185f, 0.031744f, -0.026530f,
    0.049948f, 0.058572f, -0.040740f, -0.044200f, -0.020529f, -0.011137f, -0.029648f, 0.053741f,
    -0.033981f, 0.002474f, 0.031635f, 0.009040f, 0.036631f, -0.004700f, -0.011778f, -0.056704f,
    -0.029954f, -0.052283f, 0.057091f, -0.041576f, -0.016553f, 0.002406f, 0.025462f, 0.039583f,
    0.020719f, -0.053641f, -0.050170f, -0.042887f, -0.030769f, -0.015058f, 0.035238f, -0.053508f,
    0.011800f, 0.010976f, -0.029564f, -0.043884f, 0.052514f, 0.020371f, 0.006029f, 0.003101f,
    -0.035095f, -0.007566f, 0.047561f, -0.008306f, -0.020296f, -0.012092f, 0.036291f, 0.007840f,
    0.050776f, -0.038944f, 0.057337f, 0.037560f, -0.007197f, 0.034354f, 0.004286f, 0.035912f,
    0.021465f, -0.013279f, 0.011189f, -0.049349f, 0.023955f, 0.008284f, 0.034632f, 0.013204f,
    -0.057551f, 0.036478f, -0.056663f, -0.031086f, 0.011222f, -0.017709f, 0.032396f, -0.004452f,
    -0.033429f, -0.051153f, 0.043689f, 0.018203f, 0.003929f, 0.057069f, 0.037481f, 0.004760f,
    -0.001201f, -0.044391f, 0.005068f, -0.058409f, 0.004561f, 0.052508f, -0.009766f, 0.050876f,
    0.045984f, -0.025506f, -0.028283f, -0.013500f, -0.042987f, 0.041354f, 0.033908f, 0.004096f,
    -0.038305f, 0.038396f, -0.034362f, 0.009170f, 0.039954f, 0.044202f, -0.023427f, -0.043342f,
    0.012161f, -0.034246f, 0.004257f, 0.039318f, -0.041193f, -0.018340f, 0.014185f, -0.043897f,
    -0.004463f, 0.046258f, 0.047891f, -0.104391f, 0.005082f, -0.098911f, -0.249416f, 0.032405f,
    0.081953f, 0.140767f, -0.161848f, -0.107704f, 0.141288f, 0.061802f, 0.230173f, 0.012859f,
    0.072811f, -0.279199f, -0.100453f, 0.055272f, -0.024735f, 0.021625f, 0.055301f, -0.332572f,
    0.048657f, 0.137146f, 0.007752f, -0.071497f, 0.025937f, -0.060556f, -0.087874f, 0.125481f,
    -0.055388f, -0.068799f, 0.068099f, -0.040965f, 0.033004f, 0.074635f, -0.116433f, 0.026414f,
    -0.141106f, -0.072190f, 0.168847f, -0.017224f, 0.007711f, -0.112486f, 0.100377f, 0.139247f,
    0.076227f, 0.022610f, -0.300286f, -0.279988f, 0.046341f, -0.244966f, 0.090888f, -0.299501f,
    0.024613f, 0.307111f, 0.038071f, -0.050534f, -0.030290f, -0.314009f, 0.075694f, 0.123888f,
    -0.110004f, -0.031027f, 0.015035f, 0.013842f, 0.042953f, -0.073863f, -0.067377f, -0.054924f,
    -0.014099f, -0.160095f, -0.155782f, 0.008909f, -0.080677f, 0.186947f, 0.035464f, 0.048700f,
    -0.022595f, 0.038910f, -0.009620f, 0.020557f, 0.004653f, 0.081729f, 0.155259f, -0.080263f,
    0.047386f, -0.045226f, -0.028457f, -0.022569f, -0.036939f, 0.009909f, 0.036693f, 0.141987f,
    0.159729f, -0.113958f, -0.052719f, -0.153980f, -0.236428f, 0.147572f, 0.091197f, -0.059964f,
    -0.092179f, 0.088694f, -0.017040f, 0.040880f, -0.065396f, -0.141136f, 0.063192f, -0.065291f,
    0.085783f, 0.095025f, -0.257109f, 0.212213f, 0.033111f, 0.096732f, 0.189053f, 0.007728f,
    -0.133497f, -0.079091f, 0.169483f, -0.155492f, -0.204577f, -0.047981f, 0.244614f, -0.157266f,
    -0.051883f, -0.003546f, 0.045111f, 0.019989f, -0.056885f, -0.035202f, 0.013804f, 0.037080f,
    -0.036688f, -0.005159f, 0.041686f, 0.049417f, -0.039076f, -0.042027f, 0.047613f, 0.044218f,
    -0.012243f, -0.023900f, 0.042106f, -0.058411f, 0.019782f, -0.052800f, -0.045754f, -0.027942f,
    -0.056206f, -0.002828f, 0.006277f, 0.000060f, -0.053331f, 0.040970f, 0.022285f, 0.054182f,
    -0.054451f, 0.045642f, 0.053209f, 0.009879f, -0.052498f, 0.055361f, 0.012793f, 0.055033f,
    -0.025561f, 0.018335f, 0.050136f, -0.050855f, -0.043815f, 0.037469f, -0.009785f, 0.014441f,
    -0.021666f, 0.055876f, -0.045116f, -0.056698f, 0.029496f, 0.021984f, 0.053257f, -0.033931f,
    -0.053471f, 0.058157f, 0.008055f, -0.045141f, 0.038180f, -0.017042f, -0.033682f, -0.030453f,
    0.100906f, 0.027691f, -0.068431f, -0.119396f, 0.038891f, 0.099983f, 0.011722f, -0.043444f,
    -0.153404f, 0.036673f, -0.023887f, 0.203263f, -0.181769f, -0.010725f, -0.132632f, -0.004858f,
    0.262963f, -0.336325f, -0.047558f, -0.102269f, -0.069023f, -0.156633f, -0.059794f, -0.176029f,
    0.055576f, 0.161842f, 0.063920f, 0.206354f, -0.249861f, 0.191430f, -0.103509f, 0.057608f,
    0.036257f, -0.167711f, 0.057177f, 0.000334f, 0.079303f, 0.062400f, 0.010105f, -0.174262f,
    0.024683f, -0.214504f, -0.097963f, 0.151130f, -0.049396f, 0.206896f, -0.164108f, 0.206799f,
    -0.240317f, 0.012087f, -0.006006f, 0.099863f, 0.117084f, 0.209717f, -0.099037f, 0.205534f,
    -0.093964f, 0.092098f, 0.137543f, -0.172453f, -0.101609f, -0.075459f, -0.201711f, 0.030465f,
    0.086249f, 0.138844f, 0.175131f, -0.092664f, -0.124256f, -0.166755f, -0.093639f, -0.121548f,
    -0.186881f, 0.030411f, -0.161470f, -0.053754f, -0.231596f, -0.252654f, 0.038880f, 0.029504f,
    -0.109167f, -0.000788f, -0.292699f, -0.001081f, 0.030813f, 0.082675f, -0.154918f, -0.055007f,
    0.065217f, 0.019969f, 0.102239f, -0.001495f, -0.003606f, -0.161103f, 0.000255f, -0.085017f,
    -0.114166f, -0.149054f, 0.388070f, 0.001226f, 0.038683f, 0.166440f, 0.200541f, -0.055381f,
    -0.235857f, 0.215121f, -0.030305f, 0.090542f, -0.025212f, 0.007664f, 0.136598f, 0.078650f,
    -0.042776f, 0.090785f, 0.019036f, 0.007254f, 0.029023f, 0.066931f, 0.180879f, 0.051574f,
    -0.105404f, 0.077931f, 0.124777f, -0.073785f, -0.057929f, 0.070887f, 0.138792f, -0.108081f,
    0.047214f, 0.039158f, 0.045405f, -0.057370f, -0.036569f, -0.040759f, -0.034117f, -0.017517f,
    -0.045796f, 0.028885f, 0.030725f, -0.008302f, 0.036292f, -0.031841f, 0.029455f, 0.016479f,
    0.016168f, 0.007073f, 0.009020f, 0.000092f, 0.016048f, -0.016393f, -0.049664f, -0.045713f,
    0.013780f, 0.013931f, -0.036111f, 0.042477f, 0.042181f, -0.007280f, -0.034246f, -0.044661f,
    -0.007438f, -0.053483f, 0.001895f, 0.020707f, 0.055883f, -0.035574f, 0.014839f, -0.028636f,
    0.045150f, 0.024368f, 0.009787f, -0.019271f, -0.010316f, -0.050216f, 0.017932f, 0.025647f,
    0.015386f, 0.053833f, -0.040593f, -0.030979f, 0.024922f, -0.056732f, -0.016412f, 0.039824f,
    -0.036508f, -0.050943f, -0.045775f, -0.021145f, 0.014214f, -0.012393f, -0.019970f, 0.009479f,
    -0.047145f, -0.051937f, 0.034520f, -0.025712f, -0.023568f, 0.057971f, 0.016121f, -0.002790f,
    0.049505f, -0.039979f, -0.006048f, 0.054068f, 0.040662f, 0.019879f, -0.017528f, -0.001704f,
    0.057845f, 0.040614f, 0.042900f, 0.026325f, -0.054298f, 0.009873f, -0.026391f, -0.037087f,
    0.008001f, -0.010994f, 0.008641f, 0.017359f, -0.023578f, -0.052099f, 0.052693f, -0.007041f,
    -0.038771f, -0.009685f, 0.019431f, 0.010078f, 0.054285f, 0.004039f, -0.055030f, 0.007465f,
    0.035838f, -0.004259f, 0.003443f, 0.032196f, -0.009709f, 0.047602f, -0.015062f, 0.054040f,
    0.005270f, -0.055749f, 0.010997f, 0.052660f, 0.007006f, 0.005695f, 0.011775f, -0.008958f,
    0.021755f, -0.051198f, -0.019762f, 0.040309f, 0.020420f, -0.057154f, 0.011715f, 0.020518f,
    -0.050522f, 0.053542f, -0.007699f, 0.025809f, -0.039985f, 0.007611f, -0.024213f, 0.013962f,
    -0.037196f, 0.051713f, -0.017954f, -0.012406f, -0.032334f, -0.042224f, -0.006400f, 0.013423f,
    -0.045993f, -0.023468f, -0.021712f, -0.009177f, -0.036857f, 0.015570f, -0.029688f, -0.015313f,
    -0.000946f, 0.027964f, -0.058349f, -0.037280f, 0.004250f, -0.047720f, -0.054191f, 0.029467f,
    -0.053236f, 0.041254f, -0.050383f, -0.040392f, 0.039545f, 0.058576f, 0.038222f, -0.002268f,
    -0.003215f, 0.008514f, -0.058490f, 0.046237f, 0.004073f, 0.016936f, 0.030068f, -0.047485f,
    0.052709f, -0.017619f, 0.007938f, -0.044902f, 0.021978f, -0.013336f, -0.000594f, -0.003524f,
    0.044838f, -0.050118f, 0.051295f, 0.019633f, -0.048091f, -0.000230f, 0.006711f, 0.048109f,
    0.051174f, -0.012066f, 0.002871f, -0.029746f, -0.035806f, 0.010146f, -0.048958f, -0.027955f,
    0.031198f, -0.038045f, 0.040064f, 0.031271f, -0.006163f, 0.051897f, 0.015959f, 0.056862f,
    -0.043912f, -0.002306f, 0.019936f, -0.040871f, -0.013792f, 0.014377f, 0.020113f, -0.056797f,
    0.002555f, -0.039976f, -0.047679f, 0.020777f, 0.053105f, -0.036302f, 0.052632f, 0.013313f,
    0.032509f, 0.006254f, -0.015667f, -0.055630f, -0.021517f, -0.030725f, 0.013415f, 0.004215f,
