#ifndef __SVQ8_QAT_MODEL_INT8_ALT_H__
#define __SVQ8_QAT_MODEL_INT8_ALT_H__

#include <stdint.h>

// Source: tensor_001_arith.constant_shape-[192]_dtype-<class 'numpy.float32'>.npy | Shape: (192,)
static const float sequential_dense_3_BiasAdd_ReadVariableOp_SV_INT8_ALT[192] = {
    -1.0245088338851929, -0.03357177600264549, -0.05338681489229202, -0.3127695620059967, -0.10009104013442993, -0.024195773527026176, 0.028079042211174965, -0.010234273970127106,
    -0.007809060625731945, -0.01933267153799534, -0.004671638831496239, -0.11801712214946747, -0.2672278881072998, -0.04209895059466362, -0.2817615568637848, 0.004990247078239918,
    0.01336557138711214, -0.05689641833305359, -0.023842012509703636, -0.040126584470272064, -0.05213483050465584, -0.2572101354598999, -0.10171429067850113, -1.0164427757263184,
    -0.1144992932677269, -0.5215392708778381, 0.027837421745061874, -0.22672802209854126, -0.8654414415359497, -0.056618355214595795, -0.36091017723083496, -0.012892508879303932,
    -0.348061203956604, -0.26260727643966675, -0.16202667355537415, -0.30027252435684204, -0.047971464693546295, -0.019778352230787277, -0.192129984498024, -0.2059478610754013,
    -0.03920133039355278, -0.08561273664236069, -0.21760810911655426, -0.08232986927032471, -0.102602019906044, -2.2229385375976562, -0.034385379403829575, -0.01615477353334427,
    -0.0032730090897530317, -0.30332162976264954, -0.04995082691311836, -0.03210055083036423, -0.00871595274657011, 0.009700736962258816, -0.03116626664996147, 0.005224660504609346,
    -0.06113087385892868, -0.9210900068283081, -0.05017919838428497, -1.2493005990982056, -0.041123006492853165, -0.02852528542280197, -0.05088711529970169, -0.024924708530306816,
    -0.051125090569257736, -0.5879819989204407, -0.024528058245778084, -0.601858913898468, -0.07832900434732437, -0.2298419326543808, -0.005032328888773918, 0.042821433395147324,
    0.08400509506464005, -0.1751319020986557, -0.021371427923440933, -0.4383423626422882, -0.09293008595705032, -0.8280259966850281, -0.035850390791893005, -0.10605694353580475,
    -0.9423309564590454, -0.010291213169693947, -1.006089687347412, -0.022913368418812752, -0.04564961791038513, -0.04159732535481453, -0.10973756015300751, -0.7806634902954102,
    -0.020203780382871628, -0.09679083526134491, -0.30058616399765015, -0.1284170299768448, -1.2091009616851807, -0.3835298717021942, -0.5299001336097717, -0.003965963609516621,
    -0.04090222716331482, -0.18387895822525024, -0.025700611993670464, -0.654802143573761, -0.20696918666362762, -0.11948922276496887, -0.3816550672054291, -0.5833641886711121,
    -0.18568207323551178, -0.5241929292678833, -0.09077328443527222, -0.28128352761268616, -0.5728620290756226, -0.017154311761260033, -0.0326305516064167, -0.8338573575019836,
    -0.12521664798259735, -0.004699452314525843, -0.24159951508045197, -1.4335485696792603, -0.2645875811576843, -0.27247509360313416, -0.10463753342628479, 0.03427955508232117,
    -0.060600679367780685, -0.021198416128754616, -0.40541303157806396, -0.03215715289115906, -0.0618530698120594, -0.6939860582351685, 0.001672826474532485, -0.40004226565361023,
    -0.15861578285694122, 0.007821566425263882, -0.5360899567604065, -0.073899045586586, 0.005520878825336695, -0.5713407397270203, 0.045195192098617554, 0.06455361098051071,
    -0.06705429404973984, 0.12071855366230011, 0.010184061713516712, -0.04006427153944969, -0.045085348188877106, -0.09468929469585419, -0.005004401784390211, -0.0008645859779790044,
    -0.33531513810157776, -0.004684377461671829, -0.30566731095314026, -0.11423922330141068, -0.03221125155687332, -0.6989997625350952, -0.6495949029922485, 0.014417839236557484,
    0.01004298496991396, -0.29072922468185425, -0.047822579741477966, -0.07472852617502213, 0.00836322270333767, -0.08121704310178757, -0.00815025344491005, -0.18485140800476074,
    -0.4651140868663788, -0.03368010371923447, -0.5103817582130432, -0.03613826632499695, -0.011714656837284565, -0.3279692232608795, -0.2795759439468384, -0.08376779407262802,
    -0.01588740199804306, 0.021760277450084686, -0.21481500566005707, -0.35315629839897156, -0.04578381031751633, -0.02165905572474003, -0.0037192408926784992, -0.05722082778811455,
    -1.201930284500122, -0.08110809326171875, -0.7957297563552856, -0.012571626342833042, -0.008006937801837921, -0.13134261965751648, 0.00944383256137371, -0.008925002999603748,
    -0.03142165020108223, -0.2556552588939667, -0.07010693103075027, -0.05963203310966492, -0.7920056581497192, 0.013307206332683563, -0.5845323204994202, 0.013203362002968788,
};

// Source: tensor_002_arith.constant1_shape-[192]_dtype-<class 'numpy.float32'>.npy | Shape: (192,)
static const float sequential_dense_2_BiasAdd_ReadVariableOp_SV_INT8_ALT[192] = {
    0.08928188681602478, 0.13994815945625305, 0.05935477837920189, -0.024273386225104332, -0.012457532808184624, -0.06415305286645889, -0.7000375986099243, -0.01898341067135334,
    -0.14667019248008728, -0.05029313638806343, -0.21668635308742523, -0.1647920459508896, 0.015527763403952122, -0.24366235733032227, 0.38346853852272034, -0.17800410091876984,
    -0.19839204847812653, -0.1409519463777542, 0.03691313788294792, -0.24623256921768188, 0.23685698211193085, -0.11885840445756912, 0.0886210948228836, 0.04667673259973526,
    -0.5977388024330139, -0.7685477137565613, -0.26435425877571106, -0.04584160074591637, -0.17323924601078033, -0.06160349026322365, -0.28116050362586975, -0.050158556550741196,
    -0.2426781952381134, -0.4343888461589813, 0.19602449238300323, -0.012948268093168736, -0.015660131350159645, -0.01624404452741146, 0.02009737864136696, -0.42630159854888916,
    -0.06438855081796646, -1.22699773311615, 0.04275866970419884, -0.18954676389694214, -1.0183449983596802, 0.35284459590911865, -0.0893118754029274, -0.24037732183933258,
    0.3239845335483551, -0.03508589044213295, 0.09776313602924347, 0.17830367386341095, 0.0027903267182409763, -0.06761869788169861, -0.2849927246570587, -0.4544970989227295,
    0.20914188027381897, 0.09288488328456879, -0.5232729911804199, 0.22428882122039795, 0.14271849393844604, -0.3908279240131378, 0.16745997965335846, -0.23417973518371582,
    -0.3633229732513428, 0.1872415542602539, -0.07107354700565338, -0.1628827601671219, 0.1167386844754219, -0.06239825487136841, -0.4802241921424866, -0.02324402704834938,
    -0.06555833667516708, -0.22729213535785675, -0.10257364064455032, -0.15306229889392853, 0.15682825446128845, 0.324962854385376, 0.14626146852970123, -0.16037195920944214,
    0.11527025699615479, 0.24561084806919098, 0.16752183437347412, -0.17355462908744812, -0.18035291135311127, 0.055140089243650436, 0.2648775577545166, -0.24454128742218018,
    0.16066358983516693, -0.1949547678232193, -0.19435623288154602, 0.06475668400526047, -0.01881667785346508, -0.29813098907470703, -0.05827941372990608, 0.12946146726608276,
    -0.7843351364135742, -0.24074286222457886, -0.13168179988861084, 0.1387094259262085, 0.28126633167266846, 0.2145199179649353, -0.8288232088088989, -0.6342586874961853,
    -0.333613783121109, 0.14096038043498993, -0.10812393575906754, -0.6089797019958496, 0.013666302897036076, -0.4443017542362213, -0.0660475417971611, -0.01674511283636093,
    -0.16629591584205627, -0.5994351506233215, -0.24288904666900635, 0.22827553749084473, 0.07805363088846207, -0.3698284924030304, -0.3012230098247528, -0.4293198883533478,
    0.19448363780975342, 0.4412902593612671, -0.23243866860866547, 0.31414398550987244, -0.36228659749031067, 0.2211790233850479, 0.11484435945749283, 0.12253504991531372,
    -0.4121462106704712, 0.08155281096696854, 0.11477383226156235, -0.11328300833702087, 0.3307955861091614, 0.060547277331352234, -0.0814775824546814, -0.15638960897922516,
    -0.19544872641563416, 0.08628667145967484, -0.20805473625659943, -0.23441657423973083, 0.09816444665193558, -0.07189960777759552, -0.9415164589881897, 0.09899073094129562,
    -0.000950725341681391, -0.13467635214328766, 0.007571166846901178, -0.3908163905143738, -0.012286928482353687, 0.5440400242805481, -0.04118091240525246, -0.019587090238928795,
    -0.01758483797311783, -0.1379520297050476, -0.09408055245876312, -0.21557961404323578, 0.06213659420609474, -0.11978081613779068, -0.25387686491012573, -0.22677840292453766,
    -0.34188681840896606, 0.018295295536518097, 0.1000257357954979, -0.17051410675048828, 0.4455277621746063, -0.021408986300230026, 0.11964782327413559, 0.006679658778011799,
    -0.14431805908679962, -0.22721964120864868, -0.32533663511276245, -0.09940571337938309, -0.3331577777862549, 0.15286146104335785, -0.3168812096118927, 0.1532832384109497,
    -0.1794966161251068, -0.3678036034107208, -0.02102874219417572, -0.15063568949699402, -0.113979771733284, -0.07169850170612335, -0.21282000839710236, -0.8391704559326172,
    0.08603998273611069, -0.09635287523269653, 0.12215393036603928, -0.07982302457094193, 0.1947782337665558, -0.08237290382385254, -0.017466923221945763, 0.1597689986228943,
};

// Source: tensor_003_arith.constant2_shape-[192]_dtype-<class 'numpy.float32'>.npy | Shape: (192,)
static const float sequential_dense_1_BiasAdd_ReadVariableOp_SV_INT8_ALT[192] = {
    -1.190414309501648, -1.9420830011367798, 0.04994908720254898, 0.1240556463599205, -0.43161875009536743, 0.19679388403892517, 0.0015507193747907877, 0.02924635447561741,
    0.18650846183300018, -0.663078784942627, 0.1036091297864914, -0.44335421919822693, -0.7752981781959534, 0.0263676755130291, -0.8330552577972412, 0.10652574896812439,
    0.03717799484729767, -0.335705429315567, 0.15381179749965668, -0.2243480384349823, 0.22845131158828735, -0.667878270149231, 0.05146094411611557, 0.1349734514951706,
    1.5461013390449807e-05, 0.24624192714691162, 0.5123595595359802, 0.1240314468741417, 0.11712312698364258, 0.22103287279605865, -0.32213619351387024, 0.023980695754289627,
    0.17164911329746246, -0.21163861453533173, 0.17491331696510315, 0.11017647385597229, 0.10152542591094971, 0.12039687484502792, -0.4238157868385315, -0.016512757167220116,
    -0.16254685819149017, 0.13143576681613922, -0.1616639345884323, 0.14932867884635925, -0.28398317098617554, 0.17567721009254456, 0.2197452336549759, -0.17988112568855286,
    -7.343688048422337e-05, -0.023037435486912727, -0.8977830410003662, 0.054695844650268555, 0.1336614489555359, 0.6208274960517883, 0.07581654191017151, -0.6302548050880432,
    0.12454131990671158, -0.23218238353729248, 0.19228218495845795, 0.12181489169597626, -0.4782915413379669, 0.11277344077825546, -1.0251787900924683, 0.0567091666162014,
    -0.17588962614536285, -0.12228972464799881, -0.19751299917697906, -0.14699944853782654, -0.06019406020641327, 0.0960846021771431, -1.0469005107879639, -0.061510633677244186,
    -0.7636672854423523, 0.03097475692629814, 0.0745578184723854, 0.10157538205385208, 0.055153682827949524, 0.06958023458719254, 0.09551730006933212, -0.30677443742752075,
    0.17583847045898438, -0.08005132526159286, 0.34144219756126404, 0.023541470989584923, -0.3429177403450012, -0.19811999797821045, 0.12888912856578827, -0.0506729781627655,
    0.24741612374782562, 0.13731735944747925, 0.23509295284748077, -0.2964949309825897, -0.3965727686882019, -0.12582211196422577, 0.0194073673337698, -0.3582949638366699,
    -0.6064797639846802, -0.1279928982257843, -0.7699694633483887, 0.03712228685617447, 0.0486823134124279, -0.12226288765668869, 0.03373941406607628, -0.7664077281951904,
    0.04420294612646103, -0.853009045124054, -2.2237038612365723, -0.11914890259504318, 0.24157893657684326, -0.24039368331432343, 0.08951187878847122, -0.4912220537662506,
    0.3400496542453766, 0.04942716285586357, 0.08874452114105225, 0.13247449696063995, -0.7375762462615967, -0.2997405529022217, 0.04891471564769745, -0.7029837965965271,
    0.008970440365374088, 0.16343069076538086, 0.4765142798423767, 0.49294644594192505, -0.26165059208869934, -0.45177337527275085, -0.034730054438114166, -0.3577224910259247,
    -0.27315273880958557, -2.0434505939483643, -0.6904926896095276, 0.0049140178598463535, 0.08630724251270294, -1.5048160552978516, 0.24456237256526947, 0.14947296679019928,
    0.07143127173185349, 0.1003483384847641, 0.25525376200675964, -0.30758821964263916, -0.9674468040466309, 0.29798606038093567, 0.15329013764858246, -0.6500737071037292,
    0.0001438574108760804, -0.012050372548401356, 0.08276829123497009, -0.22505156695842743, -0.6507363319396973, -0.8207029700279236, 0.15148770809173584, -0.9975477457046509,
    -0.4180450141429901, 0.0356256403028965, -0.010847093537449837, -2.2920732498168945, 0.21862562000751495, 0.03178464248776436, -0.11843188852071762, -1.4049744606018066,
    -0.3690390884876251, 0.09378962963819504, 0.15988360345363617, 0.0983789712190628, -0.2793768644332886, -0.0003412996884435415, 0.13335122168064117, -0.5352909564971924,
    0.05051635578274727, -1.2019239664077759, -1.7307792901992798, 0.06563063710927963, -0.12342659384012222, 0.0693199411034584, 0.15126721560955048, 0.12746275961399078,
    0.22363588213920593, 0.07161813229322433, 0.056406375020742416, -0.16483187675476074, -1.0919004678726196, 0.053227659314870834, 0.27675455808639526, 0.30090704560279846,
    0.3088435232639313, 0.011849763803184032, 0.09683333337306976, 0.00011623718455666676, 0.21212521195411682, -0.21156729757785797, -0.028095699846744537, 0.2952970862388611,
};

// Source: tensor_004_arith.constant3_shape-[256]_dtype-<class 'numpy.float32'>.npy | Shape: (256,)
static const float sequential_dense_4_BiasAdd_ReadVariableOp_SV_INT8_ALT[256] = {
    0.22801628708839417, 0.11882983893156052, 0.3231344223022461, 0.05041579529643059, -0.44241875410079956, 0.21543599665164948, -0.38409802317619324, -0.022562652826309204,
    -0.13128015398979187, -0.21256695687770844, -0.7949677109718323, -0.3806385099887848, 0.2890951633453369, -0.1716119796037674, -0.024963127449154854, -0.000725679739844054,
    -0.08033580332994461, 0.18041090667247772, 0.38180387020111084, -0.15217112004756927, 0.2435346245765686, -0.2743692994117737, -0.6134698987007141, -0.03255119547247887,
    0.21346840262413025, -0.013926904648542404, 0.10018044710159302, -0.3153360188007355, 0.384604275226593, -0.03483578562736511, -0.5906193256378174, 0.21570132672786713,
    -0.18341954052448273, 0.005183142609894276, 0.09326528012752533, -0.05107700452208519, 0.12963560223579407, 0.18972699344158173, 0.40026265382766724, 0.2792988419532776,
    -0.22015132009983063, 0.22329296171665192, 0.003094065934419632, -0.1467047780752182, -0.026170894503593445, 0.34062886238098145, 0.1959771066904068, 0.15238025784492493,
    0.04819274693727493, -0.028096210211515427, 0.3977048099040985, -0.4166748821735382, -0.7208362817764282, -0.3946458399295807, 0.5428375005722046, 0.28427624702453613,
    0.31561604142189026, -0.10428013652563095, -0.48139092326164246, -0.19113998115062714, 0.3566065728664398, 0.8942610025405884, -0.4135664403438568, -0.09462122619152069,
    0.16674105823040009, -0.24038037657737732, -0.06956023722887039, 0.6617365479469299, 0.5013163685798645, -0.005774369928985834, 0.01313259731978178, -0.5218725204467773,
    0.41913747787475586, 0.2817499339580536, -0.4429543614387512, -0.2279544472694397, 0.5362502336502075, 0.113796167075634, -0.1277245730161667, -0.042662132531404495,
    -1.450792908668518, -0.18405677378177643, -0.5085716843605042, -0.26705402135849, -0.14801572263240814, -0.24643519520759583, 0.35304054617881775, -1.3829751014709473,
    0.5505774617195129, 0.007495839148759842, 0.29625195264816284, 0.31288403272628784, 0.05014817416667938, -0.34714603424072266, -0.4970287084579468, -0.22515583038330078,
    -1.1693525314331055, 0.13615520298480988, 0.16692209243774414, 0.04567794129252434, -0.012216472998261452, -0.10183141380548477, 0.17945188283920288, 0.2718692719936371,
    0.18791113793849945, -0.3383801579475403, -0.7127938270568848, -0.20084041357040405, 0.13030646741390228, 0.0908428207039833, -0.15684446692466736, 0.5752611756324768,
    -0.059012606739997864, -0.053200941532850266, -0.6951149106025696, -0.5670667290687561, -0.10254966467618942, -0.18196973204612732, 0.44659119844436646, 0.658580482006073,
    -1.0853713750839233, -0.292021781206131, -0.6489447355270386, -0.07627364248037338, 0.03002648614346981, 0.3252655565738678, -0.0063330745324492455, -0.027452828362584114,
    -0.04756057634949684, 0.022984828799962997, 0.048942528665065765, -0.11695138365030289, -0.3613259792327881, 0.08532076328992844, -0.028664642944931984, -0.09495832026004791,
    0.0649276077747345, 0.04361538216471672, 0.1736406832933426, -0.049666550010442734, 0.22959470748901367, 0.33282870054244995, 0.009939325973391533, 0.016766980290412903,
    0.3285065293312073, 0.2718047499656677, -0.030305683612823486, -0.171631321310997, 0.3780873715877533, 0.3661675751209259, 0.011268375441432, -1.0262689590454102,
    0.10636232793331146, 0.11435885727405548, 0.0924045741558075, -0.2624647319316864, 0.13051798939704895, 0.03466884046792984, -0.38948318362236023, 0.3721463978290558,
    0.4662451446056366, 0.08390633761882782, -0.5324659943580627, 0.004513824358582497, -0.01550000999122858, 0.5008721351623535, 0.35639920830726624, 0.19583547115325928,
    0.26051172614097595, 0.13886594772338867, 0.22020559012889862, -0.06988503038883209, -0.13746629655361176, 0.37496569752693176, -0.21444621682167053, 0.10759987682104111,
    0.4235963225364685, 0.03422839567065239, 0.291071355342865, -0.30772867798805237, -0.39609628915786743, -0.1514546275138855, 0.4323877692222595, -0.575229823589325,
    -0.02852737158536911, 0.18333077430725098, 0.23432469367980957, -0.4085894823074341, 0.020605692639946938, 0.17796680331230164, -0.12056495249271393, -0.13301776349544525,
    0.14121045172214508, 0.07061755657196045, -0.012647666037082672, 0.2549327313899994, 0.2822614312171936, 0.30527469515800476, -0.11807534843683243, 0.25683820247650146,
    0.051770105957984924, 0.13205896317958832, -0.28896236419677734, 0.25277185440063477, 0.5675739049911499, 0.08025802671909332, -0.013587161898612976, -0.3139541447162628,
    -0.2907608449459076, -0.07804569602012634, -0.6585107445716858, -0.016999397426843643, 0.2216815948486328, 0.061422280967235565, 0.24266241490840912, -0.589824914932251,
    0.16416124999523163, 0.07448824495077133, 0.5089223980903625, -0.059044014662504196, 0.5273622274398804, 0.09538312256336212, -0.17399729788303375, 0.14809487760066986,
    0.1989612877368927, -0.056064605712890625, 0.0796361193060875, 0.11548309773206711, 0.06225278601050377, 0.16151466965675354, 0.6257535219192505, 0.3026517927646637,
    0.035280946642160416, 0.12753213942050934, -0.620211660861969, -0.11391569674015045, 0.0736984983086586, -0.028857102617621422, 0.5662559866905212, 0.030365807935595512,
    -0.4736599326133728, 0.15213096141815186, 0.16949482262134552, 0.06583892554044724, -0.13920103013515472, -0.00967384036630392, 0.06577900052070618, 0.2722860872745514,
    -0.4529086947441101, 0.09839257597923279, -0.8760078549385071, -0.05972995236515999, 0.05823531374335289, 0.09242188930511475, 0.02412406913936138, 0.06121205538511276,
};

// Source: tensor_006_tfl.pseudo_qconst_shape-[256 192]_dtype-<class 'numpy.int8'>.npy | Shape: (256, 192)
static const int8_t sequential_dense_4_MatMul_SV_INT8_ALT[49152] = {
    3, -24, 6, 6, 9, 13, 1, 11,
    12, 7, -11, -4, 27, 63, -3, 3,
    13, 13, -31, 0, -9, 0, 8, 6,
    13, -17, 55, -19, 32, 5, -5, -17,
    14, 5, -6, 30, 13, -10, 0, 1,
    10, -3, 3, 11, 1, -127, 5, 28,
    20, -15, 1, 24, 4, 11, 32, 3,
    4, 1, -5, -22, -21, 15, -1, -13,
    22, -3, 1, 22, 11, -14, 10, 3,
    6, 24, 29, -2, 11, 14, 9, 18,
    -33, 6, -40, -2, 3, 3, 66, 12,
    8, 23, -19, -1, -12, 30, -4, 21,
    5, 24, 6, -15, 5, 2, 11, -15,
    10, 1, 12, 4, -2, 13, -1, 3,
    -17, 15, 3, 5, -3, 11, 6, 7,
    -8, 40, 4, -10, -18, 13, 8, -5,
    42, -6, 21, -4, -3, -12, 5, 29,
    0, 20, 10, 4, 27, -19, 13, 7,
    47, 10, 4, 26, 3, -5, 16, 12,
    16, 26, 28, 32, 11, -34, 14, 6,
    -7, 36, 6, 1, 7, 4, 15, 12,
    10, -16, -20, 15, -1, 6, -2, -1,
    9, 10, 13, -3, 15, 9, 8, 10,
    31, 46, 32, 2, -24, 4, 16, -5,
    -42, -30, 20, 32, 12, 12, 11, 9,
    18, -10, 21, 16, 3, -69, 17, 13,
    25, 1, -8, 7, 34, 3, -37, 0,
    8, 27, 62, 5, -8, 5, -3, -7,
    103, -8, 32, 11, 38, 10, 2, 1,
    6, -8, -19, 15, 7, -127, -25, 22,
    9, 10, 26, -15, 18, -2, -12, 67,
    -13, -1, 12, 28, -11, 14, 8, 0,
    11, -17, 19, 9, 16, -4, 27, 8,
    20, -36, 14, 28, -6, 31, 7, 15,
    28, -3, -2, 24, -2, 1, 21, 6,
    2, 36, 17, 6, -13, 3, 39, -22,
    6, 16, 4, 45, 33, 34, -15, -13,
    -19, 16, 24, 49, 8, 22, 16, -12,
    -27, 20, 18, -82, -39, -25, 59, 5,
    14, 5, 8, -11, 6, -1, 16, -1,
    -29, 24, -13, 6, 9, -9, -12, 6,
    27, 7, -9, -1, -29, 2, 11, 3,
    -75, 31, 21, 35, 9, 6, -13, 12,
    2, 1, -42, -5, -4, 21, 4, -20,
    -15, -6, 34, 19, 18, 2, 32, 3,
    14, -33, -1, -1, 12, -9, -7, 5,
    -12, -4, -13, 0, -16, 14, -15, 21,
    62, -73, 41, 1, -7, 6, -14, -21,
    21, 58, 2, -52, -22, 3, 18, 16,
    7, -70, -25, -7, -11, -35, 43, 20,
    13, 13, 31, 8, 89, 13, -5, 3,
    3, 1, -5, 14, 21, 2, 32, 43,
    2, -12, 14, -7, 48, 27, -70, -94,
    6, 4, -4, 20, -6, -29, -1, -16,
    15, 20, -25, 8, -8, 0, -26, 3,
    48, 22, 38, -19, -15, -3, 19, 37,
    -13, -2, -6, 19, -11, -15, 23, 12,
    18, 8, 10, 23, 37, 1, 32, -3,
    -16, -18, 36, 8, 9, -6, -8, 30,
    21, 31, 2, 46, 5, 9, 56, -14,
    2, 37, 7, -14, 1, 1, 45, 46,
    52, -12, 4, 11, 0, 36, 35, 12,
    -11, 26, -5, -68, -54, -21, 18, 21,
    18, 33, -9, 8, 39, 6, 14, 1,
    -12, 39, -21, 20, 6, -3, -4, -7,
    -4, 3, 1, 2, 5, -127, 21, 19,
    -42, 22, -16, 4, 3, -5, -56, 8,
    2, 3, 10, 12, 6, 40, 26, 33,
    -4, 47, -25, 11, -9, -34, 29, 5,
    17, 9, -90, -7, 20, 5, 19, 17,
    -37, 14, 45, 21, -7, 5, 20, 11,
    -6, -32, 20, 11, -1, 38, -11, 12,
    98, 66, -18, -49, 9, 7, 14, 0,
    11, 11, 13, -24, 21, 6, 69, 8,
    -1, -17, 33, 17, 80, 7, 21, 6,
    16, 12, -46, 65, 27, 56, 46, 70,
    2, 10, -29, 30, -11, -6, -10, -29,
    23, -15, 4, 19, 3, -8, -16, -26,
    10, -17, 24, 34, -37, 19, -14, 31,
    81, 50, 6, -25, -20, 25, -21, -7,
    12, -22, -2, 51, 12, 58, 24, 38,
    12, 39, -25, 34, 85, -18, 43, 21,
    -90, 0, -5, -6, 61, 18, -15, -13,
    12, -58, 31, 4, -5, 127, -41, 8,
    33, 7, 12, -35, -26, -5, 22, 121,
    66, 101, 13, 5, 11, 21, 27, 9,
    -69, 2, 13, 75, 9, -4, 36, 39,
    -18, -12, 0, 71, 31, 9, 31, 26,
    -19, 19, 54, 92, -32, 9, 47, 14,
    -2, 19, -7, -23, -6, -101, 21, 15,
    -35, 44, -18, -45, -9, 20, -53, 21,
    -36, -68, -28, 37, -15, 89, 25, -3,
    67, 4, -41, 8, 17, 25, -8, -6,
    18, -64, -37, -29, 16, -30, 55, 16,
    -57, 29, 47, -7, 94, 22, 53, 48,
    -54, -9, -39, 16, -37, 18, 63, 4,
    6, 2, 9, -2, 2, 2, 0, -1,
    -4, -10, -45, 3, -2, -5, 2, -2,
    4, -2, 5, 0, -4, 1, 3, 4,
    2, 0, -1, -1, -1, 3, 3, -2,
    -7, 4, -1, 5, -3, 0, 2, 2,
    -4, 2, 0, 6, 1, 3, -4, 4,
    -10, -8, -29, 2, -8, -1, -3, -9,
    9, 4, -2, 10, -35, -1, -14, 10,
    -5, 3, 0, 0, -1, 11, -1, 4,
    11, 12, 7, 8, 12, -5, 13, 5,
    4, 2, -10, -2, 1, 6, -7, 2,
    -3, -5, -12, 13, -6, 5, -3, 8,
    8, -8, -1, -1, -12, -13, 9, 8,
    -7, 5, -2, -15, 0, 3, -4, 0,
    -127, -1, -13, 4, 7, 10, 11, 5,
    2, -3, -2, 4, 5, 6, 6, 0,
    -8, 1, 4, 17, -3, 12, 2, 4,
    13, 7, 1, -3, -2, -1, -2, 6,
    -13, 5, 5, 8, 2, -2, -2, -3,
    6, 0, -1, -1, 4, 10, 21, 3,
    6, 3, 10, -1, 0, 4, -3, 2,
    1, -36, 7, -2, 16, 0, 1, -1,
    7, 8, 2, -8, 7, 4, 10, 10,
    -10, -6, -7, 2, 3, 2, 3, 4,
    36, 3, 78, 85, 58, -7, 3, 10,
    19, 63, -29, 57, 59, 33, 28, 34,
    21, 16, -5, 20, 4, 14, -30, 10,
    15, -18, -12, -5, 52, 3, -34, -10,
    -15, 8, -20, 27, 25, 4, 54, 70,
    10, 1, 11, 4, 38, -63, 14, 29,
    9, -17, -16, 44, 8, 24, 27, -40,
    -24, -5, -21, 21, -43, 40, -1, 28,
    64, 1, -8, 27, 127, -21, 35, -4,
    33, 37, -40, -28, -21, 17, 2, -13,
    42, 32, -72, -7, 27, 13, 27, -21,
    -1, -1, 33, -54, 50, 34, 26, 55,
    25, 41, 20, -16, 25, 5, -23, -6,
    4, 7, 17, 1, 2, 8, -35, 10,
    -40, 13, 3, -67, 25, 47, -54, -3,
    16, -29, 3, 12, -25, -13, 29, 2,
    31, 5, 37, 21, -19, 12, 4, 18,
    40, 17, 8, 20, -69, 99, -6, 7,
    84, 44, 9, -39, 7, 11, 102, 28,
    24, -72, -14, 76, -25, 19, 8, -54,
    -15, 32, 25, 7, 5, 38, 4, 19,
    5, -37, 83, 69, 44, -24, 5, 20,
    -57, -11, -6, -20, 16, 13, 32, 5,
    19, 19, 1, -10, 41, 16, 47, -22,
    -21, 83, 2, 77, 44, 30, 13, -7,
    -11, -4, -16, 25, 1, -1, 5, -14,
    4, 11, -94, 31, -98, -2, 29, 12,
    17, 18, -45, 5, 19, 7, -2, 5,
    -24, -55, 106, -6, -14, -39, 57, 69,
    21, 29, -58, 3, 13, -127, -52, 2,
    6, 39, 52, 34, 32, 20, 12, -11,
    18, 24, 31, 92, -55, 1, -56, -24,
    1, -31, -11, -2, 10, 49, -1, 14,
    1, -44, 10, 94, 47, 7, -45, -9,
    58, 14, 25, -9, -39, 2, -13, 38,
    7, -10, -24, 66, -38, -107, -102, 59,
    3, 9, 4, 123, -12, -43, -34, 4,
    12, 10, -69, -25, 20, 17, 9, 25,
    -50, 5, 1, -21, 109, -65, -13, 51,
    8, -13, 40, 1, -23, 5, -32, 40,
    3, 24, 34, -44, 27, -5, 18, 29,
    62, 11, 4, 30, -26, 100, -1, 26,
    31, -18, 60, 24, -14, -2, 57, -9,
    23, 14, 70, -5, 11, 29, -27, 30,
    24, 20, -19, 10, 48, -14, 28, 21,
    0, -101, 83, 69, 45, 25, 27, -7,
    49, -10, 61, -11, -1, 13, -8, 1,
    -9, -1, -50, 28, -86, 8, 1, 7,
    -27, -28, -84, -5, -2, 5, 6, -2,
    -18, -16, -14, -1, -24, -6, 18, 16,
    20, 5, -54, 11, -43, 22, 19, 5,
    19, 37, 1, 24, 18, -5, 51, 10,
    -26, 22, 41, -21, 10, 21, 14, 14,
    2, -2, -32, 33, 1, 20, -52, 16,
    9, -56, 9, 3, 2, 0, -3, 57,
    42, 13, 39, -7, -28, -28, -28, -30,
    -5, -13, -11, -43, -23, -34, 5, -10,
    14, -64, 22, 29, 47, -41, 12, 36,
    -5, -23, 44, -12, -41, 7, -31, 15,
    23, 28, 27, 48, -50, -3, 31, -31,
    -9, 7, -4, 9, -3, -5, -16, 24,
    -11, -31, -23, 11, 22, 28, 34, 42,
    -33, 5, -25, -60, 5, -30, 33, 6,
    -17, -10, -12, -7, 86, 18, 22, -3,
    -21, 38, -57, -14, 9, 4, -22, 41,
    -26, 29, -29, -12, 24, 12, 6, 9,
    -72, 23, -33, 36, -19, 34, -21, -3,
    16, 55, 22, 23, -15, -37, 23, 59,
    -52, 22, -61, 9, -35, -6, 3, 43,
    19, -127, 29, 45, -6, 10, -10, 2,
    17, 39, 59, 4, -43, -22, -21, 12,
    -40, -39, -20, 28, 17, 17, -12, 41,
    2, 5, -5, 7, 6, 1, 4, 3,
    -5, -17, -21, 6, 6, -5, 13, 3,
    5, 4, -23, 2, -28, 1, -1, 0,
    5, -10, 17, -2, 7, -1, -6, 0,
    -1, 1, -6, 3, 10, -11, 3, 5,
    5, 3, -6, 5, 3, -16, -11, 5,
    12, 7, -8, 11, 0, 2, 3, -4,
    8, 6, -2, 3, -24, -2, -19, -17,
    7, 4, -5, -5, 8, 4, -6, -3,
    -4, -18, -4, -2, 2, -5, -1, 10,
    -3, -1, -12, 2, 0, 2, 8, 4,
    -3, 12, -5, 4, 5, -23, -6, 10,
    1, 15, 0, -9, 1, -7, 6, 0,
    -4, -8, -3, -3, 1, 4, 16, 4,
    -54, 10, -2, -15, 2, -11, -1, 1,
    3, 22, 2, 0, -12, 12, -3, 1,
    -2, 3, 1, -12, 4, -9, -5, 7,
    2, 3, 9, -2, 7, 6, 7, 8,
    -17, 6, 6, 13, -5, -1, 1, 7,
    4, 8, 12, 15, 2, -3, -4, -5,
    -4, 5, -12, 5, 2, -11, 12, 8,
    5, -127, 9, 7, 10, 1, 2, -1,
    -13, 6, 12, -16, 0, 6, -10, 1,
    7, -9, 13, -1, -20, 10, 8, 2,
    -34, -25, -1, -42, -27, -17, 9, -2,
    8, 14, -20, -13, 2, -2, 28, 19,
    15, 0, -5, 4, -26, -1, -4, -8,
    13, 15, 6, 50, -29, 20, 20, 42,
    20, 32, -17, -11, -18, -9, -44, -53,
    12, 12, 19, 8, -4, -21, 3, -3,
    -6, -11, -15, -16, -5, 13, -8, 14,
    22, 11, 2, -19, -29, 0, -14, -28,
    4, 62, 0, 21, -8, 20, 11, 10,
    2, 19, -19, -20, -7, -10, 8, -5,
    18, 1, -6, -9, 23, -1, -9, -14,
    -11, -11, 9, -5, -2, 40, 19, -6,
    21, -11, -2, -12, -18, 20, 3, 34,
    1, 41, 4, 0, 10, -18, 23, -8,
    -45, -10, 13, -10, -28, 30, 25, -6,
    2, 15, 4, 23, -3, -6, 25, 17,
    -18, 12, 17, 26, -3, -1, 8, 1,
    7, -4, 12, -4, -9, -36, 17, 5,
    -17, 27, -8, -22, 16, 19, -27, 11,
    -14, -27, -7, 7, -17, -33, -17, -3,
    2, -43, 3, 8, -10, 50, 11, -2,
    5, -127, -18, -25, -29, -27, 16, 19,
    -20, 35, -19, 6, 11, 7, 11, 1,
    6, -2, 17, -5, 16, 6, 18, 2,
    5, -8, 60, 127, 39, -3, -10, -14,
    24, 20, 1, 24, -23, 10, 13, 9,
    12, 37, -3, 23, 0, 25, 49, -9,
    25, -11, 10, -26, 11, 13, 5, 33,
    47, -64, 33, -6, -20, -12, 58, 62,
    36, -10, -33, 23, 7, -74, -1, 8,
    25, 5, 42, -3, 25, 18, 3, -34,
    -6, 5, 23, 81, -10, 2, -25, 25,
    -24, -39, -18, 35, 20, -1, -3, 5,
    -1, -26, 41, 73, 20, 32, -21, 16,
    33, 41, 30, 1, 18, 3, 21, 10,
    27, -17, -22, -17, 36, 2, -99, 52,
    22, 50, 9, 32, -27, -38, 6, 4,
    38, 47, 53, -46, 12, 44, -2, 51,
    -20, 14, 30, 34, 18, -34, -5, 42,
    24, -4, 19, 14, -65, -25, 29, 11,
    47, 30, 17, -10, -8, -24, 18, 29,
    31, 13, -30, -6, 4, 33, 23, 28,
    48, 13, -11, 11, 1, 17, 50, -23,
    16, -19, -25, -7, -20, 56, -6, 24,
    32, 49, 26, 17, 39, -4, 22, 10,
    24, -53, 33, 19, 101, -7, 14, 11,
    14, -17, -5, 15, 47, 10, -5, 19,
    67, 8, -21, 5, -96, 1, -57, 49,
    -66, -25, 63, 15, -7, 4, 0, 13,
    10, 13, -29, 19, 13, 11, -13, 1,
    20, 2, 4, -7, -34, -8, -12, 19,
    2, -8, 46, -11, -17, -9, -29, -32,
    20, 38, 10, 20, 33, -11, 3, 12,
    24, 2, 16, -4, -4, -24, 22, 35,
    14, 3, -18, 0, 18, -2, 21, -11,
    -27, -4, -1, 31, -61, 15, -21, -34,
    33, 56, 10, 7, -3, 2, -5, -11,
    28, 66, -13, -5, -23, 17, -7, -8,
    5, 49, 9, -8, -7, 7, 40, 6,
    1, 50, -17, 5, -13, -52, 35, 45,
    10, 16, -9, -28, 13, 9, -12, -36,
    -73, -19, -8, 26, 1, -24, 31, -12,
    -97, 14, 14, -27, -42, 44, -16, -9,
    -13, 52, 0, -42, -21, 20, 0, -5,
    6, 21, 8, -1, 20, 35, -5, 17,
    36, 18, 47, -8, 20, 35, 14, 18,
    37, -13, -10, 19, 5, -8, 14, -7,
    32, 8, 10, -24, 27, -14, 33, -17,
    -27, 5, 21, 7, 10, 0, 25, 7,
    -6, -127, 24, -35, 8, 29, -15, -12,
    -18, 23, -26, 4, -17, 10, 33, -13,
    47, 14, 62, -13, 37, 5, -19, 8,
    53, 52, -69, -85, -9, 26, 5, 13,
    5, 11, 13, -6, 1, 33, 2, -9,
    -9, 20, 17, 0, 73, 16, 4, 8,
    -12, 9, -55, -37, 27, 1, 32, 35,
    -70, -30, 16, 16, 9, 50, 2, -11,
    -4, -11, 9, 9, 11, -5, -23, 12,
    -8, 13, -3, 37, -20, 7, -2, -4,
    18, -17, 20, -71, 19, -10, 25, 17,
    -7, -64, 2, -5, 2, -17, 13, 4,
    12, -10, 30, 40, 63, 0, 22, 29,
    -13, -8, -5, 3, 10, 9, -26, 13,
    12, -29, 28, 7, -28, -5, -56, -27,
    0, -33, 11, 24, -26, -34, 15, 26,
    56, -21, 26, -53, -14, 29, -19, 7,
    6, 1, -7, 16, 43, -19, -38, 11,
    12, -103, -3, 15, 113, 17, 21, -11,
    19, -2, -29, -23, -10, 8, -7, 8,
    -32, 5, -33, 5, 12, -10, -15, -2,
    -19, -16, -15, -13, -4, -3, -21, -1,
    14, 2, -26, 10, 4, 26, 3, 22,
    22, 60, -64, 1, 10, 6, -51, 30,
    8, -13, 11, -10, -17, 21, 16, 6,
    -31, -6, 23, 25, 29, 3, 5, 9,
    -116, -8, -127, 11, -56, 4, 35, 6,
    19, 12, -2, -101, -22, 27, 13, 24,
    -19, -63, -79, -94, 47, 23, 76, 10,
    24, 8, -72, 0, -21, 15, -44, 33,
    26, 9, -12, 51, 31, 27, -29, 49,
    -50, 78, 2, 59, 85, 57, -43, -56,
    6, 5, 42, 42, -14, -85, -3, 49,
    -28, -50, -44, 56, -21, -11, -2, -26,
    92, 3, -33, 4, -88, -4, -57, -9,
    27, 31, 0, -17, -6, -53, 6, 20,
    -18, -67, 78, 11, 103, -41, 70, 79,
    -125, 21, 21, 8, 2, 33, 23, 29,
    3, 33, -40, 26, 24, 21, 125, -5,
    40, 3, -12, -15, 4, 31, 46, 90,
    42, 10, 42, 25, -16, 41, 2, -19,
    -71, 7, -53, 40, -17, 102, 16, 1,
    -4, -33, 6, 35, 124, 63, 59, 12,
    -14, 44, -4, 73, 17, 104, -3, 41,
    -2, 22, 19, -51, 58, -111, 38, 38,
    -40, 38, -18, 54, 5, 3, -123, 18,
    36, 70, -47, 44, 39, -21, 1, 19,
    11, 105, 44, 20, 0, 49, 11, 37,
    23, -103, -63, -65, 46, 33, 26, -2,
    69, 90, -7, -74, 44, 28, -51, 35,
    -99, -22, -10, 27, 127, 43, 70, -41,
    -30, -3, 31, 8, -11, 20, 0, 11,
    11, -2, -37, 9, -4, 27, -4, -8,
    13, 9, 13, -16, 9, 8, -6, -5,
    -2, 6, 61, 7, 1, 5, -13, -6,
    36, -16, 0, 22, 7, 37, 10, 5,
    14, -21, 74, 10, 2, -43, 74, 19,
    -13, 54, 3, 0, 13, -1, 7, 8,
    4, -22, 21, 2, -44, 0, -8, 6,
    -12, -16, 1, 17, -16, -12, 17, -3,
    15, 25, 51, -35, 4, -9, 5, 53,
    -23, 27, -23, 1, -10, 9, 127, -4,
    19, 1, -8, -32, -3, -40, 5, -6,
    10, -30, 0, -15, 11, 1, 2, -31,
    -4, 15, 12, 4, -5, -7, 23, -1,
    -104, -5, 20, 1, 19, 31, 24, -1,
    -3, 5, -9, -28, 34, 15, 2, -10,
    36, 23, 16, 13, 5, 25, 14, 14,
    -26, 19, -4, 2, -9, 6, 18, 7,
    54, -5, 17, 31, -3, -7, -10, -12,
    6, -2, -61, -34, 17, -37, 32, 15,
    -14, 26, 18, 3, 8, -7, 12, 2,
    12, -73, 3, -17, 21, -9, -4, -14,
    31, 3, -42, 31, -4, 14, 15, 29,
    41, 58, -20, 1, 51, -4, 9, 2,
    -19, -6, 13, 12, 5, 11, 3, 10,
    1, 4, -44, 4, -5, -13, 11, -9,
    13, -5, 6, -5, -38, 4, -19, -5,
    -8, -17, 52, -12, -4, -25, -13, -10,
    32, -8, 2, -3, -2, 4, -7, -8,
    4, -5, 7, -6, 9, -39, -4, 9,
    -3, 32, -25, -3, 40, -5, -17, 40,
    -4, -4, 5, 6, -63, -1, -48, 17,
    -10, -27, 8, -4, -11, 5, -1, -6,
    21, 17, -2, -3, -2, -6, -6, 11,
    -28, -2, -5, 6, -14, 2, 12, 0,
    0, -8, -3, 22, -10, -76, 23, -12,
    -2, 0, 6, 16, 5, -4, 14, -44,
    -29, -9, -1, -5, 0, 5, 9, -13,
    -127, 12, 6, -40, -5, -7, 14, 4,
    17, 29, -2, -7, 10, 14, -14, -9,
    -20, -2, -2, -16, 2, -11, 5, 9,
    22, 14, -17, -3, 17, -11, -5, 2,
    -30, -2, 18, -15, -2, -14, -36, 1,
    14, 7, -11, -5, 28, -24, 56, -22,
    -19, 11, 10, -12, -1, -37, 5, -4,
    5, -35, 0, -5, 18, 17, -2, 6,
    -44, -11, -14, 3, -8, 15, 20, 19,
    40, -22, 26, -7, 4, 4, 6, -2,
    -36, 31, 12, 3, 24, 23, -8, 5,
    23, 24, -8, 13, -11, 94, -25, -3,
    0, 7, -108, 13, -21, 14, 58, 11,
    6, -45, -28, -12, -3, -36, 15, -28,
    -96, -26, -6, -10, -41, 22, 30, 27,
    25, 9, 12, -21, 9, -104, 4, 14,
    15, 46, 10, 8, -18, 8, 23, -56,
    -11, 7, -2, -6, -19, 29, -8, 13,
    -32, -68, 14, 45, 19, 29, 15, -4,
    3, -38, 28, 29, 58, 25, 1, 39,
    10, 35, -38, 14, 5, 0, 5, 37,
    7, -22, -4, 24, 39, -51, -87, 37,
    6, -9, 12, 13, 0, -18, 6, -56,
    20, -38, 3, -44, -10, 24, -16, 3,
    1, 33, -5, 31, 65, 7, -118, 22,
    10, -42, 13, 14, 35, 22, -6, 15,
    78, -27, 12, -34, 9, 21, 27, 35,
    11, 21, -15, 8, 24, 13, 18, -5,
    127, -42, 21, -22, -1, -10, 71, -6,
    23, -7, 7, 12, 29, -19, -17, 20,
    56, 94, 11, 19, 29, -30, -31, -7,
    4, -37, 4, 11, 43, 21, 18, -11,
    1, 6, 25, 3, 30, 19, -24, -8,
    -80, 67, -58, 18, -27, -7, -28, 28,
    62, 93, -24, 127, 26, 3, 13, 5,
    -8, -16, -22, 9, 18, -37, 41, 5,
    7, 17, 43, 4, 27, -8, 27, 3,
    19, 16, -15, 20, 24, 11, 27, 22,
    22, -26, -12, 23, -1, -19, 42, 54,
    4, 7, -34, 15, 7, 22, -42, -19,
    6, 59, -8, 32, 30, 23, -23, 44,
    48, 50, -1, 10, -11, 8, -32, 32,
    6, -41, -8, 9, 28, 50, -8, 7,
    -12, 9, -34, 22, 12, 2, -17, -18,
    84, -14, -10, 9, -23, 0, -22, 9,
    3, -16, 20, 8, -22, 23, -16, 3,
    0, 49, 7, 3, 10, -16, 77, 43,
    30, 22, 10, 9, 17, 6, 15, 11,
    3, 3, 14, 42, 32, -59, 40, 34,
    23, 23, 10, 21, -25, -10, -8, 5,
    -30, 1, 39, -1, -4, -14, 13, 17,
    -3, 0, -9, 25, -2, 71, -6, 16,
    -37, 36, 22, 9, -4, -8, 30, 11,
    -9, -28, 29, 41, -16, 87, 18, -2,
    39, -11, -30, -6, -4, -33, 5, 8,
    -3, -11, 42, 68, 45, 1, 29, 0,
    -39, -20, 55, -10, 29, 17, 25, 42,
    48, -17, 10, 9, -47, 15, 30, -5,
    6, -17, -20, 33, 23, -4, -1, -4,
    13, 27, -13, 5, 5, 19, 36, 28,
    12, 6, 14, 18, 13, 18, 29, 0,
    28, -25, -5, -2, 2, -8, 31, 21,
    -16, -30, -62, -10, -15, 13, 34, 32,
    4, -5, 22, 16, 19, -30, -4, -7,
    10, -22, 13, 7, -9, 3, -4, -12,
    31, 13, -23, -5, -1, 17, -29, 15,
    12, -48, -5, 2, 36, 24, 1, -6,
    0, 50, -33, 2, 11, -15, 2, 48,
    -6, 4, -127, 1, 48, 2, 2, 10,
    -3, -22, 28, -20, -12, 6, -32, -15,
    15, 46, 15, -69, 11, 12, 40, 10,
    -6, 8, 30, -2, 8, 34, -5, 26,
    -11, 13, 0, -15, 13, -22, -12, 12,
    4, -17, -7, 23, 25, -1, 38, 10,
    8, 7, -2, -8, -21, -1, 8, 10,
    -15, 0, -13, -3, 8, -21, 7, 9,
    0, 37, -33, 16, -4, 11, 2, 10,
    4, -19, -21, 62, -4, -6, 20, -21,
    8, 58, -33, 9, -5, -3, 9, 4,
    14, -5, 30, 23, 69, -19, 14, 3,
    -63, -7, 55, -26, 24, 13, 20, 18,
    -27, 15, -22, 0, -22, 12, 1, 5,
    1, -9, -13, 14, 10, 1, -2, -2,
    7, 7, 5, 4, -6, -19, -8, 7,
    3, 13, -26, 10, -18, 11, 17, 3,
    12, 23, -41, -18, 9, -15, 27, -2,
    -4, -53, 10, -3, -8, 13, 18, 16,
    -8, 1, 12, 7, 8, -21, 0, 1,
    -21, -6, 15, 1, 11, 5, -8, 22,
    6, 0, 10, 2, -1, 3, -5, -13,
    -9, -127, -1, 6, 11, 10, 3, -5,
    -5, 2, 3, 19, -11, 20, -8, 5,
    26, -6, 0, 3, 7, 3, -27, 5,
    8, -32, 26, 11, -3, -84, -30, -26,
    -9, 18, 8, 9, -26, -56, -3, -5,
    1, -14, 6, -39, 4, 13, -36, 15,
    -7, -13, -4, 4, 9, -58, 11, 7,
    3, -61, 6, -1, 26, -9, 2, -8,
    5, 13, -4, -35, -1, -20, -2, 10,
    -5, 2, -53, 6, 4, 3, -24, 4,
    0, 3, 0, 8, -1, 8, 13, 1,
    2, 5, -17, 10, -3, -8, -14, 13,
    3, 18, -11, 2, -2, -25, -11, 7,
    0, -29, 11, 21, 17, 1, 4, 1,
    8, -41, 17, 7, 6, 1, -5, -3,
    -16, 4, -61, 4, -18, -4, -7, 12,
    10, 15, 0, 25, -2, 0, 1, -1,
    9, 7, 0, 8, -1, -33, -23, -2,
    -2, 1, 15, -3, 42, -13, -4, 0,
    -1, 26, -47, -13, -7, 5, 6, -23,
    -23, -36, 6, -3, -4, -18, 12, 16,
    -16, 1, -22, 3, 2, -15, -2, -3,
    -16, -4, -19, 10, 17, 9, -1, -3,
    -13, 0, -1, -12, -6, -1, -1, 13,
    0, -44, 5, -11, 5, 6, 8, 5,
    9, 21, 15, -4, -28, 13, 1, -32,
    63, -7, -8, -13, 5, 3, -24, -23,
    -1, -28, 6, 1, -58, 5, -104, -10,
    7, -20, -2, -1, -4, -10, 3, 21,
    9, 7, -1, -47, 3, -17, -55, -14,
    -17, -6, 3, 15, -5, -39, 15, 12,
    -7, -72, -4, -3, -31, -12, 6, -15,
    4, -40, 21, -11, 4, -25, 6, 13,
    -7, 9, -3, 12, 9, 33, -6, -5,
    6, 9, 8, 20, 0, -10, 27, 3,
    -6, 16, 6, -17, -6, 23, 22, 7,
    -2, -30, -30, 7, -10, -11, -21, -3,
    -7, 3, 16, 19, -14, 7, -6, -1,
    31, -11, -21, 5, 8, -4, 13, 10,
    10, 20, -127, 3, -82, -3, 1, -5,
    -11, -23, -71, -17, -16, 1, 11, -7,
    -1, 6, 19, -6, -9, -3, 14, 16,
    28, 7, -26, 10, -57, 11, 40, 9,
    27, 28, 35, 60, -20, -2, 77, -7,
    49, 58, 19, -5, -17, 4, -24, -27,
    6, 36, -12, 19, 3, 35, 5, -9,
    27, -2, 18, -26, 9, 16, 7, 101,
    43, 32, 6, -46, 12, -19, -4, -7,
    -19, 33, 19, 8, -49, 46, 14, 18,
    -41, -15, -4, 59, -10, 8, 19, -20,
    13, -22, -7, 16, 31, -13, -18, 15,
    4, 61, 28, 13, -17, 6, 127, -14,
    7, 36, -6, 17, 28, 30, -1, 0,
    -25, -9, -8, 80, 37, 2, 41, 20,
    16, 30, 17, 27, 0, -4, 37, 11,
    4, 74, 14, 14, 40, -8, 19, 14,
    -14, -7, -4, -40, 9, -11, 2, 27,
    0, -7, 22, 0, 17, -23, 23, -19,
    -74, 37, 4, 16, 13, 15, -12, 9,
    -11, -3, 71, -10, -19, -18, -23, 15,
    19, -18, -8, 5, 10, 1, 38, 12,
    7, 19, -3, 28, -40, -21, 5, 10,
    -4, 16, 55, 5, 12, 0, -40, 8,
    33, 12, 119, 17, 34, 8, -10, 37,
    4, -7, -10, -22, -34, -7, 15, 1,
    -7, -57, -30, -40, -3, -38, 20, 11,
    7, -6, -24, 3, 34, -8, 2, 6,
    8, 32, -26, 46, -13, 20, 35, 2,
    -5, 36, 21, 8, -5, 1, -49, -51,
    0, 14, 8, 7, -25, 39, 6, -14,
    4, -38, -12, -8, -1, 8, -15, 10,
    39, 19, -4, 29, -29, 1, 0, -12,
    -6, 33, -4, 7, -16, 40, 9, 11,
    2, -49, -19, 4, -1, -19, 22, -21,
    -38, -8, 5, -5, -5, 3, -15, 0,
    3, 11, -22, 32, -28, 43, 49, -10,
    12, 7, -12, 29, 2, 12, -21, 32,
    -29, 26, -23, 28, 16, -8, -2, -13,
    -65, 3, -4, 17, -50, 18, 43, 12,
    -8, 2, 5, 8, 42, 12, 9, 9,
    -37, 25, 9, 43, -1, 31, 6, 11,
    12, 8, 24, -19, 25, -126, 6, 4,
    -60, 15, 3, -17, 0, 0, -127, 15,
    -9, 3, 1, -5, 9, 12, -12, 0,
    -5, -16, 4, -5, -4, 23, 7, -5,
    1, -83, -57, -11, -2, 1, 7, 2,
    -34, 29, 21, -15, 5, 7, -2, 19,
    -14, -2, 7, 1, 57, 14, 10, 7,
    26, 25, 0, 43, 15, -5, -4, 13,
    -8, -7, -5, 23, 11, -58, 18, -6,
    -11, 9, 13, 3, -20, -2, -9, 10,
    7, 39, -73, -41, 17, -17, -1, -19,
    -28, -54, -7, 5, 7, -36, 18, 23,
    -18, -18, -28, -7, 7, 111, -20, -8,
    -21, 10, 11, 18, 21, 4, -15, -16,
    -20, 27, -2, 13, -23, -6, -10, 9,
    2, -65, -2, -26, 20, 22, -11, -25,
    12, -12, -29, 14, -38, 12, -21, -35,
    118, -5, -29, -2, -9, 8, -79, -18,
    -8, -36, -1, 7, 6, -24, -127, 0,
    -5, 32, 0, 1, -12, -38, -25, 53,
    -6, -30, -17, -74, 6, -6, -57, 4,
    -28, -19, 2, 18, 7, -70, 26, 12,
    12, -75, 3, -9, -37, 1, -30, -24,
    -1, 4, 30, -31, -6, -54, -16, 11,
    7, 4, -43, 19, 3, 46, -16, -6,
    -1, 4, 19, -23, -10, 2, 38, 6,
    -9, 6, -3, 14, -2, 41, 6, -26,
    -1, -11, -7, -2, -9, -20, -15, 1,
    -12, -45, 25, 41, 12, 15, 0, 5,
    -2, -50, 8, -18, 9, 11, 16, 10,
    12, 19, -100, 3, -60, 3, 25, -16,
    -30, -37, 12, -78, -23, -4, 1, 0,
    7, 5, 8, -16, 14, -1, -2, 2,
    8, 4, -13, 2, -18, -1, -4, 7,
    4, 20, 26, 4, -32, 15, -8, -1,
    13, 21, -11, 30, 11, 6, -93, -106,
    2, 4, -6, -2, -14, -48, 7, 31,
    -3, -20, 14, -11, 3, 14, 12, -11,
    -19, -7, -16, 29, 3, 18, 23, -1,
    20, 60, 3, 21, -18, 13, -7, 10,
    -8, 1, -4, 29, 1, 31, 5, -4,
    -127, 12, -1, 0, 13, 6, 10, 8,
    -7, 24, -10, 10, 10, 24, -6, 18,
    16, -3, -8, 13, 17, 20, 5, -5,
    -35, 11, 19, 13, 3, -2, -5, -13,
    5, 4, -4, 0, -40, 42, 22, -3,
    2, 5, 15, -3, -19, 1, 24, 10,
    17, 10, 23, 17, 3, 38, 5, 12,
    40, 1, 15, 13, 9, -99, 11, 2,
    -2, 1, -19, 13, 3, 12, -86, 4,
    6, 10, 2, -8, 9, -23, -17, -15,
    -4, -14, 44, 0, 20, 49, 9, -3,
    7, -12, -67, -55, -7, 21, -10, 5,
    -8, 27, -25, -9, 14, 6, -9, 8,
    13, -4, 15, -19, 20, 3, -5, 6,
    -15, 28, 127, 27, -2, 4, 3, 20,
    17, -73, -26, -7, 10, -11, -17, -8,
    -20, 7, 6, 8, -3, 13, 47, 14,
    -9, -22, -33, 8, 7, -4, 23, -31,
    11, -7, 13, 48, 8, 44, 22, 21,
    3, 13, 56, -25, -3, -101, 65, 17,
    -17, 45, 6, -33, -18, 21, 11, -52,
    -25, -5, 0, 75, -14, 4, -19, 6,
    -12, -16, 24, -10, 27, 38, 16, 0,
    13, 28, 64, 11, 36, 12, 27, -11,
    25, 18, 26, -4, 89, 9, 13, 21,
    24, 3, 21, -12, 43, 10, -5, 46,
    -8, -34, 1, 18, 15, 27, 40, -43,
    -34, 5, 23, 23, -6, 0, -30, -25,
    -55, 15, 8, 76, 11, 63, 5, -1,
    36, -49, -22, 43, -17, 25, -38, 2,
    49, 1, -21, 96, -12, 71, 19, 31,
    34, 20, 36, 0, 104, 9, -6, -17,
    50, -59, 9, 25, 2, -7, 28, 8,
    33, 71, -17, -14, 80, 21, 12, 33,
    41, 19, 115, -8, 40, -9, -23, -22,
    20, -86, 3, -13, 82, 41, 3, -4,
    12, 1, -31, 23, 9, 8, 5, 48,
    0, 43, -40, -12, 73, 0, -10, 25,
    0, 8, 4, 52, 13, 1, 7, -5,
    23, -50, 38, 30, -11, -77, -19, 8,
    -3, 7, 2, 7, 127, -4, 18, -1,
    4, 24, -17, -9, -13, 10, 21, -7,
    9, -24, 27, 4, 7, -10, 12, 14,
    4, 23, -24, 11, 11, -44, -8, -13,
    3, 9, 39, -25, -2, 11, -13, -10,
    -12, -2, 15, 34, 7, 3, 14, 19,
    -9, 4, 5, 19, -18, 1, 8, 22,
    15, -5, 46, 21, -10, 26, 13, -30,
    80, -11, 3, 10, -23, -4, -6, 32,
    3, 21, -18, 15, -28, 15, -5, -6,
    3, 8, 7, 19, 11, 7, -7, 7,
    22, 26, 9, 12, 3, 6, -3, -16,
    -13, 1, 19, 27, -11, -13, 47, 18,
    2, -13, 5, -19, -41, -17, 2, -2,
    -6, 19, 0, 10, 15, 8, 18, 5,
    6, 3, 8, 17, 42, 20, 4, 15,
    -42, -6, 0, 53, 10, -4, 25, -4,
    -14, 62, -12, -38, -1, 41, -14, 49,
    17, -30, 15, 8, 9, 0, 21, -13,
    0, -37, 8, 26, 15, 8, 1, -9,
    43, 1, -3, 29, 1, 1, 30, 3,
    27, -20, -14, 7, -11, -2, -43, 6,
    -4, 18, 31, 29, 7, 4, 4, 6,
    1, -9, -38, 6, 6, -6, -12, -2,
    8, 7, 9, 2, 1, -1, 6, -2,
    1, -1, 44, -6, 11, 3, -18, -26,
    69, 1, 0, 21, 26, -5, 4, 3,
    4, 0, -5, 6, 3, -75, 1, 6,
    7, 31, -25, 14, 19, 25, -8, 27,
    -2, 6, 6, 15, -46, 18, -10, -10,
    8, 15, -2, 12, 19, 14, 1, 10,
    7, 25, 16, -5, -7, 35, 6, 1,
    3, -7, -4, 12, -5, 6, 15, 5,
    11, 9, 15, -26, 16, 38, 6, -2,
    -2, 9, 7, -18, -29, -16, 51, -17,
    6, 14, 13, -13, 2, 0, 3, 12,
    -127, 2, 16, -7, -10, -8, 31, 6,
    12, 23, -8, 2, -5, 7, -10, -1,
    0, -13, 13, 12, 0, -20, 6, 10,
    10, 13, 3, 5, -3, 5, -5, -5,
    3, 9, 3, 14, -2, -3, 10, 14,
    0, -4, -3, 0, 6, -1, 35, -6,
    -1, -6, 47, -3, 5, 9, 4, 6,
    2, -63, -5, 8, 7, 8, -8, 10,
    11, 1, -3, 5, 1, 10, 25, 30,
    60, -19, 23, -2, -22, -9, 1, 6,
    -5, -21, -1, 15, 17, 6, 9, 1,
    16, -27, 1, 23, 8, -19, 11, 13,
    10, 7, -17, 10, 35, 11, 23, 3,
    15, -6, 43, 5, 7, 5, 11, 24,
    -4, 1, -22, 6, -2, -7, 12, 16,
    4, 10, -14, 29, 16, -127, -21, 12,
    13, -6, 11, -9, -7, 8, 14, -7,
    16, -3, 21, -23, -8, -8, 16, 7,
    -1, 3, 4, 11, -11, 6, 4, 11,
    5, 27, 9, 11, 12, -19, 8, 22,
    4, -2, -41, -6, 26, 7, 24, 4,
    4, 17, -10, 10, -55, 2, -27, 15,
    13, 18, 8, -31, 13, 7, 6, 8,
    -17, 14, 5, -6, 10, 9, 27, 2,
    -7, 16, -2, -33, 31, 6, 38, 10,
    6, 28, 8, 12, -30, 10, 21, 4,
    -3, 3, -1, 9, 2, -4, 8, 8,
    -1, 2, 11, 14, 34, 9, 16, 25,
    -53, 20, 10, 42, 5, 6, 0, 5,
    1, 17, 28, 13, -1, 9, 2, 15,
    11, -15, -26, 7, -8, -2, 19, 15,
    19, -4, 37, 27, 35, 2, 16, -2,
    -33, 27, 3, 5, 12, -3, 16, -3,
    15, -11, 6, 14, -34, 13, 2, 25,
    45, 24, -50, -33, 17, 35, 1, 2,
    21, 29, -32, -23, 33, -12, 6, 9,
    23, -6, 18, 2, 70, 0, 8, 6,
    13, 29, 27, -27, 12, -5, 64, -4,
    1, -62, 44, 46, -14, 34, 61, 46,
    5, 17, 79, 22, 15, -84, 22, 23,
    -2, -22, -8, 21, 21, -2, -21, 16,
    43, -15, -20, 10, -60, 7, -33, 28,
    23, -33, 22, 68, 25, 37, 12, 26,
    14, 86, 11, 113, -44, 51, -6, 127,
    27, -11, -26, 9, 50, 5, 1, 35,
    -14, 10, 7, 75, -73, -2, -54, -91,
    31, -12, 22, 75, -8, -12, 27, -6,
    -7, 7, 12, -31, -1, 55, -2, -11,
    -84, 21, -35, 21, 75, -23, 88, 28,
    -13, -76, 22, -18, 100, -14, 88, -1,
    14, 42, 26, -14, 15, -7, 20, 29,
    61, 26, -49, 4, 3, -20, 25, 13,
    -8, 40, 41, 95, -3, -18, -3, 12,
    -8, 19, -23, 25, -2, -9, 44, 18,
    33, 58, 53, 25, 27, 1, 27, -4,
    4, -85, 30, 26, 49, 20, 27, -28,
    15, 11, 58, -21, 79, 17, 34, 25,
    -83, 29, -70, 13, -28, 4, 13, -28,
    19, 44, 59, 34, 9, 21, -2, 24,
    -26, 9, -104, -11, 0, 58, 7, -9,
    13, 10, 7, -13, -44, 15, 5, 14,
    3, 11, -1, -7, 89, 0, 46, -27,
    30, -18, 26, 36, 10, 19, 32, 35,
    5, -15, 70, 26, 6, -2, 47, 20,
    -21, 3, -104, 44, 19, -10, 7, 5,
    44, 21, 21, 37, -111, -32, -63, 16,
    -19, -61, -1, -46, 14, 12, -4, -31,
    17, 76, 18, -7, 56, 2, 2, 1,
    32, 49, 16, -19, 0, 19, 36, -12,
    43, -11, -4, 18, -16, -61, 0, 41,
    -13, 1, 16, 27, -10, -54, 60, -16,
    -5, -36, -37, -10, -7, 0, -13, 37,
    -127, -9, 3, -22, 51, 8, 19, 24,
    -9, 14, 6, 2, 49, 38, -28, -35,
    28, 27, 0, 32, 15, 15, -12, 24,
    8, 29, -17, 26, 33, 27, -13, 30,
    79, -2, 49, 37, -8, -10, 43, -19,
    26, 52, 30, 14, 31, -3, 71, 10,
    -17, 54, 41, 22, -4, -46, -11, 25,
    0, -126, -1, 51, 57, 56, -3, -7,
    21, -20, 37, -16, 3, -11, 51, 25,
    13, 112, -15, 41, 1, 8, 33, -4,
    -62, 11, -22, -67, -39, -1, 12, 0,
    11, -3, -1, -26, -22, -11, 38, 9,
    18, 12, 15, -7, 26, 4, -5, 6,
    11, -2, 25, 60, -53, 22, -4, 50,
    -18, 54, 18, 5, -4, 17, -72, -68,
    -1, 1, 12, 14, -41, -78, 14, 10,
    3, -18, -2, -3, -1, 14, -1, 19,
    43, 7, 0, 11, -41, 14, -47, -10,
    -14, 69, -10, 3, -33, 10, 14, 18,
    8, -16, 20, -13, 28, -13, 14, 20,
    -50, -10, 35, 11, -18, 11, 5, 2,
    0, 17, -6, 4, 4, -11, 1, 15,
    27, -6, -15, 26, 27, 7, 8, 58,
    43, 28, 29, 20, 8, -5, 33, -21,
    -48, -2, -11, 20, -82, 40, 26, 5,
    -8, 34, 4, 0, 41, 16, 35, 23,
    -11, 29, 1, 28, 5, 42, 6, 17,
    -22, 16, 35, 32, 37, 9, 27, 8,
    -26, 26, -51, -10, -3, 6, -61, 9,
    -4, -2, -2, -14, 6, -21, 37, 11,
    -12, -1, 9, 2, 6, 34, -4, 15,
    13, -11, -61, -127, -21, 17, 3, -3,
    -21, 75, -36, 11, 17, 16, 16, 31,
    5, -20, -3, -18, 67, 13, -6, 18,
    -9, -26, 23, -69, -31, -22, 2, -3,
    8, 2, -23, -44, -1, 14, 14, 12,
    2, -4, -9, -3, -19, -11, -24, 5,
    6, 9, -59, 1, -25, 21, -33, 11,
    -59, 25, -3, -7, 7, -14, -127, -84,
    -33, 18, 18, 2, -37, 38, 21, 4,
    -50, -32, -9, -11, -3, 17, 12, -89,
    -7, 2, 3, 12, -18, 11, -4, 0,
    19, 43, -8, -3, -21, -21, 7, 6,
    3, 1, 1, -18, 17, -32, 26, -40,
    -108, 11, 12, 5, 15, 5, 14, -3,
    -12, -19, -50, 2, 32, 47, -23, 25,
    16, -47, -44, -12, -16, 14, -19, 18,
    -6, 25, 0, -37, -4, -19, -52, -35,
    -26, -19, -45, 13, -60, 41, 4, -3,
    -2, -43, -7, 4, -31, 8, 17, 11,
    3, 2, 6, 34, 4, 34, 13, 10,
    3, 5, 14, -5, 5, -82, -13, -4,
    22, 13, 5, -1, 12, 11, -63, 8,
    2, 9, -37, -26, 11, -10, -12, 10,
    -5, -18, 14, 4, 5, 47, 8, -6,
    2, -53, -50, -61, 0, 5, -15, 13,
    24, 27, -71, 7, -12, 18, 0, 5,
    -55, 14, -50, -16, 29, 5, 8, -4,
    6, 2, -16, 35, 41, 14, 1, 5,
    7, 45, -41, 42, 17, -1, -23, -20,
    17, 35, -40, 5, -127, 11, 33, 22,
    9, -27, 62, -51, 7, -29, 11, -35,
    -9, -3, 27, 14, -1, -36, 40, 50,
    13, 8, -16, 3, 30, -100, -19, 44,
    8, 5, -60, 11, 31, 16, 12, 2,
    -18, -11, 12, 11, -42, 19, -42, 30,
    -5, 30, 0, 13, 6, 5, -16, -11,
    -10, 25, 29, 18, -62, 48, -29, 31,
    -1, 10, 30, -5, 10, 18, 13, 20,
    15, 2, 18, -13, -33, -78, -50, 21,
    2, 11, 16, 19, -27, -115, 19, -77,
    18, -35, 25, -112, -1, 0, 25, 12,
    -12, -5, 2, 22, 52, -33, -23, 1,
    5, 39, 12, -8, -24, 4, -20, -8,
    52, -10, -6, -85, -1, -55, -11, 25,
    -5, 4, -2, 11, 3, 92, 6, 2,
    61, -15, -32, 1, -11, 11, 104, 0,
    36, 2, 28, 1, 1, -41, 19, 13,
    21, 27, 16, -7, 12, -17, -13, 30,
    6, -4, 99, 42, 3, 31, -7, -7,
    24, 19, -11, 17, 30, 7, -16, 2,
    24, 5, 5, -13, -72, -11, -6, 39,
    -27, -31, 14, 39, 20, 9, -1, -2,
    19, 18, -45, 13, 3, 26, 0, 11,
    14, 1, -4, 10, -73, 0, 23, -4,
    12, -9, 45, 1, -14, -21, -7, -11,
    -1, -7, -2, -16, -3, 5, 26, 34,
    11, 21, -4, -7, 14, -53, -2, 11,
    16, -5, -20, -13, 41, -1, 12, 9,
    -4, 8, -13, 1, -48, 20, -30, -9,
    19, -9, 3, 11, 3, -16, -13, -10,
    7, 22, 8, 1, -27, 29, -34, 26,
    4, 19, 1, 1, -8, -1, 21, 6,
    -6, 22, 1, 15, 16, -127, 7, 19,
    1, 16, 11, -13, 12, -11, 8, -39,
    -12, -16, 9, 11, 0, 7, 11, -12,
    -49, 6, -6, 19, 15, -20, -14, -1,
    3, 22, 9, -6, 6, -5, -1, 4,
    25, -8, 0, -49, 12, -19, 12, 14,
    23, 10, 6, 8, 20, 41, 11, 5,
    54, -9, -4, 3, -3, -4, 35, 1,
    23, -1, 22, 14, 11, -20, 22, 13,
    7, 31, 34, 6, 10, -37, 19, -4,
    1, -22, 35, 18, 19, 11, -3, -13,
    8, 7, 17, 7, -5, 8, 10, -4,
    26, 14, 17, 3, 18, 6, -34, 6,
    53, 67, -16, 36, 36, -8, 9, -8,
    5, -2, -29, 57, -11, -28, 38, 18,
    6, 2, -46, 3, -22, 16, 15, 13,
    23, 5, 8, -4, -20, 30, -14, 58,
    -31, 1, 0, -33, 3, -35, 47, 59,
    -17, 10, -13, 9, 36, 30, 1, 6,
    -20, 13, -31, -21, 17, 19, 10, -14,
    35, 19, 12, -26, -13, -6, -34, 3,
    -6, 24, -9, -20, 25, 11, 4, -7,
    4, -67, 11, 6, -2, -18, -11, 11,
    108, 2, -11, -18, 13, 10, -4, -7,
    2, -20, -12, -6, -3, 14, -42, 29,
    29, -12, 7, 23, -7, -3, 6, 74,
    45, 44, 17, -42, 3, -16, -11, 3,
    -24, -8, 1, -4, 77, 19, 35, 12,
    -6, -17, 24, 9, -20, 22, 13, 23,
    1, 9, -14, 24, -7, 10, 1, 28,
    -15, 23, 11, 27, 53, 127, 4, 18,
    17, 20, 7, -8, -7, 32, 54, 9,
    -4, 12, -11, -16, 4, 99, 11, 7,
    -7, -12, -25, 10, 14, 36, 14, 17,
    12, -53, 106, 23, 13, -1, 2, 12,
    -53, 22, -41, 18, -6, 12, -30, 23,
    7, -2, -39, -2, 8, -4, 5, 26,
    -4, 16, -34, 22, -2, 5, 4, -8,
    5, 10, -65, 0, -30, 0, -13, 6,
    9, -9, 19, 0, -30, -2, 16, -8,
    13, 39, 0, 13, 2, -15, 40, -24,
    15, 1, 24, -26, -20, -2, 20, 22,
    -3, 21, 8, 0, 6, 34, 13, -5,
    -6, 9, -37, -9, 56, 1, -11, 66,
    10, 7, 17, -29, -63, -18, -61, 0,
    -15, -10, 17, -21, -13, 6, -6, -7,
    13, -13, 1, 13, -25, 7, -31, -9,
    38, -18, 29, -2, -22, -16, -32, -8,
    8, 6, 29, 42, -7, 25, 23, -31,
    -18, -2, 4, 18, 7, 13, -12, -9,
    -10, -26, -30, 18, 18, -8, 1, 17,
    -127, -5, 8, 15, 25, -41, 20, 7,
    -1, -1, 7, -9, 40, -5, -34, -4,
    10, -11, -22, -38, 18, -28, 6, 19,
    -7, 16, -20, 19, 20, 38, -18, -17,
    22, -13, 15, 0, -2, 9, 15, -5,
    0, 26, 34, -10, 11, -6, 39, 26,
    -7, -6, -16, -16, -9, -3, -1, 5,
    -14, -5, 19, 39, -22, 20, -2, -7,
    34, -24, 37, 22, -27, -13, 7, 6,
    15, 18, 5, 14, 7, -7, -18, 8,
    -7, 14, 24, 11, -27, -6, 14, 2,
    12, -5, -8, -29, 2, 1, 25, 13,
    16, -4, 8, -4, 37, 4, -1, 12,
    10, 10, 17, 57, 7, 13, -2, -10,
    1, 65, 45, 11, 16, 12, -37, -36,
    3, -3, 35, 8, -29, 14, 44, -14,
    10, 36, 3, -12, -3, 13, -1, 13,
    50, 38, -9, -22, -12, -10, -25, -4,
    -5, 32, 12, 2, -1, 28, 46, 17,
    3, -21, 36, -26, -21, -38, 28, -5,
    -13, -13, 32, -3, 3, -4, 42, -5,
    11, 35, 1, -127, 14, 39, 39, 2,
    4, 21, -19, 27, 19, 10, 3, 19,
    23, 22, -7, 40, 9, -13, 36, 7,
    -26, 7, 3, 25, -50, 11, 10, 13,
    -17, 64, 12, 13, 2, 11, 8, 12,
    -1, 13, 6, 28, 3, 7, 11, 29,
    -82, 17, 47, -12, 7, -26, 23, -7,
    4, 32, 29, 48, 4, -6, -17, 23,
    -14, 12, 22, -7, -21, 1, 16, 5,
    18, -18, -12, 10, -5, -18, 21, 6,
    6, -3, -82, -19, -20, -31, 9, -5,
    34, 34, 19, -15, 3, 5, 4, 41,
    36, 43, 56, 8, 52, 7, 19, 0,
    15, -4, -11, 22, 23, 5, 1, 0,
    5, -9, 24, 18, 20, -31, -13, -11,
    -8, 14, -22, 14, -5, 7, 3, 8,
    5, 17, -14, -19, 8, 5, 4, 2,
    3, -24, 19, 20, 4, -6, 21, 26,
    13, 1, -27, -1, 18, -127, -27, 12,
    14, -39, 13, 7, -2, 4, 3, -20,
    -20, -19, -7, 8, 10, 6, 5, 20,
    1, -3, 2, 12, 12, -3, -13, 3,
    -6, -1, 7, 28, -10, 28, -3, 1,
    55, 2, -14, -2, 22, 3, -23, 8,
    4, 4, 14, -8, -62, 22, -40, 8,
    4, 17, 13, 1, -8, -20, -1, 5,
    1, -2, 14, -13, 2, 10, 0, -4,
    35, 2, 5, 1, 12, -23, 16, 6,
    7, -32, 1, 4, -29, -22, 10, -3,
    5, 5, 17, -3, 2, -16, 2, 5,
    7, -7, -1, 14, 8, 36, -1, 6,
    -9, -1, -11, 1, -5, -1, 32, 2,
    8, 14, 17, 13, 2, 15, -12, 4,
    9, -5, 20, 5, 12, 10, -2, 5,
    8, 15, 56, 31, 5, 25, 4, 8,
    9, -3, -9, -9, 32, 1, -9, 0,
    -11, -11, -29, -1, -43, 6, 9, 4,
    -9, 30, -9, -31, -11, 5, -2, 16,
    1, 44, -3, -16, -4, 44, -2, 6,
    7, -5, 24, -6, 4, 6, -15, -3,
    3, -15, 14, 2, 2, 5, -4, -1,
    -10, 30, -39, 23, 3, -4, -26, -21,
    6, 0, 5, 8, -12, -127, 8, 33,
    -3, 11, 8, 16, 3, -1, 17, 12,
    -19, -12, 17, -38, -15, -3, 1, -5,
    9, 2, 16, -22, 0, -5, 8, -8,
    8, 42, 9, -14, 28, -28, 5, 2,
    6, 17, -40, 1, 16, -2, 28, -15,
    14, -2, -10, 16, -9, 7, 17, 20,
    3, -8, -1, -45, -1, 2, 13, -6,
    19, -15, 12, 4, -5, 2, 11, -3,
    -31, -3, 1, -16, -34, 27, -16, -4,
    -12, 8, -4, 9, 11, 9, 0, -8,
    20, -9, -20, -3, -1, 2, -6, 12,
    2, 14, -1, 12, 18, -2, 5, 2,
    23, 3, -13, -2, 10, 2, -36, -2,
    8, 8, -1, 3, 5, -1, 23, -4,
    3, 5, -25, 18, 2, 9, -19, 21,
    3, -12, -31, -46, -33, 6, -1, 4,
    -34, 8, -35, 17, 10, -1, 17, 19,
    -3, 20, 15, -2, 4, 0, 25, 1,
    -7, 4, 72, -5, -3, -8, 13, 5,
    11, 81, -13, 4, 6, 79, 9, 21,
    12, 19, -65, 25, -49, 14, 20, 1,
    12, 8, 29, 34, -2, 30, -22, 26,
    25, 52, 20, -5, 45, 18, -4, -1,
    24, 32, 25, -2, 11, -127, 20, 7,
    17, 36, 27, -2, 17, 28, 27, 27,
    -17, 1, 16, -19, -35, 9, 8, -18,
    31, 62, -14, 6, -6, 1, 10, 1,
    -18, 25, 16, -42, 31, -3, 0, -36,
    34, 43, 28, -14, 29, 1, 29, -6,
    20, 10, 34, -58, 33, 53, 24, 77,
    13, -11, 7, -23, 47, 50, -5, 5,
    12, 30, -15, 43, 16, -12, 24, 16,
    -23, 20, 16, -9, 23, 84, -34, 14,
    5, 45, -3, 13, -23, 11, -16, 27,
    43, 34, 4, 70, 15, 52, 26, 1,
    -12, -3, 46, 21, 25, 41, 25, 14,
    122, -13, -1, -2, 9, 21, 41, -2,
    19, 25, 17, -4, 14, 8, -29, 20,
    17, -9, -11, -2, -2, 68, 23, 10,
    10, -78, 17, 2, -12, 7, 15, 20,
    6, 22, -19, 34, 2, -4, -4, -11,
    51, 47, 64, 13, 42, 25, 1, 30,
    1, 19, 48, 58, 15, 4, -1, 16,
    4, 31, 11, 25, 16, -22, -80, -27,
    -21, 6, -1, -5, 11, -18, -7, 21,
    -16, 4, -15, -37, 33, 0, -17, -27,
    28, -48, 5, 21, 21, -19, 17, 23,
    -16, -11, -44, -18, 5, -127, -1, 5,
    -19, 35, -13, 16, 38, 8, 10, 6,
    -85, -16, 11, -3, 0, 12, 13, 20,
    1, -28, 7, 2, 23, -3, -17, 0,
    14, 14, 3, 3, 5, 65, -16, -85,
    73, 3, 5, 6, -4, 9, -50, 11,
    7, -6, 14, -19, -4, 1, -67, 25,
    -25, -26, 7, 7, -5, -31, 31, -29,
    15, -18, 11, -6, -22, -11, -77, -4,
    -2, -13, 16, 25, -21, -22, 14, 11,
    11, -50, 6, -13, -68, -14, -14, -17,
    38, -63, 32, 20, 6, -13, 2, 14,
    21, 13, -14, 22, 11, 69, -8, -12,
    56, -36, 25, -15, -1, -20, 93, 4,
    3, 13, 20, -10, 9, 20, 20, -6,
    19, -29, 39, 2, 5, 4, -50, -8,
    -14, -14, 18, 21, -23, 37, -9, 5,
    28, -12, -49, 22, 8, -6, 13, 13,
    62, 26, -44, -5, -96, -6, 13, -29,
    -71, -29, 94, -23, -46, -5, 20, 28,
    21, -6, -59, -36, -1, -12, 0, 12,
    23, 17, 92, 3, 73, 6, -20, 0,
    12, -16, 93, 19, 4, 4, 8, -12,
    111, 9, 23, 30, 49, -11, -66, -62,
    21, -4, 22, 26, -25, -63, 18, 34,
    42, 6, -26, -2, -12, -9, 27, 10,
    -2, -17, 32, 86, -20, -13, 25, -6,
    25, 10, 11, -25, -25, -30, 30, -10,
    25, 99, 43, -45, -11, 25, 20, 3,
    -57, -17, 64, 13, 36, 15, 106, 7,
    31, 41, -11, 24, -10, -32, 20, 12,
    1, -9, -12, 44, -8, -10, 13, -20,
    -32, 14, -5, 33, 8, -4, 52, -14,
    -96, 26, 41, -25, -72, -7, 93, -10,
    38, 74, 40, -1, -48, 22, -30, -10,
    20, 9, -10, 43, 26, 8, -4, -17,
    50, 0, 71, 9, 37, -93, 43, 28,
    -31, -4, -7, -1, 17, -7, -94, 32,
    5, 57, 21, -1, 25, 11, 23, 5,
    -39, -29, 127, 11, 12, -17, 17, 11,
    20, -53, -74, -83, 42, 0, -23, 6,
    20, 7, -38, 26, -36, 13, 36, 20,
    122, 48, 66, -14, 17, 13, -7, -1,
    13, 32, 35, -26, -31, 3, 1, -9,
    10, -21, -7, -41, -14, 39, -2, 10,
    10, 5, -28, 6, 18, -10, 15, -4,
    5, 18, -13, 30, 0, 15, 61, 21,
    10, 19, 15, -5, -31, 36, -20, -28,
    -5, 19, 37, 9, -17, -127, 50, 6,
    -22, -23, -20, -9, -1, 12, 9, -2,
    13, -8, 22, -77, -53, 0, -4, 16,
    -15, 18, 2, 17, 5, 0, 16, 15,
    5, -21, 20, 47, 41, -6, 24, -19,
    -28, 13, 60, -7, 19, -5, -2, 17,
    22, 12, -16, 45, -10, 18, 0, 13,
    20, -38, 3, 44, 20, 8, 18, 29,
    24, 19, 11, 19, 7, -1, -20, 5,
    -38, -2, -11, 8, -16, 48, 20, 17,
    2, -7, 11, 19, 24, -9, 37, 10,
    13, -18, -5, 45, 11, 25, 9, 15,
    33, 10, -8, -1, 13, -46, 12, -9,
    57, 7, -3, 6, 17, 5, -19, -3,
    11, 14, 11, -1, 17, 12, 24, 39,
    18, 3, 4, 10, -6, 35, 0, -11,
    3, -49, -52, -34, -17, 17, 12, 16,
    13, 10, -7, 18, 20, -5, 4, 16,
    -7, 55, -16, 5, 23, 0, -15, 15,
    -34, -33, 4, 12, 10, 6, 12, 2,
    16, 14, -35, 14, 6, -25, 6, 18,
    28, 4, -16, 8, 15, -1, -3, -14,
    9, 31, 62, 30, -10, 9, 40, 8,
    90, 4, 11, 7, 14, 21, 12, 6,
    13, 12, 40, 22, 17, -127, 38, 17,
    11, -16, -42, -10, 23, 3, -7, 77,
    25, -3, 2, -23, -32, 9, -17, 5,
    18, -8, 13, 3, 18, -4, 17, 11,
    7, -1, 23, 16, -18, 40, 2, 32,
    21, -5, 31, 16, 14, 2, 24, 5,
    14, 29, 36, 15, -22, -14, 36, -36,
    7, -9, 16, 22, 21, 2, 20, -11,
    -7, 13, 19, 23, 6, 11, 16, -12,
    -48, 12, 28, -10, -18, -9, 80, 8,
    1, 6, 23, -9, 57, -13, 38, 3,
    -5, -11, -11, -4, 19, -7, -3, -2,
    25, 6, -12, 8, 8, -7, 19, 8,
    -30, 40, -8, 28, 8, 0, -2, 13,
    -4, 22, -36, 3, -4, -3, 11, 20,
    8, 3, 37, 19, 11, 12, 13, -3,
    12, -39, 6, -9, 7, 0, -7, 6,
    29, 10, -14, 13, -1, 1, -6, 10,
    43, 6, 15, -4, 12, 5, -25, -9,
    44, 34, 16, -24, -3, -11, 10, 11,
    6, 2, 33, 6, -13, -22, 0, 1,
    -9, -4, 8, 8, 47, -3, -26, -8,
    10, 27, -98, 11, -17, 21, 17, 5,
    -29, 53, -12, 11, 13, 1, -11, -6,
    0, 10, -16, 14, 3, 63, 2, -14,
    0, 11, -15, 7, -16, 19, -10, -64,
    -23, 26, 9, -80, -11, 13, 23, 26,
    4, 50, 4, -22, 5, 22, 14, 12,
    19, -1, 13, -7, -7, -13, 34, -107,
    44, -2, -14, 2, 10, -5, -38, -14,
    10, -36, -17, -40, -6, 127, -28, -7,
    14, -28, 5, -10, 3, 22, 23, 48,
    33, 38, 9, -26, 7, 2, -46, -24,
    17, 2, -6, -1, -5, 19, 18, 5,
    0, -92, -10, 22, -57, 3, 4, 0,
    -28, -29, -2, 50, -10, -22, 3, 4,
    -18, 7, -15, 8, -5, 20, -32, -12,
    -17, 21, 0, 7, 10, 5, -14, 10,
    -10, -13, -1, -31, -17, 44, 6, -7,
    6, -98, 13, 8, 1, 44, -7, -5,
    3, 5, 29, -2, -66, -4, -5, 15,
    -22, 30, -27, 4, 5, 23, 8, 22,
    -29, -24, -87, -1, -15, 1, 21, -8,
    13, 35, -37, 63, 29, 13, 17, 15,
    3, 91, 17, 59, 7, -12, -2, -7,
    21, 17, -51, 0, 58, 13, -19, 2,
    1, 0, 47, -8, 28, -15, -13, -21,
    27, -21, 34, -6, 20, 17, 39, 43,
    11, -10, -21, 24, 25, -53, -54, 31,
    33, 92, 23, 10, 30, 5, 1, 50,
    -41, 8, 46, -38, 1, 4, 20, 32,
    12, -70, 9, -2, 29, -19, 14, -10,
    -6, -18, 5, 35, -34, 53, -23, 37,
    40, -19, -8, 25, -6, 2, 25, -14,
    -3, 8, 79, -26, 20, -37, -40, -27,
    -13, 18, 11, -13, 19, -12, 16, -27,
    91, -21, 10, -5, 16, 12, 39, 39,
    18, 19, 24, -83, 32, -127, -23, -8,
    28, 11, -4, 1, 18, -9, -3, -2,
    10, -47, -30, -110, 13, -14, -25, 16,
    -23, 2, -16, 11, -78, 109, 1, -10,
    -5, 39, 16, -1, 0, 24, 59, 6,
    3, -42, 20, 21, -58, 13, -34, -10,
    -11, 2, -21, 14, -4, -41, 15, 48,
    6, 2, 87, 54, -17, -12, 0, -7,
    5, -23, 0, 23, -9, 11, -36, -17,
    63, -64, 0, 19, -53, 10, 18, 6,
    -19, -6, -14, -60, -18, 13, 11, 9,
    15, 12, -52, -27, 26, 2, 31, 5,
    24, -11, -27, -8, -82, 6, 23, 9,
    21, 24, 127, 65, -24, 6, -14, 20,
    64, 63, 22, 17, 22, 10, -36, -45,
    20, 9, 14, 11, 5, -17, -12, 25,
    9, 46, -51, -11, 0, 0, -6, 63,
    63, 31, -18, -12, -27, 8, -44, -47,
    -6, 48, 33, 32, -45, 22, 13, 23,
    -10, -7, 51, -26, -15, 26, 9, 97,
    -98, -13, 26, 24, -15, 15, 38, 0,
    -8, 23, 23, -60, 24, 14, 21, -19,
    16, -8, -11, 44, -27, -32, 53, 7,
    33, 23, 10, -15, 8, -3, 107, -8,
    -44, -6, 2, 50, 35, -25, 61, -3,
    5, 103, 33, 14, 26, 28, -2, 26,
    0, -3, 33, -8, 26, 4, 27, 23,
    -35, 3, 18, -13, 27, -32, 44, 12,
    -34, 33, 12, -8, 8, 5, -38, 26,
    -21, 15, 50, 0, -10, -31, 0, 1,
    41, -12, 88, 20, 8, -4, 14, 8,
    8, 19, -2, -44, -13, -13, 17, -13,
    52, 71, 7, -13, 14, 31, -27, 11,
    58, -21, 81, 21, -4, -5, 26, 16,
    -31, -22, 19, -28, -30, 4, -4, 2,
    14, 11, -18, -13, 12, -2, -12, 4,
    6, -6, 17, 0, 8, -3, 2, 17,
    2, -7, 8, -20, -45, -5, -22, -21,
    -5, 12, -18, 30, -33, 1, -99, -87,
    -9, -1, -10, 3, -21, 6, 5, 24,
    -14, -14, -30, -6, -2, -5, 14, -17,
    -6, -6, -8, 17, -12, -1, 5, 7,
    -12, 13, 27, 27, -5, 1, 12, 12,
    15, -7, -1, 39, 10, 26, 12, -21,
    -124, 0, -23, 3, 3, 1, -14, -3,
    -5, 20, -37, -9, -9, -13, 19, 16,
    7, 11, -9, -6, 13, 19, -11, -15,
    -32, -12, 5, 17, -15, 5, -45, -16,
    2, 9, -17, 21, -24, 22, 10, 3,
    0, 2, 12, -9, -23, 7, 9, -7,
    16, -8, 18, 8, -4, 27, 5, 1,
    25, 6, 22, 14, 1, -51, 1, -1,
    -19, -3, -19, 3, 14, -15, -102, -10,
    5, -9, 4, -20, 9, 9, 9, -18,
    10, 6, 18, -11, 16, -6, 2, -8,
    1, -11, -85, -127, 21, 3, 2, -10,
    -21, 1, -21, 13, 25, 1, 12, -12,
    -1, -2, 25, 0, 22, -6, -22, 5,
    66, 75, -24, 65, 26, 18, 5, 0,
    15, 77, 34, 25, 2, -26, 0, -21,
    -5, 14, -25, 10, 103, -6, -17, 10,
    6, 29, -12, -7, 4, -2, 12, 2,
    9, -17, 56, 34, -20, -5, 31, 30,
    1, -25, -23, 24, 15, -63, -27, 5,
    11, 27, 38, 49, 16, 5, -30, 34,
    -1, 7, -1, -30, -26, -7, -11, 21,
    -17, -55, 2, 12, 12, 5, 18, 6,
    27, 23, 29, 47, -18, 60, 1, -11,
    126, -18, 15, -4, 23, 2, -21, 2,
    8, 22, 43, -122, -56, -6, -11, -30,
    2, 36, 8, 36, 28, 6, 1, 32,
    127, 17, 17, 30, 13, 10, -11, 5,
    -53, 18, 17, 51, 6, -57, -8, 28,
    -19, -19, 28, 1, -4, -40, 26, 0,
    22, -33, 31, -27, 10, -45, 1, 15,
    -94, 20, -21, 27, 15, 55, -3, 3,
    -6, 33, -14, 32, -12, -6, 65, -4,
    -31, 2, 2, -15, -54, 80, 40, -8,
    26, 4, -23, 25, 21, -39, 9, 22,
    4, -53, 32, 49, -21, 15, 17, -5,
    16, -21, 4, 0, 81, 8, 32, 1,
    31, -6, 9, 19, -46, -6, 14, -17,
    19, 17, 31, -63, -28, -3, 4, 8,
    -6, -56, -2, -37, -1, 19, 31, 11,
    -6, -10, 5, -1, -13, 1, 11, 27,
    9, -11, -73, -7, 10, 9, -7, -2,
    -63, 1, 15, -15, -1, 12, -41, -41,
    -13, 13, 6, 8, -27, 127, 7, -19,
    -15, -28, -31, -3, -41, 3, 3, -83,
    27, 23, -6, 47, -49, -4, -37, 8,
    -5, 6, -2, -23, -18, -3, 11, 9,
    9, 5, 18, -1, 68, -78, 52, -10,
    -125, 9, -19, -3, -13, 11, 10, 24,
    1, -11, -55, 17, 27, 45, -13, 40,
    14, -22, -15, 0, -11, -13, -4, 46,
    2, 15, -16, -23, -15, 10, -22, -13,
    -18, -4, -20, 19, -24, 57, 2, 4,
    -12, -27, 5, 5, 2, 27, 0, 6,
    -4, 25, -7, 75, 2, 62, 3, 15,
    -12, 7, 16, -4, 24, -95, 0, 8,
    11, 3, 8, 7, 10, 4, -92, 1,
    7, 29, 5, -2, 21, 25, 21, 23,
    0, 21, 21, 8, -1, 21, 7, -3,
    2, 26, -80, -49, 36, -3, 0, -9,
    20, 22, 17, -9, -25, 15, 10, 20,
    -61, 22, -50, 11, 43, 8, 3, 9,
    -41, -43, 38, -31, -22, 6, -2, 7,
    4, -4, -62, -21, 7, 48, 18, 5,
    18, 7, -8, 6, -49, 14, 16, 25,
    15, -10, 18, 7, -2, -3, -10, -16,
    -13, 33, 20, 18, 0, 10, -27, -34,
    23, -9, 22, 14, -16, 22, 8, 17,
    15, -37, -39, 10, -17, -9, 15, -39,
    33, 10, -1, 52, -68, 12, -51, -25,
    6, 1, -3, 39, -18, 6, 8, 6,
    8, 8, -3, 16, 31, -2, 14, 31,
    -38, 25, -11, -5, -9, 3, 36, 4,
    14, 19, -40, 13, 22, -68, 7, 45,
    18, 34, -12, 20, -1, -5, -21, 6,
    -13, -5, -1, 0, 0, 19, 18, 13,
    -102, 17, -19, 9, -35, 43, -5, 4,
    -9, 39, 29, -13, 3, 21, 15, 6,
    8, 39, 32, 19, 4, 49, 19, 15,
    17, 12, 50, -28, 4, -95, 37, 29,
    43, 4, -8, -18, 3, -3, -38, 2,
    23, -22, 18, 14, 5, -42, 6, -16,
    -10, 55, 32, 3, 10, -22, 10, 9,
    9, -127, -50, -15, 50, -13, 11, -7,
    -36, 26, 24, -26, 22, 15, 12, 8,
    -6, 26, 27, 8, 44, 17, -4, 25,
    0, -1, 7, 4, 3, 1, 0, 1,
    -7, 0, -47, -3, 5, 27, 12, 4,
    10, -1, -20, 2, -65, 2, 7, 4,
    10, 0, 19, 8, -8, -1, -1, 2,
    4, 18, 6, -3, -7, 0, 3, 5,
    9, 11, 11, 4, 5, -1, 4, 6,
    4, -7, -37, -1, 2, 1, 3, 8,
    20, 10, -5, 6, -55, -2, -43, -17,
    5, 12, 3, 0, -5, 8, -7, -1,
    0, 5, -4, 9, 4, -3, 4, 8,
    11, 17, 16, -6, 7, 1, 9, 0,
    -2, 8, 1, 13, 2, 6, 33, 17,
    8, 10, 2, 5, 2, 7, 18, 8,
    -6, 1, -4, 6, 5, 0, 5, 4,
    -127, 6, 0, 2, 7, 23, -6, 6,
    -2, 26, 6, 12, 6, 7, -3, 9,
    5, -4, 4, 4, 3, 8, 7, 8,
    19, 3, 7, 1, 6, 3, 7, 7,
    16, 9, -2, 5, 5, -1, -2, -4,
    18, -3, 13, 8, 9, -5, 13, -3,
    5, 18, -5, -2, 3, 6, 12, 3,
    1, -49, 10, 6, 12, 2, 5, -1,
    -1, 7, 14, -14, 3, 4, -4, 2,
    3, 12, 33, 4, 14, 6, -2, 6,
    -14, 39, 39, 50, 28, 12, 9, 10,
    28, 8, -75, 13, 61, 35, 39, 11,
    34, 20, -16, 2, -21, 18, 36, 27,
    28, -60, 75, 15, 57, -3, -18, 10,
    7, 56, 64, 23, 73, 14, 23, 27,
    37, 31, 6, 1, 7, 1, -10, 11,
    44, 40, -71, 28, 1, 15, -10, -19,
    22, 21, -8, 50, -92, 18, -65, -21,
    22, 77, 9, 19, 16, 7, 27, -1,
    8, -3, 88, 25, 57, 10, 5, 51,
    -20, 3, 33, 22, 1, 6, 43, 42,
    12, 56, -16, -40, 95, 9, 30, 72,
    29, 61, 11, 9, 13, 8, 12, 17,
    60, 24, 13, 5, 4, 26, 77, 16,
    -90, 32, 12, 60, -1, 23, -65, 15,
    30, 127, -17, 21, -27, 38, 0, 28,
    8, 1, 28, -16, -6, -2, 34, 44,
    -11, 17, 36, -5, 99, 7, 33, 12,
    26, 16, 3, 1, 10, -1, -2, 9,
    46, 67, 66, 13, 38, -8, 46, 26,
    32, 71, 38, -10, 33, 8, 56, 20,
    14, -68, 40, 2, 64, 19, 15, 11,
    27, 74, 29, 2, 37, 61, -1, 19,
    63, -47, 100, 0, -3, 37, 38, 25,
    1, 12, 34, 23, 20, 5, 1, 8,
    11, -12, -24, 1, 14, 19, -3, 8,
    4, 4, 23, 5, 21, 6, 18, 6,
    8, -19, -10, -11, 22, 14, -3, 1,
    -30, -34, 4, 11, 8, -1, 30, 32,
    5, 1, 1, 0, 6, -118, -6, 17,
    0, 1, -15, 8, 1, 14, 19, -32,
    -6, -10, -1, 3, -1, 19, -15, 22,
    22, -24, 2, 2, 38, 18, 9, 2,
    6, 31, 14, 18, 24, -5, -4, 34,
    -39, 12, -3, -8, 23, 12, 22, 0,
    13, -39, 4, 35, -8, 25, -127, 19,
    7, -5, 9, 32, -8, -20, 33, -4,
    9, 13, 22, -70, -3, 10, -15, 8,
    -25, 9, -5, -12, 17, 0, -19, 8,
    2, -34, 14, 17, -2, 7, 15, 5,
    20, -11, -5, 16, -7, 1, 13, 18,
    26, 14, -23, 2, 20, 5, -2, 1,
    37, 1, 14, 25, 0, 0, 22, 13,
    23, 8, -21, 25, 16, 2, 27, -3,
    4, 38, -8, -1, 10, 17, -14, 6,
    11, -19, 22, 4, 47, 13, -2, 2,
    -24, 4, -6, 4, 15, 10, 17, 33,
    -19, 17, -93, -10, -47, -2, 9, 8,
    -8, 1, 10, 23, 12, -4, 7, -7,
    3, -72, 28, 28, 10, -89, -8, 5,
    -11, 11, -6, 17, 44, 4, 8, -4,
    2, 16, -21, 0, -10, -3, 29, 12,
    -9, -43, -6, -26, -1, 1, 2, 3,
    -9, 7, -7, -15, 23, -51, 6, -34,
    -5, -30, 31, -15, 1, 9, -4, 8,
    -53, -22, -2, -22, 22, -1, 32, 17,
    4, 3, -7, 18, -12, -12, -13, 11,
    22, -25, -8, 19, -34, -9, 5, -27,
    13, -5, 17, 2, 2, 1, -10, -12,
    -4, -13, -1, 22, -41, 17, -58, -39,
    -5, 18, 18, -42, 2, 17, -36, 0,
    -19, 15, 1, -9, 10, 7, -14, -22,
    35, -14, 0, -46, -10, -32, 27, -2,
    6, -69, -24, 6, -44, -37, 15, 4,
    -36, 4, -11, 1, -9, -27, 6, 10,
    4, 8, -16, 22, 28, 4, -8, 0,
    -70, -9, -3, 9, -2, 1, -13, -4,
    4, 16, 14, -1, 19, 5, 3, 18,
    2, -57, -8, -14, 0, 5, 21, -22,
    10, 4, 23, 31, -14, 18, 10, 9,
    -41, -7, 9, 8, -7, -1, 25, 1,
    24, -24, -127, 4, -12, 15, -19, 17,
    -8, -61, 61, 21, 2, -2, -3, 10,
    12, -9, -35, -8, 11, -27, 7, 9,
    19, 3, 32, -1, -23, 2, 7, 2,
    1, 17, 33, -6, 27, -9, 20, -23,
    75, -6, -20, 36, -17, 20, 7, 5,
    10, -6, 21, 10, 3, 65, 13, 30,
    1, -43, -5, 15, 1, -1, -11, 1,
    -6, -3, 16, 51, -36, 10, -16, -12,
    -6, 15, 19, 32, 28, 11, 13, 3,
    44, 32, -4, 24, -11, 54, 16, 9,
    -12, 13, 7, 15, -16, 9, -4, 4,
    -3, 21, -16, 56, 31, 18, 15, 1,
    5, 32, 9, -4, 17, 8, -28, -32,
    -51, -9, 14, 26, 1, 15, -7, 17,
    -38, 4, 0, 5, -23, -3, 35, 2,
    9, 12, -4, -25, 11, -1, 9, -15,
    -9, 34, 34, 24, -14, 7, 0, 14,
    95, 29, 9, 2, -38, -37, 1, 2,
    -28, 14, -3, -31, 14, -11, -8, -5,
    12, -35, -15, 8, 2, -41, 38, 0,
    -3, 16, 127, 2, 21, 5, 2, -3,
    -3, -6, 2, 10, 59, -7, -2, 0,
    6, -6, 15, 4, 19, 9, 46, -4,
    32, -14, 29, -9, 28, 9, -1, 7,
    -15, 12, 10, 13, 11, 4, 3, 2,
    2, 20, -2, 14, -7, -25, -19, 0,
    -3, 3, 0, 1, 6, 3, 4, 4,
    -1, 6, -47, -39, 4, -17, -8, -9,
    -28, -115, 4, -15, -7, -5, 16, 19,
    -6, 7, -3, -1, 7, -33, 2, 12,
    -12, 18, -2, 6, 16, 5, 8, -23,
    -32, -4, 14, -7, -13, 3, 1, 15,
    -2, -66, 0, -9, 11, 4, -1, -6,
    4, 11, -3, 3, -23, 25, -14, -9,
    26, 11, 0, 1, -8, 12, -33, 0,
    1, -29, 10, 14, -1, -34, -100, 2,
    -2, -7, 6, 11, -14, -22, 12, -6,
    4, -17, -2, -79, -10, -3, -28, 1,
    -22, 0, 4, -12, 17, -85, -13, 0,
    6, -76, 10, -8, -6, 2, -11, -6,
    16, -27, -10, -36, 9, -49, -8, 4,
    7, 5, -55, 7, 5, 36, -29, -4,
    30, -7, 13, -1, 1, 5, 32, -5,
    6, -3, -14, -10, -1, 4, 3, 6,
    5, 5, -13, 4, 1, -16, -24, 7,
    -9, -27, 23, 9, 5, 16, -6, -3,
    -6, -56, -16, 12, -8, 0, 7, -2,
    -5, 5, -127, -2, -93, -8, -5, 4,
    -24, -10, 38, 12, -37, 8, -1, 6,
    2, 18, 6, -26, 6, 30, 37, 0,
    11, 6, -22, 7, 14, -3, -22, 28,
    5, 17, -45, 36, -12, -2, -13, -10,
    4, 65, -6, 30, 6, 44, -35, -36,
    0, -14, 13, 8, -20, 111, 33, 19,
    -1, -21, 30, 10, -22, 3, 4, 2,
    15, 19, -4, 13, -15, 7, -17, -9,
    1, 14, 8, 24, -24, 17, 11, 8,
    20, -10, -15, 50, 54, 29, 48, -45,
    77, 16, 7, 16, 22, 2, -16, 1,
    5, 54, 19, 8, 29, 9, 104, 48,
    14, 52, -9, -31, 66, 79, -28, 27,
    4, 1, 20, 117, 13, 2, -27, -13,
    -26, 19, -7, 22, -58, 71, -27, 19,
    16, -11, -27, 25, 52, 6, 43, 5,
    -2, 10, 31, 30, -14, 66, 1, 16,
    33, 6, 35, -3, -45, -11, 6, -27,
    4, 15, -16, 6, 0, -7, -11, -3,
    13, -42, 13, -3, 10, 6, 4, -34,
    22, 42, 34, -2, 10, 11, 16, -4,
    4, -65, -23, -13, 29, 11, 16, 1,
    -14, 14, 26, -26, 45, 17, 15, 1,
    -28, 18, 47, 4, 127, 23, 5, -7,
    22, 17, 4, 33, 20, 15, 0, 2,
    17, 15, -11, 24, 22, -17, 2, 1,
    12, 4, -20, 3, -42, 4, 37, 15,
    17, 25, 0, 12, 24, 6, 60, 2,
    26, 5, -17, 20, -11, 23, 64, 71,
    0, 14, 39, 10, 23, -27, 19, 22,
    -10, -18, -9, 9, 14, 14, 8, 20,
    14, -1, 13, -4, -35, 19, -42, -2,
    7, 6, 12, 34, 49, 47, -4, 16,
    -1, 10, -3, 34, 4, 30, -13, 38,
    64, 10, -12, 4, 36, 21, -11, 13,
    4, 10, 37, 53, -42, -50, 18, 5,
    18, -13, 13, -12, 21, 16, 21, 15,
    -16, 12, 28, 16, 12, -2, 6, 9,
    -33, -3, 1, 23, 60, 9, 51, 10,
    11, -18, 0, 21, 48, 6, 31, 14,
    0, -3, 27, -1, -6, 9, 13, 26,
    39, 9, -2, 21, 27, 82, 4, -4,
    -18, 8, 8, 16, 0, 15, 34, 4,
    7, 7, 33, 16, 6, 30, 2, 9,
    24, -15, 31, 10, 5, 11, 3, 12,
    -1, -44, 127, 32, 21, 14, 13, -7,
    -13, 19, -3, 10, 38, 20, -15, 31,
    -7, 2, -20, -2, 33, -7, 27, 22,
    19, 4, 14, 85, 34, 15, 8, 14,
    1, -4, 0, 35, 13, -22, 1, -10,
    16, 15, -16, 9, -41, 8, 25, 3,
    16, 8, 64, 2, 45, -17, 37, -22,
    90, -20, 14, 32, 29, -3, 35, 34,
    16, 1, 25, 0, 21, -127, 8, 30,
    16, 56, 38, 9, 41, 9, -5, 93,
    0, 13, 15, 38, -4, 5, -13, -7,
    2, -67, 5, 17, 50, 22, -5, -8,
    -2, -11, 15, -5, -48, 16, -17, 24,
    24, -5, 5, 13, 0, 1, 16, 6,
    11, 16, 33, 25, 9, -52, 14, -35,
    -22, 18, 14, 16, 26, 18, 18, -38,
    -4, -8, 1, 26, 21, 2, 19, 26,
    -29, 25, 39, 10, 15, -57, 34, 11,
    18, 18, 8, -8, 3, 17, -39, -8,
    6, 13, 7, -44, 16, -47, 1, 25,
    7, 20, -14, 8, 33, 33, -2, 4,
    6, -6, 34, 5, -3, 15, 50, 17,
    6, 42, -24, 19, 18, 23, 17, 6,
    -4, 3, 2, 3, 2, -52, 1, 9,
    -1, -37, 2, 53, 26, 21, 4, -4,
    15, -25, 7, 7, 6, 6, -4, 26,
    80, -3, 32, 10, -26, -3, 11, 16,
    -12, -6, -22, -73, -24, 9, 3, 3,
    6, 30, -8, -16, 12, 24, 17, 2,
    16, -1, 13, 6, 6, -1, -16, 11,
    11, 11, 8, 20, -20, 7, -2, 2,
    -2, 50, 3, 15, 4, 3, -113, -120,
    0, 12, -23, 12, -23, -35, -18, 24,
    8, -29, 1, 7, 2, 7, 11, 18,
    15, 3, 0, -28, 1, 0, 4, -4,
    15, 43, 8, 16, -38, -17, -3, 13,
    0, 19, 15, 33, 24, 19, 18, -13,
    -127, 5, 22, -6, 24, 5, -7, 8,
    8, 44, -1, 6, -15, 33, 64, 16,
    17, 24, -11, 5, 17, 31, 11, 28,
    4, 6, 15, 44, 6, 1, -3, -20,
    -11, 14, -4, 11, -63, 37, -6, 4,
    -10, 10, 17, 16, 28, 4, 38, 6,
    8, -12, 10, 0, 5, 25, 2, 16,
    13, 6, 11, 4, 4, -88, 10, -7,
    -21, 18, -14, 29, 4, 9, -69, 1,
    8, 8, 34, 1, 0, -8, 14, 9,
    5, 26, -1, 5, 8, 33, 22, 7,
    8, 1, -104, -63, -19, 2, 0, 4,
    25, 36, 2, -6, 20, 6, 8, 12,
    -2, -6, 52, 3, 24, 5, 8, -2,
    8, 8, 7, 24, -7, 14, 7, 20,
    32, 47, -4, 4, 26, 3, -14, 13,
    15, 6, 19, 2, -13, -3, 4, -15,
    -6, 16, -7, -2, 72, -9, 10, -30,
    49, -23, -13, 0, 62, 63, 28, 14,
    14, 11, 42, 16, -9, -62, 51, 1,
    27, 34, 38, 43, 32, 6, -7, 47,
    7, -11, 41, -29, -15, 33, -19, -16,
    66, -42, 1, 44, 55, -21, 19, 3,
    0, 11, -19, 3, 2, 66, -2, 25,
    39, 3, 50, 30, -34, 19, 19, 13,
    31, 34, 60, 22, 40, -66, 19, -44,
    -3, 11, 12, -35, 30, -1, 40, -22,
    14, -12, 6, 56, -3, 12, -4, 29,
    -110, 29, 23, -11, -17, -18, 17, 9,
    7, -38, -2, -30, 110, 2, 45, -17,
    4, -2, 30, -31, 23, -5, 15, 14,
    9, 27, -3, 14, -16, -2, 6, 2,
    18, 12, 5, 21, -2, -5, 28, 9,
    -6, -18, -31, 18, 2, 3, -2, 16,
    2, 55, 29, 11, 0, -5, 18, 5,
    -6, -127, -27, 2, 23, -19, -1, 10,
    -29, -3, 13, 44, -11, 20, 8, 14,
    14, 13, -13, 2, 29, 9, 5, -12,
    -81, 55, -106, -96, -21, 14, 16, -17,
    -4, 84, -51, -36, -17, 60, 49, 24,
    27, -16, -32, 13, -72, -13, -10, 5,
    19, 72, -1, 119, -44, -12, 35, 9,
    -3, 67, 51, -37, -41, 24, 8, 7,
    23, 63, -17, -18, 15, 1, -80, -6,
    1, 55, -2, -16, -12, 13, -24, 105,
    46, 28, -23, -17, -77, -6, -97, -27,
    17, 54, 7, -63, -29, 64, 7, -2,
    3, -18, -70, -12, -6, -61, 5, 58,
    -8, 1, 105, -8, -9, -20, -56, 31,
    -16, 39, 87, 99, -95, 6, 47, -15,
    5, -28, -17, 79, 34, 51, -45, 14,
    -24, -1, -46, 58, 39, -19, 98, -20,
    -95, 15, -12, -52, 100, -14, 28, 19,
    -3, 33, 13, 33, 127, 8, 14, 50,
    -44, 30, -27, 2, 55, 20, 22, 44,
    2, 10, -19, -8, 11, 62, 37, -18,
    24, 7, 61, 22, -6, 21, -61, 15,
    -7, 41, 103, 29, 36, -73, -24, 26,
    0, -19, -51, 10, -30, 29, 39, -4,
    -7, -110, 54, 9, -71, 33, 18, -11,
    8, 57, 115, -5, -50, 28, -23, 1,
    -80, -36, 37, 30, 49, 19, 33, -21,
    -62, -12, 20, 22, 13, 43, 34, -38,
    46, 16, -17, 13, -42, 4, -55, 2,
    12, -10, 17, 55, 30, -39, 57, -10,
    124, 17, 19, 24, -111, 18, 6, -2,
    2, -11, 52, -62, -40, 5, 12, 13,
    13, 89, -21, -2, 7, -127, 2, -39,
    15, 2, -10, -50, 16, 19, 2, 18,
    -28, 0, -62, 21, -24, 5, -12, -2,
    -2, 22, 36, -34, -14, 27, 44, 56,
    15, 11, 44, 53, 7, 36, -3, 29,
    27, 9, 27, 29, 22, 44, -6, -1,
    -48, 24, 6, 3, -9, 21, 28, 11,
    62, 13, 7, 60, 13, 10, 6, -28,
    -7, 10, 7, 21, 18, 15, 11, 27,
    -32, 12, 9, 35, -15, 18, 18, -19,
    2, 16, 35, -3, 9, 39, 28, 43,
    17, -9, -71, 9, 31, 14, 20, 6,
    33, 6, 7, 8, 32, 11, 75, 12,
    -1, 35, -2, 51, 30, 33, 9, -6,
    12, 29, 16, -18, 10, -1, 25, 14,
    36, 15, 25, 1, 43, 43, 31, -1,
    6, -1, 9, 2, 14, -43, -17, -11,
    62, 59, 0, 2, -10, 71, 35, 9,
    4, -20, 18, 5, 10, -1, -89, -57,
    52, 25, 20, 17, 14, 34, -38, 11,
    -10, -38, -14, -1, 27, 5, 46, -4,
    -74, 23, -31, -18, -24, 11, -8, 27,
    -51, -23, 11, 10, 38, 8, -22, 11,
    10, 42, -16, 25, 10, 12, 15, 19,
    -2, -64, 32, -20, 6, 44, 22, 7,
    14, 8, 18, 66, 4, 10, 15, 6,
    28, -61, 20, 11, -33, 11, -18, -50,
    12, -3, -30, -2, 17, 4, -7, -20,
    10, -27, 17, -18, 10, -1, 10, 11,
    11, 8, -6, -1, -13, 40, 13, -2,
    -3, -32, 1, 3, 29, -5, 9, 2,
    -127, 10, 3, -13, 4, 11, 2, 22,
    14, 12, 10, 14, 29, 6, 25, 23,
    -64, 6, 1, 26, 25, 15, -10, -23,
    13, 20, 15, 10, 18, 59, -12, -57,
    16, 1, 36, 19, 3, 16, -44, 24,
    6, 15, 28, 0, 9, 21, -41, -9,
    18, 20, 9, -29, -23, -55, 40, 23,
    -7, 25, 3, 29, 23, 12, 8, -15,
    -1, 20, 4, 3, -3, -17, -9, 70,
    -1, -124, 4, 21, 11, 18, 22, -15,
    22, -19, 9, -26, 16, -102, 8, 24,
    5, 43, 24, 12, 31, 15, 63, 20,
    40, -71, -15, -2, 5, 8, -28, -17,
    7, -5, 45, 9, 62, -37, 58, 22,
    -30, 24, -127, -9, -85, 9, -25, 5,
    -25, 10, 14, 1, 10, 16, 3, 18,
    21, -33, 32, -1, 11, 17, -2, -2,
    7, -7, -30, -52, 10, -98, -7, -15,
    22, -57, 78, -13, 8, 9, 1, -16,
    8, -93, -30, 39, 29, 17, 21, -33,
    41, 33, 0, 26, 11, -18, 10, -3,
    -38, -29, -90, 57, 2, -4, -4, 9,
    12, 4, 54, -2, 34, -21, -4, 31,
    4, 8, -10, 30, -39, 8, -6, -7,
    -35, 32, 5, 23, 29, 30, -98, 17,
    -72, 29, -6, 43, 15, 34, 31, -33,
    11, 11, -9, -91, -24, -2, 31, -35,
    16, 10, 11, -13, -10, -17, 51, -40,
    -16, 61, 5, 10, -9, 18, -52, 13,
    52, -16, 12, 5, -57, -22, -3, 12,
    -59, 36, -9, -50, 11, -42, -12, 25,
    5, -45, -3, 47, -8, 3, -99, -6,
    1, 6, 5, 12, 15, 31, 58, -7,
    -6, -2, 4, 13, 27, -41, 31, 7,
    -78, -5, 22, -8, 12, -30, -49, 16,
    3, -23, 17, -17, 19, 39, 17, -15,
    52, 9, -2, -28, -1, 1, 0, 17,
    72, -22, 28, -7, 51, -5, -80, 4,
    -56, -22, -2, -12, 39, 3, -38, 11,
    -81, 9, 15, -21, 59, 9, 34, -36,
    20, -3, 31, 86, 17, -1, -8, -7,
    11, -25, -1, -46, 0, -127, -3, 73,
    9, -27, 27, 17, 1, -27, 5, -14,
    -79, -53, -36, 26, -5, 2, 20, 14,
    0, 32, 33, 39, 8, -37, 45, -10,
    27, -34, 64, 39, -23, 39, 4, 7,
    -27, -7, 86, -5, 11, -8, -5, -8,
    17, 41, 6, -17, -61, -6, -45, -16,
    -72, -18, 3, 39, 11, -7, -66, -32,
    37, -31, 11, 27, -34, -1, -12, -68,
    -12, 5, 6, 19, -28, -9, -1, -36,
    -6, -39, 17, 0, -27, -44, -19, -10,
    5, -10, 15, -19, 10, 6, 5, 41,
    29, 20, -2, -1, 18, -3, 0, -16,
    -8, -72, -16, 1, -16, 15, -1, -2,
    -5, 62, -7, 17, 41, -4, 43, 5,
    0, -13, 62, -4, 14, -19, -34, -29,
    16, 27, 9, -14, -40, 62, 5, -3,
    63, -11, -20, 3, 64, -67, 7, 1,
    0, -15, -12, 1, -31, -20, 22, -39,
    58, 40, 5, -1, -15, 11, -37, -68,
    122, -21, -46, -23, -9, 3, -8, 30,
    -64, -8, 53, -38, 27, -77, -31, -34,
    -65, -39, 25, -49, -28, -23, -29, 12,
    -7, -14, -26, 20, -55, -11, 6, 1,
    -3, 37, 0, -67, -5, -17, -5, 20,
    -7, -24, -89, 3, -1, -6, -9, 0,
    6, -117, -37, -4, -53, 57, -12, 26,
    -39, 35, 43, 92, -108, -29, 22, 13,
    81, 107, 55, -6, -4, 18, 13, 14,
    -11, -13, 69, -21, 60, 33, 28, 56,
    0, 2, 4, 63, -90, -47, -6, -21,
    -68, -37, 2, -18, -42, -44, 15, 0,
    37, 59, 9, -42, -86, -3, -23, -122,
    -70, 1, 2, 110, 11, 21, 35, 13,
    3, -9, -7, 25, -14, -37, -12, -40,
    22, -58, 47, 7, 12, 6, 94, 41,
    20, 35, -15, 5, 127, 2, -12, -10,
    11, -66, -53, -30, -22, -86, -2, -1,
    -15, 127, -3, -1, 122, 27, 108, 33,
    48, 6, -2, -15, -10, -9, 18, -64,
    17, -11, 4, -59, -6, 61, 27, -34,
    45, -2, -5, 33, 101, -36, 81, 10,
    6, 10, -10, -25, -56, -19, -30, -36,
    -38, -9, 1, 14, -4, -17, 9, -4,
    63, 7, -10, 14, -32, 34, 5, 52,
    53, -5, 38, 1, 0, -7, 40, -25,
    -25, -5, -1, 17, -23, 10, 5, 33,
    -2, -50, 1, -70, 2, 9, 1, -1,
    10, 55, -2, -14, 3, 37, 22, -14,
    2, 31, 2, -118, -9, 28, 7, -10,
    5, 66, -34, -46, -9, 49, -5, -15,
    0, 19, 27, 10, -17, 26, 56, 20,
    -1, 12, -47, 12, 9, 19, 11, 11,
    -5, -10, -15, 12, 0, -51, 25, 37,
    12, 7, -5, -11, 48, 23, 42, 15,
    59, 11, -1, 14, 18, 25, -8, -5,
    -3, 22, -2, 38, -28, 0, -1, -70,
    -38, 7, 4, -39, 19, 22, -23, 32,
    12, 14, 26, -19, 10, -59, 30, 48,
    3, -11, -16, 6, 3, 4, 70, 21,
    1, 3, 15, 9, -101, 4, 24, -5,
    22, 5, -10, -41, 27, 18, -14, 7,
    -20, -127, 12, -21, -1, 24, -8, -37,
    25, 17, 9, 5, 14, 36, 43, -93,
    6, -21, 27, -14, 8, -75, -3, 30,
    -46, -26, 17, 37, -34, 57, 30, 7,
    -1, -2, 24, -23, 39, 5, -99, 6,
    11, -32, 3, -12, 3, -65, 6, 46,
    37, 32, 8, 2, 0, 28, -13, 112,
    104, 9, 52, 7, 14, 23, 31, -34,
    4, -16, 29, 25, 67, 10, 16, 60,
    1, 6, -107, 17, 54, 3, 0, -2,
    16, 64, -2, 98, 8, -118, 0, 61,
    23, -38, 35, -43, 1, 20, 24, 18,
    -15, 65, 35, -65, 12, 16, 14, -11,
    46, 37, 40, -85, 33, -31, 29, -9,
    -6, 127, 36, -46, 3, -25, 15, 17,
    17, -1, -104, 6, 46, -57, 2, -6,
    51, 46, 25, 7, 33, 48, 60, 15,
    59, 26, 14, -120, 8, 34, 102, -11,
    -14, -24, 52, 8, -6, 14, 16, 10,
    -12, 17, -3, -89, -33, 28, 15, 26,
    5, 23, 2, 20, 16, -67, 52, 39,
    -3, 5, -97, 22, -8, -14, 14, 10,
    -2, 16, 19, 11, -13, -8, 23, 14,
    -14, 16, -71, 45, 55, 50, -6, 15,
    14, -13, 5, 25, -48, -18, -8, 30,
    -8, 2, 7, 24, -26, 58, 24, -35,
    18, -66, 15, 6, 4, -25, -19, 45,
    40, 12, -7, 53, -62, -36, 38, 4,
    20, -17, 45, 9, 19, 22, -26, 13,
    16, 14, 2, 6, 5, 8, 0, -19,
    3, -10, -27, 6, 6, 3, 37, 17,
    -14, 1, -19, -2, -28, 12, 7, -7,
    9, -3, 7, 8, 26, 2, -4, 13,
    10, 13, -4, 0, 8, 3, 8, 9,
    2, 8, -7, -10, 5, 26, 8, 2,
    10, 3, -17, 6, 0, 7, -3, 3,
    23, -15, 13, 4, -43, 7, -38, -39,
    6, 14, 0, 2, 16, 7, 17, 9,
    11, -4, 13, -8, 9, -2, 9, 7,
    11, 2, 3, 11, 2, -16, 11, 9,
    3, -4, 2, 14, 38, 8, 28, 0,
    -9, 12, 1, -9, 0, 7, 8, 21,
    9, 19, 11, 13, 17, 6, 13, 28,
    -56, 7, 1, 13, 8, 8, 8, -31,
    8, 16, 1, 6, 16, 36, 7, 1,
    0, 8, -20, 13, -6, 5, -5, 14,
    6, 12, 9, -2, -1, 9, 7, 0,
    -1, 36, 2, -6, 5, -3, 3, 9,
    3, 1, 5, 24, -2, 3, 12, 6,
    9, 18, 6, 8, 0, 9, 22, 25,
    0, -127, 10, 10, 11, -15, 3, 7,
    19, 16, 7, -4, 1, 4, 6, 23,
    0, -2, 16, 3, 21, 13, 15, 15,
    14, 39, 17, 16, 10, -9, 12, 21,
    16, 3, 14, 12, 36, 16, 31, 39,
    4, -1, 3, -2, -5, -17, 1, -7,
    -31, -1, 4, 16, 22, 10, 26, 14,
    9, -6, -15, 19, -13, 2, 7, 10,
    9, 9, 8, -28, 9, -116, 1, 14,
    14, 28, 23, 9, 6, 10, 8, 3,
    10, 8, -31, -18, -4, 32, 2, -5,
    38, -1, 16, 8, 58, 40, 44, 6,
    16, -3, -93, 20, 35, 2, 3, 6,
    10, 14, 23, 12, 4, -19, 6, 5,
    -7, 1, 5, 46, -1, 9, -3, 18,
    -16, 9, 9, 4, 9, 5, 1, 17,
    -13, 14, 2, 12, -2, 8, 9, -48,
    -7, 5, 11, -73, 4, -3, -15, 13,
    12, 3, -2, 19, 4, -13, 12, 16,
    -1, 4, 9, 15, -8, 7, -10, 3,
    56, 17, 1, 14, -87, 10, -2, 0,
    17, 20, 11, -27, 7, -15, 4, 11,
    5, -124, 8, 38, -15, 23, 5, -48,
    15, 6, 12, 5, 16, 12, 19, -36,
    5, -13, 21, 6, 10, -20, 25, 1,
    -127, -10, 18, -3, -2, -14, 12, 12,
    -3, 8, 1, -8, 3, 15, 25, -35,
    -25, 18, 0, -4, -7, 0, -4, 8,
    -19, 3, -8, -9, -16, 7, -127, -74,
    -5, -1, 99, -2, 67, -1, -6, -16,
    -11, -26, 1, -11, 24, -11, 3, -58,
    -2, 11, -5, 17, 16, -11, -7, -3,
    -8, -55, -4, 3, -6, -10, -22, 21,
    1, 1, -105, 23, -2, 21, 2, 1,
    -17, -43, 51, 19, 79, -9, 24, 42,
    25, -47, -31, -32, -13, 3, -77, -26,
    -14, 72, -2, 17, -10, -25, -6, -12,
    4, -5, 79, -16, -4, 50, -24, -94,
    40, -34, 0, 4, -87, -46, -67, -2,
    -33, -38, 3, 15, 2, 4, 40, -40,
    -8, -11, -3, -61, 4, -14, -25, 9,
    -9, 13, -3, -31, -10, 9, -11, 10,
    -5, -21, -25, 7, -21, 15, -37, -39,
    0, -62, 7, -13, -5, -12, 19, 10,
    -8, -5, -22, 12, 39, 1, -14, -14,
    0, -48, 1, 31, -24, -5, 6, 0,
    5, 15, 3, -5, 14, -9, 27, 0,
    -38, -16, -22, -14, -25, -20, -116, 30,
    14, 3, -11, 0, 0, 26, -51, 7,
    -98, 8, -5, 44, -4, -41, 43, 26,
    -1, 3, -22, -19, -48, 3, 11, 46,
    14, 19, 10, 8, 6, -51, 16, 70,
    -13, 18, 9, -2, 25, 21, -43, 18,
    74, -10, -8, -22, 46, -25, 14, 24,
    -85, -12, 8, -3, 29, 9, 16, 15,
    2, -4, 18, 23, 25, -6, 4, 2,
    11, -3, 36, 39, -7, 85, -2, 31,
    1, 16, 0, 9, -11, 4, 7, 10,
    1, 127, -21, -7, -12, -2, 11, -9,
    9, 7, 7, -5, 10, 24, -14, 5,
    5, -3, -26, 6, 0, -3, 27, 26,
    -15, -4, 30, -18, -2, 9, -10, 17,
    25, 25, 1, -6, -13, 30, 2, 12,
    57, -18, 0, 24, -5, -2, 12, -15,
    0, -24, -11, 9, -111, -14, -25, -50,
    -49, -2, -1, -49, 8, 9, -2, 87,
    -7, 12, 11, 3, 4, -121, 9, 50,
    -8, 3, 49, 12, 3, -4, 27, 31,
    3, 16, 3, -2, -51, -2, 10, -8,
    7, -71, 14, 16, -15, 40, 6, 17,
    -13, -20, 9, -26, -19, 21, 10, -9,
    4, -6, 6, 9, 3, -1, -13, -72,
    16, -62, -1, -3, -1, 14, -5, 2,
    -3, -64, 20, -21, 1, -14, 8, 18,
    7, 5, 21, -7, -2, -36, 0, -48,
    -14, 11, -12, 15, 0, 10, 12, -15,
    72, 23, 1, -1, 35, 26, -4, 22,
    29, -4, 57, 2, 54, -3, -9, -27,
    -25, -5, 9, 16, -4, 6, -32, 1,
    17, -11, -18, -14, 59, 4, 2, 0,
    10, 58, -3, -19, 4, -96, -14, -18,
    7, 22, 2, 0, 5, 41, 3, 1,
    20, 31, -24, -29, 38, 90, 23, 39,
    75, 23, 8, 57, 19, -6, 22, 24,
    -18, 1, 8, -25, 33, 26, 10, 16,
    17, -3, 8, -1, -2, 4, 27, 35,
    -24, 9, 17, 1, 8, 31, 1, 9,
    56, -9, 7, -48, 18, 19, 43, 13,
    3, 69, -1, 6, -2, -7, 6, -46,
    -40, 15, 3, 44, 16, 17, -6, 41,
    13, 2, -15, 14, 0, -18, 22, 46,
    6, -21, 77, 5, 11, 9, 127, 33,
    -4, 13, -6, 11, 8, 11, 21, -2,
    13, -3, -4, 30, 4, 2, 7, 26,
    -5, 7, 13, 5, 51, 14, -41, 8,
    14, 15, 2, 7, -1, 50, 43, -25,
    6, -74, 9, -10, -2, -24, -20, 20,
    43, 10, -2, 17, 9, 83, 10, 37,
    5, -10, 10, -12, -20, 3, 1, 4,
    62, 18, -27, -15, 3, -30, 3, -38,
    -17, -5, 26, 14, -12, 22, 55, 29,
    -38, 16, -14, 8, -13, 9, 63, -49,
    36, -1, -13, 20, 78, 14, 23, 69,
    -10, -15, -58, 49, -8, 18, 12, 9,
    6, 14, -22, 20, 16, 112, 15, 42,
    12, 34, -4, -12, -2, 0, -11, -17,
    39, -24, 57, -49, 37, -51, 20, 39,
    -47, -2, 25, -33, 25, 10, 17, -7,
    -17, -36, 25, -22, 15, -18, 0, 4,
    17, -6, -57, 14, 7, -127, -19, -11,
    51, -12, 21, -66, 82, 11, -7, -12,
    -26, 21, 12, -44, 13, 9, 44, 53,
    59, 2, 43, -13, 7, 6, 5, 79,
    80, 17, -7, 37, 32, -5, 4, -111,
    16, 9, 5, 27, 13, 28, -12, 6,
    4, 7, -119, 13, -28, -1, -48, 4,
    -74, 0, -6, 13, 29, 11, 9, 11,
    21, 29, -9, -8, 21, 48, -20, 5,
    8, -33, 14, 54, -63, 12, -26, 46,
    24, 4, -14, 13, -21, 0, -16, -3,
    2, 23, 29, 26, -1, -3, -7, 28,
    -49, 16, 5, 81, 11, -14, -38, 2,
    -18, -17, -30, 12, -8, 26, 15, 17,
    -19, -2, -12, 12, 6, 13, -17, -34,
    76, -15, 33, 9, -52, -6, -4, 51,
    -30, 1, -29, 4, 17, -1, 3, -14,
    7, 4, 11, -13, -40, 21, 49, 29,
    2, -40, 5, 14, -13, 5, 8, 2,
    21, 44, -14, -55, 8, -127, 8, 15,
    1, 19, 45, -101, 6, -4, -1, -21,
    5, -33, -91, 36, 6, 48, 4, -6,
    -53, 11, 49, 37, 3, 23, 41, 25,
    6, -78, 36, 43, 16, 40, 3, 28,
    1, 19, -7, 15, 4, -59, 4, 114,
    -16, 43, -3, -4, -18, -1, -17, -3,
    -15, 20, 7, 11, -2, -9, -4, 0,
    -9, 27, 56, -22, -8, 23, 5, -69,
    -14, 1, 6, 70, 14, 14, 20, 15,
    3, 0, 4, 6, -10, -15, 25, 6,
    15, 19, -50, 5, 26, 21, 26, 30,
    2, 16, 4, 2, 22, 1, 20, 13,
    1, -6, -3, 62, 24, -31, 17, -10,
    -12, 47, 2, 12, 33, 15, -26, 40,
    56, 14, 22, 41, 9, 17, 38, -96,
    -5, -35, 13, -19, 12, -8, 19, -8,
    71, 27, 25, 33, 37, 20, -48, 10,
    -3, 0, -8, -6, -1, -5, -64, -41,
    26, 23, 20, 31, 15, 93, 0, 7,
    7, -23, -28, -1, -2, 11, -66, -30,
    -10, 7, 29, 14, 12, 45, 0, 31,
    41, 12, 12, 10, 16, 12, 10, -12,
    2, 48, -23, 13, 14, 10, 15, 20,
    5, -9, 11, -12, 0, -14, 25, -20,
    -11, 37, -16, 19, -1, 13, 20, 26,
    -11, 17, -12, -19, -24, -5, -26, -11,
    0, -5, 20, -50, -1, 11, 25, 25,
    -8, 11, 42, 15, 26, 10, 17, 23,
    11, 25, -28, 7, -7, 60, 36, -21,
    -7, -18, 15, -17, -16, 6, 11, 12,
    33, 22, -2, -26, -16, -22, 2, -25,
    17, -31, 8, 8, 56, 1, 24, 44,
    -81, 1, 17, 83, 24, 26, 6, -5,
    3, 20, 5, -7, 25, 95, 1, 1,
    43, 4, -53, 19, 21, 26, 4, 36,
    -17, 16, 29, 7, 11, 21, 19, 2,
    31, 12, -9, 11, 9, -11, 55, -18,
    -6, 5, 10, 17, 33, 7, -12, 1,
    26, 28, -5, 8, 15, 3, -22, 127,
    9, -101, 6, 30, 10, -41, -25, -21,
    25, 25, -61, -11, 8, 81, 20, 22,
    6, 68, 8, 37, 36, -42, 66, 34,
    -12, 4, 23, 14, 7, -2, -21, 7,
    35, 0, -52, -1, 18, 6, 11, 44,
    -7, -1, 27, -22, 11, -2, 22, 9,
    -35, -10, 13, -7, 1, -4, 9, -7,
    6, 19, 29, -3, -7, -5, 9, 10,
    -3, -7, 8, -8, 2, 17, -1, 0,
    8, 1, -52, 11, 1, 11, 3, 8,
    24, -15, 5, 17, -52, 30, -29, -3,
    17, 3, 13, 18, 14, 23, 35, -2,
    26, 25, -13, 22, 14, 5, 14, 5,
    9, 3, 9, -4, -1, 36, 4, 21,
    -8, -8, -9, 15, 7, -8, -1, 12,
    -47, -9, 3, 53, -15, -3, 13, 1,
    4, 25, 0, -7, 5, 6, 2, -11,
    -127, 0, 2, -16, -1, 13, 0, 30,
    -10, 11, 12, -7, 1, 8, 4, -19,
    2, -15, 27, 11, 1, 15, -4, 18,
    17, 23, 13, 4, -23, 7, -31, -9,
    15, 22, 17, 12, -2, -47, 14, 13,
    -4, -31, 5, -6, 0, 1, 46, 0,
    13, 16, 4, 11, 14, -5, 8, 14,
    10, -54, 6, 3, 14, -40, 0, -9,
    -36, -8, 12, 15, -2, -59, 24, 9,
    4, 5, 11, -12, 8, 1, 0, 31,
    1, 11, -10, 15, 5, -80, 21, 0,
    -23, -18, -35, 12, -55, 19, -6, 2,
    49, -16, -12, 1, 5, -39, 27, -24,
    11, -4, -6, 32, -37, 6, -1, 21,
    -13, -17, 32, -32, -14, 2, 10, 8,
    11, 35, 14, 29, 7, 83, -14, -1,
    -9, 25, -7, -80, -13, 3, -10, 6,
    21, 78, -33, 11, -43, -18, -17, 9,
    -33, -3, 19, -23, -10, 25, -6, 5,
    0, 8, 20, -11, 6, -29, 10, 34,
    3, -20, 6, -5, -2, -91, -19, 5,
    5, -9, 14, 11, 11, 20, 5, 10,
    58, -12, -5, 23, -20, -12, 24, 11,
    22, 0, -16, -24, -62, -9, -6, -42,
    -82, 1, -10, 16, 23, 7, 16, 22,
    6, 16, 1, 19, 22, -54, -18, 51,
    -19, 16, -31, 23, 2, 2, 46, 27,
    -17, 18, 1, 2, 35, 11, 23, 13,
    2, -30, 21, 2, 13, 39, -18, 26,
    0, 22, 16, 2, -6, 19, 28, 23,
    11, -2, -18, 11, -27, 6, -5, -127,
    -1, -75, 7, 6, 12, 2, -6, 10,
    17, -1, 43, 1, -3, 49, -3, 18,
    -7, -15, -4, 7, 1, 3, -78, -58,
    -2, 15, 8, 7, 1, 4, -11, -9,
    -7, -4, -41, 0, 21, -4, 16, 13,
    -9, 2, 2, -7, -30, -8, -4, -6,
    -11, 0, 8, 1, 18, -2, -8, 9,
    7, 5, 16, 1, -12, -7, 3, 5,
    0, 10, -1, -4, 0, -46, -6, 0,
    7, -9, -42, 20, 5, 7, 2, 5,
    22, -32, 6, 2, -50, 1, -42, -8,
    19, 12, -6, 0, 6, 0, 4, 2,
    7, 23, -36, 7, 0, -7, 6, 8,
    1, 2, 33, -7, -2, 8, -3, 3,
    -3, -8, -6, 27, -22, 5, 13, -3,
    -21, -9, 4, 21, -8, -5, 29, 8,
    -20, 15, -16, 1, 7, -2, 9, 5,
    -127, 5, -2, -56, -8, 1, 15, -9,
    -4, 8, 9, -9, 9, 11, 19, -20,
    -13, -9, 11, 9, 7, 1, -11, 3,
    27, 9, 0, 5, -26, 6, -11, 7,
    -11, 32, 14, -5, 2, -28, -2, 3,
    4, -26, 0, 3, -2, -3, 34, -7,
    -20, 5, -9, 0, 0, 8, 22, 13,
    -5, -34, 2, -1, 10, -5, 1, 3,
    -10, 3, -2, -10, -16, -28, 21, 11,
    -3, -7, 12, -6, 0, 11, 11, 3,
    -56, -20, -20, -1, -3, -65, 6, 9,
    56, 35, -44, -5, 30, 5, 41, 76,
    21, -11, 26, -30, 12, -17, 12, -19,
    -54, 3, -2, 13, -113, 11, -6, 40,
    5, -48, -1, -48, -29, -11, 8, 5,
    14, 35, -18, -18, 9, 61, -34, -36,
    6, -6, -23, -82, 5, -2, -29, -20,
    26, 24, -32, 3, -53, 28, -26, -13,
    8, 37, 34, 28, -11, -2, 54, -1,
    21, 51, 2, -3, -4, -3, 0, 11,
    8, -1, -58, -10, 22, -78, -18, 69,
    -23, 25, -10, -39, 30, 13, 15, 1,
    11, 18, 6, -20, -18, 18, 0, 9,
    9, 37, 5, -1, -31, 20, 7, -127,
    -122, -2, -11, 2, 4, 11, 15, 25,
    -21, 12, 1, -21, -8, -72, 41, 35,
    -17, 30, 14, 8, -4, -4, 17, 16,
    -21, 16, -1, 6, 26, -9, -5, 21,
    -1, 31, -33, 27, 18, -7, -29, 14,
    -13, 31, 0, 2, -25, -1, 5, 75,
    6, 18, 8, 37, -1, 29, 59, -106,
    13, -104, 17, -33, 16, -101, 17, 19,
    21, -14, 34, 71, -9, -16, 27, 4,
    -10, -47, 18, -25, 8, 18, -71, -23,
    -30, 16, -10, -4, -1, -33, 45, 11,
    -35, -69, 1, 8, -58, -27, 45, 71,
    34, 30, -109, 20, -59, 34, 49, -95,
    43, 20, 6, 37, 6, 23, -13, 109,
    2, -58, -39, -48, -31, 32, 17, 20,
    16, 13, -28, 50, 14, 37, 38, -41,
    28, 11, 50, -81, -8, 12, -29, -21,
    19, 34, 102, -21, -14, -63, -26, -32,
    -49, 63, -14, 4, 9, -46, 34, -4,
    -44, -29, 83, -17, 11, -36, 36, 3,
    27, 3, -69, 22, 35, -118, 6, -45,
    42, 35, -9, -60, 104, 62, 77, 2,
    55, 69, 7, -53, 20, 47, 32, 22,
    18, -42, 40, 52, 3, 33, 47, 84,
    25, 28, 2, -89, 35, 25, 46, -50,
    17, 42, -11, -32, 48, 53, 62, 32,
    8, 76, -123, 45, -44, -5, -69, 21,
    -46, -4, 20, 13, 58, 17, 56, 47,
    3, 52, -39, -20, 13, 61, -19, 9,
    27, 29, -5, 16, -55, 1, -65, 127,
    -38, 44, 43, 7, 23, 62, 60, 34,
    39, -82, 23, 37, 43, -75, -16, 48,
    10, 20, -8, 92, -109, 53, -41, 1,
    6, -14, 29, 6, 69, 62, -84, 81,
    1, 4, 20, 4, 10, 37, 0, -39,
    -49, 31, -28, 18, -12, -7, 18, -40,
    -19, 7, -12, 11, -46, 40, -3, -9,
    53, 11, 19, -18, 45, 12, 21, -14,
    41, 18, 20, -22, 0, 15, 16, 18,
    2, -24, -24, 7, 10, -18, 21, -9,
    15, -9, -22, 26, 5, 4, 8, 15,
    -15, -65, 64, 29, -25, -50, -19, -8,
    12, 7, -7, -25, 37, 17, 10, 26,
    24, 8, -45, 25, 8, -26, 15, 16,
    26, 13, 24, 13, 26, -20, 10, -78,
    7, -32, 10, 41, 21, 19, 14, -9,
    17, 2, 8, 17, -17, -14, -25, 5,
    -40, -15, -10, -2, 53, 8, 26, 127,
    -23, 21, 7, -126, 8, 3, 14, -78,
    31, 22, -16, -5, 27, 81, 24, -22,
    -3, 34, -96, 15, -34, -8, -42, 15,
    44, 16, -15, 7, -68, 10, 16, -1,
    -20, 62, 17, -30, 20, 14, 4, -10,
    36, -78, 0, 30, -30, 1, 21, -63,
    -64, 11, 1, 0, 0, 31, -14, 83,
    -10, -32, 20, 37, 20, -42, -15, 33,
    -85, 38, -37, -8, -24, 41, 6, 34,
    4, -3, 25, 0, -14, 17, 56, 53,
    8, 18, -20, 4, 11, 18, -13, -30,
    -6, 35, 4, 2, 6, 27, 30, -2,
    -43, 8, -13, 17, 41, 28, 40, 15,
    49, -1, 9, 20, -38, 14, 18, 15,
    17, 43, -37, -40, -7, 2, 14, 13,
    -1, -13, -21, -5, 12, -44, -2, -41,
    16, -1, 9, -5, 7, 6, -9, 13,
    21, -64, -7, -39, -22, -15, -40, -6,
    -3, 12, 1, -21, -3, -1, -4, 2,
    -16, -5, 54, 6, 24, 3, -1, 8,
    18, 0, -127, 10, 32, -1, -1, -25,
    -16, -11, 27, -90, 38, 3, 14, 10,
    -34, 11, 4, -47, 4, 17, 27, 35,
    73, 48, 44, 9, 53, 14, 16, 58,
    -53, 5, 4, 36, 24, 10, -12, -17,
    3, 16, 20, 36, 18, 29, 20, -22,
    24, -18, -28, -2, -20, 1, -39, 7,
    -53, -7, -1, -1, 26, 18, 7, -9,
    17, 50, -34, 53, 10, 3, 6, 7,
    -6, -5, 17, 0, -45, 4, 10, 27,
    24, 16, -5, 22, 1, 4, -13, 52,
    7, -57, 19, 15, -6, -60, 6, 2,
    25, 43, -9, 0, 34, -33, 0, 26,
    1, -6, 23, 19, 3, 1, 16, 33,
    -44, 42, 22, 10, 4, 39, 6, -56,
    33, -76, -70, 2, -26, -37, 26, 4,
    -104, -36, -21, -5, -53, -19, 0, 7,
    -3, 5, 20, -12, -84, -14, 36, -4,
    18, -29, 9, -62, -6, -4, 11, 12,
    -1, 9, -13, -127, -3, 15, 7, -40,
    -5, 6, -73, -12, -6, -16, -11, -5,
    48, -72, -89, 29, -69, 37, -60, -12,
    -36, 19, 0, 20, -25, 33, 15, 21,
    28, 11, 22, 20, 3, 25, 23, 5,
    -18, 1, 5, -3, 13, 23, 0, 73,
    -42, 24, -16, 16, -16, -3, 27, -20,
    -78, -3, -2, 25, -17, -19, 48, 17,
    -19, 33, 9, 2, 5, -4, -2, -58,
    -69, -1, 0, 37, 9, 3, 46, -29,
    -15, 6, -3, -10, 18, 48, 13, -1,
    -1, -15, -3, 21, 14, 3, -15, 30,
    21, 27, -7, -10, 49, 3, -8, -1,
    -10, 30, 11, 42, -18, -64, 10, -13,
    -9, 67, 9, -13, 68, -1, 96, 3,
    9, 20, 25, -5, 10, -12, 40, -17,
    16, 42, 20, -22, 23, 7, 8, -17,
    49, 21, 27, -46, 2, 4, 15, 41,
    -2, -2, 6, -16, 11, -6, -35, -24,
    -7, -2, -5, 3, 5, -16, 1, -2,
    -21, -16, -34, 6, 15, -14, 30, 19,
    9, 10, -35, -5, -22, -3, -12, -19,
    -3, 14, 3, 16, 13, 6, -17, 16,
    4, -2, 4, -20, 18, -5, 5, 7,
    2, -1, -20, 10, 6, 48, -16, -13,
    6, -12, -25, 7, 0, 0, -15, -2,
    25, 4, 8, 7, -63, -10, -34, -36,
    14, 22, -23, -11, 13, -25, 5, -5,
    4, -31, -12, -13, 0, -27, 3, 4,
    6, 5, -30, -4, -11, -14, -5, -11,
    3, 10, -9, -8, 18, 11, 27, 0,
    -1, 18, 6, -19, -6, 13, -4, 19,
    -8, 12, -11, 9, 3, 10, 14, 7,
    -127, 2, -8, -48, -9, 2, 21, -10,
    -3, 12, -5, -14, 13, 11, 16, 0,
    -25, 23, -4, 13, -7, 5, -29, 1,
    -6, -6, 1, 2, -23, 5, -5, 20,
    -12, 27, -3, -1, -4, 0, -6, 8,
    9, -18, -4, 20, -27, -1, -11, -4,
    -31, 10, 7, 5, -9, 11, 26, 8,
    2, -113, 3, 12, 18, -42, 8, 9,
    -7, 9, 16, -9, -39, -18, -15, 5,
    0, -25, 13, 3, 17, 27, 2, -11,
    97, 13, -3, -4, 17, 70, 7, -2,
    14, -52, 48, 12, 35, 3, -33, -64,
    -28, 5, -8, 36, -7, 43, -21, 16,
    24, 42, 12, 22, 100, 20, 50, -19,
    22, 33, -47, 63, 51, 16, 6, 7,
    15, -7, 11, -15, 9, -56, -28, 1,
    -2, 6, 107, 55, 22, 5, 0, 14,
    -19, 10, -25, 8, 60, 30, 42, 12,
    2, -2, -4, 6, 15, -4, -60, 25,
    -26, -24, 23, 2, 22, 18, -20, 12,
    25, 43, -41, 5, -26, 59, -10, -14,
    3, 12, 15, -42, 2, 23, -3, 8,
    11, 26, 12, -69, 32, 12, 4, 11,
    -15, 17, 22, 13, 56, 14, 26, 39,
    39, 6, -8, 12, 19, 2, -1, -5,
    9, -5, -18, 28, 10, 47, -21, 8,
    2, 53, 22, 2, 3, 24, 36, 14,
    -17, 1, -4, 8, 24, 17, 26, 6,
    13, -43, 12, 68, -22, 37, 29, -14,
    -10, 30, 11, 30, 28, 13, -44, -10,
    0, -5, 44, 14, 4, -1, -13, 79,
    13, 2, 12, 42, -9, 27, -2, -11,
    -7, 48, -12, -61, 50, 33, 13, 19,
    0, 2, 10, 47, -12, 1, 127, 10,
    6, 27, 9, 16, 11, -26, 16, 58,
    70, -40, -25, -2, 1, 16, 20, 76,
    65, 0, -4, -4, -8, -4, -38, 33,
    -54, -22, 11, 27, -10, 26, 7, 56,
    -10, -13, -56, -16, 36, 15, 6, 8,
    24, 14, 66, 11, 2, -116, 27, 2,
    10, -7, 43, 11, -1, 6, 21, 11,
    52, 101, -64, -72, -76, 72, -39, -28,
    -6, 12, 10, 36, 28, -21, 30, 12,
    29, -11, -19, -64, 20, -11, 35, 27,
    -16, -11, -54, -7, -9, 75, 6, 71,
    -5, 26, 7, -1, 2, 50, -2, 0,
    39, 12, 8, -60, 16, 14, 50, 26,
    25, 3, 12, 11, -68, -3, 13, -105,
    -108, 15, -4, -49, 12, 24, 20, 127,
    -2, 16, 24, 10, 13, -71, 25, 45,
    -10, 9, 90, 42, 28, 14, 81, 41,
    -14, 33, 34, 0, 29, 16, 13, 11,
    10, -20, -11, -29, -6, 13, 25, 44,
    -32, 28, 4, 20, 57, 28, 63, -11,
    -8, 14, -20, 25, -16, 16, 1, -64,
    26, -79, 5, -20, -10, -2, 32, 9,
    -34, -22, 20, -15, -2, 6, 35, 12,
    -1, 25, 16, -11, 17, 5, -13, -60,
    75, 88, 43, 17, 23, 27, 21, 54,
    -22, 18, 14, 22, 76, 10, 95, -9,
    -8, 36, -51, 23, -2, 1, -54, 20,
    -25, 6, 27, 32, 83, 35, 5, 59,
    22, 2, 35, 83, -32, 39, 11, 15,
    27, -38, 69, -37, 18, -115, 63, 21,
    21, 30, 29, 111, 10, 7, 23, 6,
    35, -11, -31, 11, 2, -40, 26, 24,
    -1, 28, -11, -3, 60, 7, 34, -3,
    12, -45, -57, 67, 33, 1, 15, 17,
    20, 54, 83, 10, 57, 17, 36, -17,
    7, 28, -4, 76, -2, 24, 46, 20,
    -22, 44, 21, 55, 26, 23, -62, 43,
    32, -15, 13, 71, -1, 22, 46, -36,
    55, 15, 17, -74, 30, 33, -11, -6,
    39, 31, -14, 16, 27, 15, 54, -2,
    27, 41, 56, 29, -8, 16, -54, 19,
    92, 0, 27, 32, -2, 24, 33, 13,
    19, 29, 97, -78, -24, -12, 36, 0,
    25, -32, 2, 65, 39, 45, -16, -87,
    -6, 35, 37, 12, 42, 16, 28, -5,
    33, -34, 14, 41, 25, 83, 56, 25,
    -112, -11, 1, -25, 50, -31, -3, 20,
    8, 67, 39, 11, 64, 57, 127, -65,
    -5, 3, 27, 11, 14, -15, 9, 55,
    9, 3, 1, 1, 26, 15, 6, 33,
    32, -3, -12, -2, 50, 9, -12, 23,
    -4, -1, 13, 16, 60, 16, 3, 11,
    12, 41, 0, -42, 72, 5, 9, 13,
    2, -35, 26, 29, 2, -63, -22, 0,
    14, 1, 44, 44, 14, -4, 17, 27,
    14, 28, 32, -32, -31, 26, -4, -5,
    63, 8, -25, -29, 53, -49, 13, -4,
    22, -8, 18, -49, 25, -33, 12, 13,
    -9, -3, 28, -10, -34, 127, -14, -5,
    1, 14, 19, 13, 25, 32, -11, 3,
    -13, -7, 7, -4, 7, 19, 22, 30,
    27, 12, 1, -1, 5, 6, 14, 41,
    -83, 10, -9, -105, -2, 1, -3, 79,
    -7, 9, 15, 4, 19, 14, 20, 3,
    -27, 12, 51, 19, 12, 9, -10, 21,
    9, 31, 13, 2, -78, 32, -10, 2,
    5, 32, 26, 26, -17, 11, 30, 32,
    -1, -17, 8, 18, -18, -9, 33, 5,
    -40, 1, -16, 0, -25, 12, -17, 77,
    21, -12, -1, 15, -18, -60, -6, 3,
    42, 3, -3, -36, -56, -41, 17, 5,
    7, -6, 11, 8, -12, 10, 32, 15,
    -13, -7, 1, 9, 3, 43, -1, -41,
    110, -8, -12, 1, 22, -5, 23, 44,
    -67, -15, 42, 21, 28, -17, -13, -18,
    -17, 4, 21, 0, -83, 11, -25, -1,
    21, -23, -7, -35, -2, 9, 6, 7,
    9, 19, -34, -112, 8, -127, -4, -37,
    20, -14, 6, -32, 11, 11, -2, -10,
    -7, -101, -66, 0, 1, 54, -4, 20,
    48, 24, 18, 40, -23, -16, 54, 12,
    12, 46, 23, 30, 14, 37, -10, -3,
    28, 11, -34, 0, 48, 8, 35, 10,
    -35, 7, 7, 0, 11, 2, -2, 9,
    -59, 7, 6, -16, 12, 19, -27, 1,
    -8, 79, 14, 20, 29, 17, 13, -74,
    -22, 10, 16, 33, 1, 6, -6, -25,
    4, -3, -4, 6, -11, 5, 16, -21,
    29, 0, -9, 0, -3, 9, 29, 7,
    22, -3, 5, 3, 29, 2, 16, 2,
    17, 11, -26, 31, -7, -35, 6, 9,
    0, 22, 5, -3, 56, 2, -7, -1,
    19, 16, 20, 7, 34, 22, 58, -15,
    32, -28, 13, -9, 12, -34, 10, -4,
    3, 12, -2, 15, 21, -25, 32, 12,
    9, -7, 8, -4, 0, 17, -36, -30,
    -3, 9, 4, 10, 5, 17, 9, -24,
